{"learner":{"attributes":{"scikit_learn":"{\"_estimator_type\": \"regressor\"}"},"feature_names":[],"feature_types":[],"gradient_booster":{"model":{"gbtree_model_param":{"num_parallel_tree":"1","num_trees":"150"},"iteration_indptr":[0,1,2,3,4,5,6,7,8,9,10,11,12,13,14,15,16,17,18,19,20,21,22,23,24,25,26,27,28,29,30,31,32,33,34,35,36,37,38,39,40,41,42,43,44,45,46,47,48,49,50,51,52,53,54,55,56,57,58,59,60,61,62,63,64,65,66,67,68,69,70,71,72,73,74,75,76,77,78,79,80,81,82,83,84,85,86,87,88,89,90,91,92,93,94,95,96,97,98,99,100,101,102,103,104,105,106,107,108,109,110,111,112,113,114,115,116,117,118,119,120,121,122,123,124,125,126,127,128,129,130,131,132,133,134,135,136,137,138,139,140,141,142,143,144,145,146,147,148,149,150],"tree_info":[0,0,0,0,0,0,0,0,0,0,0,0,0,0,0,0,0,0,0,0,0,0,0,0,0,0,0,0,0,0,0,0,0,0,0,0,0,0,0,0,0,0,0,0,0,0,0,0,0,0,0,0,0,0,0,0,0,0,0,0,0,0,0,0,0,0,0,0,0,0,0,0,0,0,0,0,0,0,0,0,0,0,0,0,0,0,0,0,0,0,0,0,0,0,0,0,0,0,0,0,0,0,0,0,0,0,0,0,0,0,0,0,0,0,0,0,0,0,0,0,0,0,0,0,0,0,0,0,0,0,0,0,0,0,0,0,0,0,0,0,0,0,0,0,0,0,0,0,0,0],"trees":[{"base_weights":[-1.2591639E-2,4.6983418E-1,-1.2837708E0,2.019198E-1,1.3961232E0,-1.3474295E0,8.271797E-1,3.269424E-1,-1.4267575E0,1.4347998E0,-1.0917752E-1,-1.4498682E0,-1.503594E-1,1.2003881E0,-7.4228935E-2,1.9614267E-1,1.3204931E0,-1.5992332E0,9.879706E-2,1.4917308E0,-1.1282927E-1,-5.613885E-1,-1.5478057E0,4.0445164E-1,-1.0625298E0,1.5617037E-1,-2.9675288E-2,3.78073E-1,-5.448581E-1,1.45387E0,-1.1111343E-1,-1.780979E0,1.19307056E-1,1.5257388E0,-3.8180745E-1,-9.9563E-1,1.2484415E-1,-7.687381E-1,1.2484415E-1,-1.5743787E0,6.793355E-2,7.914966E-1,-6.921586E-1,-1.675016E-1,8.268742E-2,6.134355E-3,6.944577E-2,7.5173243E-3,-9.548086E-2,1.5194193E-1,-7.4228935E-2,-1.1032852E-1,1.2484415E-1,-1.8847468E-1,-8.882518E-3,9.879706E-2,-1.18782595E-1,1.554599E-1,-2.4656951E-2,-1.18782595E-1,5.943201E-2,-1.4811097E-1,1.4878364E-2,-9.489859E-2,1.123266E-1,-1.6072057E-1,2.1164834E-2,-8.820425E-2,1.1488309E-1,5.943201E-2,-1.426092E-1],"categories":[],"categories_nodes":[],"categories_segments":[],"categories_sizes":[],"default_left":[0,0,0,0,0,0,0,0,0,0,0,0,0,0,0,0,0,0,0,0,0,0,0,0,0,0,0,0,0,0,0,0,0,0,0,0,0,0,0,0,0,0,0,0,0,0,0,0,0,0,0,0,0,0,0,0,0,0,0,0,0,0,0,0,0,0,0,0,0,0,0],"id":0,"left_children":[1,3,5,7,9,11,13,15,17,19,-1,21,23,25,-1,27,29,31,-1,33,35,37,39,41,43,-1,-1,45,47,49,51,53,55,57,59,61,-1,63,-1,65,-1,67,69,-1,-1,-1,-1,-1,-1,-1,-1,-1,-1,-1,-1,-1,-1,-1,-1,-1,-1,-1,-1,-1,-1,-1,-1,-1,-1,-1,-1],"loss_changes":[5.9756525E2,1.7501622E2,3.713745E1,1.1226916E2,1.679895E1,3.1738373E1,5.8504353E0,6.6114944E1,1.7960304E1,1.3940582E1,0E0,2.0009705E1,1.13906975E1,4.3703413E0,0E0,6.120765E1,1.1473396E1,1.1797104E1,0E0,1.0193115E1,9.025074E0,1.04884815E1,1.3826172E1,6.5712624E0,1.1183223E1,0E0,0E0,3.642239E1,2.2848356E1,8.939476E0,9.441101E0,5.7334137E0,6.265568E0,7.9711304E0,3.4509897E0,2.711938E0,0E0,9.046302E0,0E0,1.28463745E1,0E0,7.565077E0,4.846822E0,0E0,0E0,0E0,0E0,0E0,0E0,0E0,0E0,0E0,0E0,0E0,0E0,0E0,0E0,0E0,0E0,0E0,0E0,0E0,0E0,0E0,0E0,0E0,0E0,0E0,0E0,0E0,0E0],"parents":[2147483647,0,0,1,1,2,2,3,3,4,4,5,5,6,6,7,7,8,8,9,9,11,11,12,12,13,13,15,15,16,16,17,17,19,19,20,20,21,21,22,22,23,23,24,24,27,27,28,28,29,29,30,30,31,31,32,32,33,33,34,34,35,35,37,37,39,39,41,41,42,42],"right_children":[2,4,6,8,10,12,14,16,18,20,-1,22,24,26,-1,28,30,32,-1,34,36,38,40,42,44,-1,-1,46,48,50,52,54,56,58,60,62,-1,64,-1,66,-1,68,70,-1,-1,-1,-1,-1,-1,-1,-1,-1,-1,-1,-1,-1,-1,-1,-1,-1,-1,-1,-1,-1,-1,-1,-1,-1,-1,-1,-1],"split_conditions":[-8.9790434E-1,-9.946265E-1,-9.9568474E-1,-9.871037E-1,-9.8926115E-1,-9.978506E-1,1.3358018E-1,-9.989253E-1,-9.975813E-1,-9.817303E-1,-1.0917752E-1,-7.131701E-1,-9.86029E-1,-9.648213E-1,-7.4228935E-2,-9.693713E-1,-9.942589E-1,-9.8808104E-1,9.879706E-2,-9.996102E-1,-7.6644504E-1,-9.803954E-1,-9.994577E-1,-6.7287713E-1,-9.197128E-1,1.5617037E-1,-2.9675288E-2,-6.292316E-1,-9.335818E-1,-9.8490286E-1,-8.640569E-1,-9.8529893E-1,-8.948849E-1,-9.920507E-1,-6.745326E-1,-9.8590916E-1,1.2484415E-1,-9.785062E-1,1.2484415E-1,-9.972368E-1,6.793355E-2,-6.081257E-1,-2.2040054E-1,-1.675016E-1,8.268742E-2,6.134355E-3,6.944577E-2,7.5173243E-3,-9.548086E-2,1.5194193E-1,-7.4228935E-2,-1.1032852E-1,1.2484415E-1,-1.8847468E-1,-8.882518E-3,9.879706E-2,-1.18782595E-1,1.554599E-1,-2.4656951E-2,-1.18782595E-1,5.943201E-2,-1.4811097E-1,1.4878364E-2,-9.489859E-2,1.123266E-1,-1.6072057E-1,2.1164834E-2,-8.820425E-2,1.1488309E-1,5.943201E-2,-1.426092E-1],"split_indices":[463,707,598,967,786,265,465,124,361,967,0,801,633,393,0,647,929,594,0,7,585,19,81,77,388,0,0,282,157,600,126,122,855,4,77,0,0,948,0,36,0,282,629,0,0,0,0,0,0,0,0,0,0,0,0,0,0,0,0,0,0,0,0,0,0,0,0,0,0,0,0],"split_type":[0,0,0,0,0,0,0,0,0,0,0,0,0,0,0,0,0,0,0,0,0,0,0,0,0,0,0,0,0,0,0,0,0,0,0,0,0,0,0,0,0,0,0,0,0,0,0,0,0,0,0,0,0,0,0,0,0,0,0,0,0,0,0,0,0,0,0,0,0,0,0],"sum_hessian":[9.724406E2,7.053741E2,2.6706647E2,5.4807117E2,1.573029E2,2.5959958E2,7.46691E0,5.0974106E2,3.833014E1,1.5531172E2,1.991176E0,2.3894112E2,2.0658451E1,6.222425E0,1.244485E0,4.5149915E2,5.8241898E1,3.6090065E1,2.240073E0,1.49836E2,5.475734E0,2.4391907E1,2.1454921E2,1.3191541E1,7.46691E0,4.97794E0,1.244485E0,3.628918E2,8.860733E1,5.3263958E1,4.97794E0,3.2605507E1,3.484558E0,1.4734703E2,2.48897E0,3.484558E0,1.991176E0,2.240073E1,1.991176E0,2.1230914E2,2.240073E0,9.95588E0,3.235661E0,5.724631E0,1.742279E0,1.8194371E2,1.8094812E2,3.559227E1,5.301506E1,5.2019474E1,1.244485E0,2.986764E0,1.991176E0,3.061433E1,1.991176E0,2.240073E0,1.244485E0,1.4510695E2,2.240073E0,1.244485E0,1.244485E0,2.240073E0,1.244485E0,2.0907349E1,1.493382E0,2.0857568E2,3.733455E0,1.493382E0,8.462498E0,1.244485E0,1.991176E0],"tree_param":{"num_deleted":"0","num_feature":"1000","num_nodes":"71","size_leaf_vector":"1"}},{"base_weights":[-2.2910517E-2,4.080539E-1,-1.1787826E0,1.7281863E-1,1.2299569E0,-1.2538565E0,1.1425705E0,2.727732E-1,-1.4139528E0,1.2695578E0,-6.386445E-1,-1.3588952E0,-2.4813654E-2,1.5234163E-1,-1.2355341E-2,1.528434E-1,1.2278299E0,-1.6054196E0,2.783059E-1,1.2976652E0,-1.2514584E-1,5.416232E-2,-1.3671206E-1,-1.4118999E0,7.904953E-2,9.67425E-1,-5.177552E-1,3.508492E-1,-4.4753277E-1,1.3516358E0,-4.7470963E-1,-1.723701E0,3.8747095E-2,1.1249267E-1,-5.9186216E-2,1.3288553E0,-4.512037E-1,4.1446242E-1,-1.4521873E0,9.5028913E-1,-8.912267E-1,1.4137204E-1,-6.971754E-2,-9.524892E-1,9.197656E-1,-1.4225655E-3,6.007415E-2,-6.275039E-2,7.076064E-2,1.445569E-1,-5.997145E-2,-1.3920455E-1,5.2778758E-2,-1.8178067E-1,1.8691156E-2,1.3510118E-1,-7.6406024E-2,-1.24817066E-1,5.4817237E-2,-1.1031862E-1,1.0823538E-1,-1.5135336E-1,-3.545246E-2,1.3744958E-1,-2.6924465E-2,-1.5280639E-1,5.7134237E-2,-1.2589626E-1,7.2098024E-2,1.2183131E-1,1.4281287E-2],"categories":[],"categories_nodes":[],"categories_segments":[],"categories_sizes":[],"default_left":[0,0,0,0,0,0,0,0,0,0,0,0,0,0,0,0,0,0,0,0,0,0,0,0,0,0,0,0,0,0,0,0,0,0,0,0,0,0,0,0,0,0,0,0,0,0,0,0,0,0,0,0,0,0,0,0,0,0,0,0,0,0,0,0,0,0,0,0,0,0,0],"id":1,"left_children":[1,3,5,7,9,11,13,15,17,19,21,23,25,-1,-1,27,29,31,33,35,-1,-1,-1,37,39,41,43,45,47,49,51,53,-1,-1,-1,55,57,59,61,63,65,-1,-1,67,69,-1,-1,-1,-1,-1,-1,-1,-1,-1,-1,-1,-1,-1,-1,-1,-1,-1,-1,-1,-1,-1,-1,-1,-1,-1,-1],"loss_changes":[4.8910196E2,1.3807169E2,4.790338E1,8.87676E1,1.2575928E1,3.3373688E1,4.46861E0,5.9952744E1,1.119873E1,1.2679916E1,4.149445E0,1.8280762E1,1.0964741E1,0E0,0E0,5.57474E1,1.2958977E1,7.729782E0,3.7784767E0,9.043335E0,0E0,0E0,0E0,1.75224E1,8.811563E0,6.519673E0,1.0215265E1,3.2140522E1,2.4645683E1,1.0899544E1,5.058208E0,5.457535E0,0E0,0E0,0E0,8.096466E0,3.4390938E0,7.0134535E0,1.4629211E1,3.1886196E0,5.5055275E0,0E0,0E0,7.044442E0,7.4890876E-1,0E0,0E0,0E0,0E0,0E0,0E0,0E0,0E0,0E0,0E0,0E0,0E0,0E0,0E0,0E0,0E0,0E0,0E0,0E0,0E0,0E0,0E0,0E0,0E0,0E0,0E0],"parents":[2147483647,0,0,1,1,2,2,3,3,4,4,5,5,6,6,7,7,8,8,9,9,10,10,11,11,12,12,15,15,16,16,17,17,18,18,19,19,23,23,24,24,25,25,26,26,27,27,28,28,29,29,30,30,31,31,35,35,36,36,37,37,38,38,39,39,40,40,43,43,44,44],"right_children":[2,4,6,8,10,12,14,16,18,20,22,24,26,-1,-1,28,30,32,34,36,-1,-1,-1,38,40,42,44,46,48,50,52,54,-1,-1,-1,56,58,60,62,64,66,-1,-1,68,70,-1,-1,-1,-1,-1,-1,-1,-1,-1,-1,-1,-1,-1,-1,-1,-1,-1,-1,-1,-1,-1,-1,-1,-1,-1,-1],"split_conditions":[-8.390103E-1,-9.946265E-1,-9.9568474E-1,-9.763568E-1,-9.978506E-1,-9.967759E-1,-9.9193984E-1,-9.989253E-1,-9.989253E-1,-9.998187E-1,-9.7283196E-1,-9.966542E-1,-8.7103707E-1,1.5234163E-1,-1.2355341E-2,-9.559252E-1,-9.854917E-1,-8.793987E-1,-9.9140245E-1,-9.3444383E-1,-1.2514584E-1,5.416232E-2,-1.3671206E-1,-2.9102796E-1,-8.312851E-1,-5.939493E-1,-9.387603E-1,-3.8432133E-1,-9.8954123E-1,-9.9774444E-1,-7.594544E-1,-9.982621E-1,3.8747095E-2,1.1249267E-1,-5.9186216E-2,-9.7988313E-1,-7.753074E-1,-1.664095E-1,-9.946265E-1,4.688677E-1,-6.740007E-1,1.4137204E-1,-6.971754E-2,-8.7103707E-1,-8.4082294E-1,-1.4225655E-3,6.007415E-2,-6.275039E-2,7.076064E-2,1.445569E-1,-5.997145E-2,-1.3920455E-1,5.2778758E-2,-1.8178067E-1,1.8691156E-2,1.3510118E-1,-7.6406024E-2,-1.24817066E-1,5.4817237E-2,-1.1031862E-1,1.0823538E-1,-1.5135336E-1,-3.545246E-2,1.3744958E-1,-2.6924465E-2,-1.5280639E-1,5.7134237E-2,-1.2589626E-1,7.2098024E-2,1.2183131E-1,1.4281287E-2],"split_indices":[139,707,598,967,224,845,318,124,124,575,144,306,860,0,0,918,63,832,371,446,0,0,0,187,47,490,271,736,771,718,23,35,0,0,0,196,815,708,462,55,455,0,0,463,691,0,0,0,0,0,0,0,0,0,0,0,0,0,0,0,0,0,0,0,0,0,0,0,0,0,0],"split_type":[0,0,0,0,0,0,0,0,0,0,0,0,0,0,0,0,0,0,0,0,0,0,0,0,0,0,0,0,0,0,0,0,0,0,0,0,0,0,0,0,0,0,0,0,0,0,0,0,0,0,0,0,0,0,0,0,0,0,0,0,0,0,0,0,0,0,0,0,0,0,0],"sum_hessian":[9.798913E2,7.142367E2,2.6565463E2,5.562451E2,1.5799158E2,2.577778E2,7.8768277E0,5.2406134E2,3.2183804E1,1.550267E2,2.9648685E0,2.373844E2,2.0393408E1,5.899166E0,1.9776617E0,4.6662555E2,5.743577E1,2.8958656E1,3.225146E0,1.5379724E2,1.2294643E0,1.2294414E0,1.7354271E0,2.2896262E2,8.421784E0,6.449234E0,1.3944174E1,3.5121082E2,1.15414734E2,5.3734398E1,3.7013686E0,2.7463715E1,1.4949417E0,1.4862982E0,1.7388479E0,1.5133838E2,2.4588656E0,4.741194E0,2.2422142E2,4.4482074E0,3.9735768E0,5.204557E0,1.2446768E0,1.0965426E1,2.9787474E0,1.4309795E2,2.0811287E2,1.00252174E2,1.5162557E1,5.1513847E1,2.2205527E0,1.729871E0,1.9714975E0,2.6220804E1,1.2429093E0,1.501038E2,1.2345793E0,1.2294629E0,1.2294028E0,1.2497176E0,3.491476E0,2.119946E2,1.2226827E1,3.2059667E0,1.2422405E0,2.7370288E0,1.236548E0,9.477451E0,1.4879744E0,1.7415018E0,1.2372454E0],"tree_param":{"num_deleted":"0","num_feature":"1000","num_nodes":"71","size_leaf_vector":"1"}},{"base_weights":[-8.248695E-3,3.9917502E-1,-1.035475E0,1.9271637E-1,1.1495357E0,-1.1443515E0,1.8682401E-1,2.853095E-1,-1.2265127E0,1.1868886E0,-1.0806675E-1,-8.5777783E-1,-1.441286E0,-3.551166E-1,8.8212353E-1,1.52385E-1,9.898844E-1,-1.5434548E0,-2.7585742E-3,1.2297024E0,-5.873119E-1,-1.0031743E0,6.2407643E-2,-1.5059365E0,-9.276209E-2,-7.716052E-1,1.2593101E-1,1.170578E0,-7.122873E-2,4.3195137E-1,-2.3489416E-1,1.1526893E0,-1.1697996E0,-1.6419291E0,2.6025752E-2,-1.0348476E0,1.0343515E0,1.271879E0,-4.7912398E-1,6.1598983E-2,-1.455401E-1,-1.0613676E0,1.3254519E-1,3.9202005E-1,-1.3772503E-1,-1.5351722E0,2.755024E-2,-7.7922076E-1,1.1895364E-1,4.759151E-1,-1.2996416E0,1.4267267E-1,-2.784451E-2,5.1077377E-2,-6.778803E-2,-4.0674083E-2,7.407397E-2,1.24227665E-1,-3.978658E-2,-1.6716708E-1,4.914732E-2,-1.7409961E-1,-1.8277815E-2,-1.5664725E-2,-1.3195227E-1,1.3293673E-1,1.3894542E-2,1.2966613E-1,-8.75906E-2,-1.3900161E-1,9.635747E-2,-1.14292085E-1,1.8359205E-2,7.1292244E-2,-1.2593916E-1,-1.5687725E-1,1.1574795E-2,-1.3749467E-1,5.696687E-2,-6.25777E-2,1.1534681E-1,-1.5482496E-1,-7.032654E-3],"categories":[],"categories_nodes":[],"categories_segments":[],"categories_sizes":[],"default_left":[0,0,0,0,0,0,0,0,0,0,0,0,0,0,0,0,0,0,0,0,0,0,0,0,0,0,0,0,0,0,0,0,0,0,0,0,0,0,0,0,0,0,0,0,0,0,0,0,0,0,0,0,0,0,0,0,0,0,0,0,0,0,0,0,0,0,0,0,0,0,0,0,0,0,0,0,0,0,0,0,0,0,0],"id":2,"left_children":[1,3,5,7,9,11,13,15,17,19,-1,21,23,25,27,29,31,33,35,37,39,41,43,45,47,49,-1,51,-1,53,55,57,59,61,-1,63,65,67,69,-1,-1,71,-1,73,-1,75,-1,77,-1,79,81,-1,-1,-1,-1,-1,-1,-1,-1,-1,-1,-1,-1,-1,-1,-1,-1,-1,-1,-1,-1,-1,-1,-1,-1,-1,-1,-1,-1,-1,-1,-1,-1],"loss_changes":[4.0603906E2,1.07397194E2,3.687979E1,7.2098404E1,1.3752808E1,2.0303009E1,9.128487E0,4.7927814E1,1.30387535E1,1.1941895E1,0E0,1.7626762E1,1.0570297E1,1.0291029E1,5.6786613E0,4.6989155E1,2.9932716E1,5.171295E0,9.547421E0,1.1027267E1,5.2388935E0,1.677716E1,9.486821E0,6.524811E0,6.81189E0,8.284728E0,0E0,3.84863E0,0E0,2.2378712E1,3.0849388E1,1.1065445E1,5.9867334E0,3.3625183E0,0E0,9.106264E-1,9.9087524E-1,8.658859E0,6.8694296E0,0E0,0E0,1.1501587E1,0E0,9.440616E0,0E0,6.5841064E0,0E0,4.7679243E0,0E0,3.8516521E0,2.4719973E0,0E0,0E0,0E0,0E0,0E0,0E0,0E0,0E0,0E0,0E0,0E0,0E0,0E0,0E0,0E0,0E0,0E0,0E0,0E0,0E0,0E0,0E0,0E0,0E0,0E0,0E0,0E0,0E0,0E0,0E0,0E0,0E0],"parents":[2147483647,0,0,1,1,2,2,3,3,4,4,5,5,6,6,7,7,8,8,9,9,11,11,12,12,13,13,14,14,15,15,16,16,17,17,18,18,19,19,20,20,21,21,22,22,23,23,24,24,25,25,27,27,29,29,30,30,31,31,32,32,33,33,35,35,36,36,37,37,38,38,41,41,43,43,45,45,47,47,49,49,50,50],"right_children":[2,4,6,8,10,12,14,16,18,20,-1,22,24,26,28,30,32,34,36,38,40,42,44,46,48,50,-1,52,-1,54,56,58,60,62,-1,64,66,68,70,-1,-1,72,-1,74,-1,76,-1,78,-1,80,82,-1,-1,-1,-1,-1,-1,-1,-1,-1,-1,-1,-1,-1,-1,-1,-1,-1,-1,-1,-1,-1,-1,-1,-1,-1,-1,-1,-1,-1,-1,-1,-1],"split_conditions":[-8.441698E-1,-9.9570125E-1,-9.978506E-1,-9.797751E-1,-9.8926586E-1,-9.7367007E-1,-9.6288157E-1,-9.9211895E-1,-9.9355185E-1,-9.978506E-1,-1.0806675E-1,-9.931936E-1,-9.989253E-1,-9.7741795E-1,-8.1118983E-1,-9.133365E-1,-9.993035E-1,-9.989253E-1,-9.6810913E-1,-9.770586E-1,-8.4112525E-1,-9.989253E-1,-3.4302258E-1,1.491892E-1,-9.978506E-1,-3.0308577E-1,1.2593101E-1,-9.798297E-1,-7.122873E-2,-9.7025156E-1,-9.924772E-1,-9.8110694E-1,-9.989253E-1,-9.9355185E-1,2.6025752E-2,-9.1224813E-1,-9.849543E-1,-9.998806E-1,-9.1337216E-1,6.1598983E-2,-1.455401E-1,-9.967759E-1,1.3254519E-1,-8.259001E-1,-1.3772503E-1,-9.989253E-1,2.755024E-2,-9.087516E-1,1.1895364E-1,-7.0277953E-1,-9.966832E-1,1.4267267E-1,-2.784451E-2,5.1077377E-2,-6.778803E-2,-4.0674083E-2,7.407397E-2,1.24227665E-1,-3.978658E-2,-1.6716708E-1,4.914732E-2,-1.7409961E-1,-1.8277815E-2,-1.5664725E-2,-1.3195227E-1,1.3293673E-1,1.3894542E-2,1.2966613E-1,-8.75906E-2,-1.3900161E-1,9.635747E-2,-1.14292085E-1,1.8359205E-2,7.1292244E-2,-1.2593916E-1,-1.5687725E-1,1.1574795E-2,-1.3749467E-1,5.696687E-2,-6.25777E-2,1.1534681E-1,-1.5482496E-1,-7.032654E-3],"split_indices":[139,904,306,623,786,647,419,726,27,767,0,761,842,88,639,618,469,886,227,623,384,361,879,669,39,871,0,67,0,844,771,701,36,726,0,456,678,438,191,0,0,530,0,996,0,991,0,551,0,235,400,0,0,0,0,0,0,0,0,0,0,0,0,0,0,0,0,0,0,0,0,0,0,0,0,0,0,0,0,0,0,0,0],"split_type":[0,0,0,0,0,0,0,0,0,0,0,0,0,0,0,0,0,0,0,0,0,0,0,0,0,0,0,0,0,0,0,0,0,0,0,0,0,0,0,0,0,0,0,0,0,0,0,0,0,0,0,0,0,0,0,0,0,0,0,0,0,0,0,0,0,0,0,0,0,0,0,0,0,0,0,0,0,0,0,0,0,0,0],"sum_hessian":[9.681992E2,6.936798E2,2.7451938E2,5.44986E2,1.486938E2,2.5212509E2,2.2394297E1,5.123578E2,3.2628197E1,1.4670451E2,1.9892948E0,1.3027988E2,1.2184522E2,1.2860015E1,9.534282E0,4.320617E2,8.0296104E1,2.5708628E1,6.9195666E0,1.4354742E2,3.1570866E0,1.12425575E2,1.7854296E1,1.1615961E2,5.6856155E0,1.0637752E1,2.222263E0,8.298732E0,1.2355497E0,2.5085841E2,1.812033E2,7.510098E1,5.1951213E0,2.4462769E1,1.2458601E0,3.4692721E0,3.4502945E0,1.4033932E2,3.2081003E0,1.4447936E0,1.7122931E0,1.10215454E2,2.2101238E0,1.5120197E1,2.734099E0,1.1442007E2,1.739539E0,3.9587076E0,1.7269078E0,3.1929376E0,7.444814E0,7.065183E0,1.2335486E0,2.347274E2,1.613102E1,1.5456206E2,2.664123E1,7.1186806E1,3.9141817E0,3.9849935E0,1.2101277E0,2.2726622E1,1.7361473E0,1.228797E0,2.2404752E0,2.2306828E0,1.2196116E0,1.3913023E2,1.2090875E0,1.988878E0,1.2192224E0,1.03516396E2,6.6990576E0,1.313592E1,1.984277E0,1.12186554E2,2.233512E0,2.732572E0,1.2261354E0,1.2450002E0,1.9479374E0,5.976691E0,1.4681234E0],"tree_param":{"num_deleted":"0","num_feature":"1000","num_nodes":"83","size_leaf_vector":"1"}},{"base_weights":[1.2091084E-2,3.711051E-1,-8.958797E-1,2.0217791E-1,1.2800783E0,-1.0038874E0,1.8085799E-1,2.922257E-1,-1.2966491E0,1.320481E0,-8.129565E-2,-7.114855E-1,-1.3430806E0,5.731094E-1,-5.7499E-1,4.490805E-1,-2.8752032E-1,-1.4153875E0,5.5858847E-2,1.3647594E0,-5.270378E-2,-9.0542525E-1,-9.804674E-2,-1.406292E0,1.7894097E-1,8.6014193E-1,-7.3412204E-1,6.339564E-1,-1.2915268E0,2.331808E-1,7.90512E-1,4.713563E-3,-1.0383801E0,-1.5207934E0,4.51552E-2,1.3992932E0,-4.940246E-2,-1.0349777E0,-1.1117387E-1,2.4420817E-1,-9.5947725E-1,-1.4518194E0,2.9561627E-1,1.2509586E-1,-9.486512E-2,-6.217539E-2,1.1373942E0,-1.20389715E-1,1.2528916E-2,1.1300347E-1,-3.0964622E-2,-1.5152298E-1,-2.0369356E-2,1.0698029E-2,1.022699E-1,8.882041E-2,-1.9263498E-2,-2.418804E-2,1.01100065E-1,-1.2182176E-1,8.3907016E-2,-1.6003968E-1,1.8811643E-2,1.4329913E-1,-2.4082841E-2,-1.1184823E-1,6.0656168E-2,6.017081E-2,-7.13098E-2,6.284405E-2,-5.8681246E-2,-1.2516563E-1,6.074245E-2,-1.4822698E-1,6.551751E-2,-6.9981776E-2,1.0694585E-1,1.523394E-1,1.2926744E-2],"categories":[],"categories_nodes":[],"categories_segments":[],"categories_sizes":[],"default_left":[0,0,0,0,0,0,0,0,0,0,0,0,0,0,0,0,0,0,0,0,0,0,0,0,0,0,0,0,0,0,0,0,0,0,0,0,0,0,0,0,0,0,0,0,0,0,0,0,0,0,0,0,0,0,0,0,0,0,0,0,0,0,0,0,0,0,0,0,0,0,0,0,0,0,0,0,0,0,0],"id":3,"left_children":[1,3,5,7,9,11,13,15,17,19,-1,21,23,25,27,29,31,33,-1,35,-1,37,39,41,43,45,47,49,51,53,55,57,59,61,-1,63,-1,65,67,69,71,73,75,-1,-1,-1,77,-1,-1,-1,-1,-1,-1,-1,-1,-1,-1,-1,-1,-1,-1,-1,-1,-1,-1,-1,-1,-1,-1,-1,-1,-1,-1,-1,-1,-1,-1,-1,-1],"loss_changes":[3.1443286E2,1.0588162E2,3.1968994E1,7.921245E1,1.0218506E1,2.3697433E1,7.9686275E0,5.0308647E1,8.1233635E0,9.429611E0,0E0,1.6045624E1,1.1214569E1,7.1841187E0,8.876782E0,3.1859344E1,2.592242E1,6.898834E0,0E0,7.383957E0,0E0,1.0475037E1,1.0169431E1,8.91507E0,7.751543E0,6.7796516E0,1.638051E0,2.284285E0,1.1927729E0,2.6565763E1,1.6304375E1,2.1589695E1,1.2196442E1,4.397026E0,0E0,6.0169067E0,0E0,1.279126E1,7.1031103E0,8.3237505E0,5.2397957E0,7.82547E0,3.5864012E0,0E0,0E0,0E0,4.785578E0,0E0,0E0,0E0,0E0,0E0,0E0,0E0,0E0,0E0,0E0,0E0,0E0,0E0,0E0,0E0,0E0,0E0,0E0,0E0,0E0,0E0,0E0,0E0,0E0,0E0,0E0,0E0,0E0,0E0,0E0,0E0,0E0],"parents":[2147483647,0,0,1,1,2,2,3,3,4,4,5,5,6,6,7,7,8,8,9,9,11,11,12,12,13,13,14,14,15,15,16,16,17,17,19,19,21,21,22,22,23,23,24,24,25,25,26,26,27,27,28,28,29,29,30,30,31,31,32,32,33,33,35,35,37,37,38,38,39,39,40,40,41,41,42,42,46,46],"right_children":[2,4,6,8,10,12,14,16,18,20,-1,22,24,26,28,30,32,34,-1,36,-1,38,40,42,44,46,48,50,52,54,56,58,60,62,-1,64,-1,66,68,70,72,74,76,-1,-1,-1,78,-1,-1,-1,-1,-1,-1,-1,-1,-1,-1,-1,-1,-1,-1,-1,-1,-1,-1,-1,-1,-1,-1,-1,-1,-1,-1,-1,-1,-1,-1,-1,-1],"split_conditions":[-8.9897907E-1,-9.978506E-1,-9.978506E-1,-9.795216E-1,-9.967759E-1,-9.656099E-1,-9.68835E-1,-9.75336E-1,-9.969696E-1,-9.978506E-1,-8.129565E-2,-8.741744E-1,-9.977042E-1,-9.9570125E-1,-7.467101E-1,-8.430951E-1,-9.4362336E-1,-9.989483E-1,5.5858847E-2,-9.998364E-1,-5.270378E-2,-9.9355185E-1,-9.8065555E-1,-9.991871E-1,-9.773743E-1,-8.494396E-1,-6.013646E-1,-8.977977E-1,-7.9009455E-1,-9.9140245E-1,-9.7665167E-1,-8.524851E-1,-3.490975E-1,-9.9780685E-1,4.51552E-2,-8.6942506E-1,-4.940246E-2,-9.583123E-1,-5.6537914E-1,-8.0120075E-1,-9.934629E-1,-9.989253E-1,-8.479153E-1,1.2509586E-1,-9.486512E-2,-6.217539E-2,-9.849543E-1,-1.20389715E-1,1.2528916E-2,1.1300347E-1,-3.0964622E-2,-1.5152298E-1,-2.0369356E-2,1.0698029E-2,1.022699E-1,8.882041E-2,-1.9263498E-2,-2.418804E-2,1.01100065E-1,-1.2182176E-1,8.3907016E-2,-1.6003968E-1,1.8811643E-2,1.4329913E-1,-2.4082841E-2,-1.1184823E-1,6.0656168E-2,6.017081E-2,-7.13098E-2,6.284405E-2,-5.8681246E-2,-1.2516563E-1,6.074245E-2,-1.4822698E-1,6.551751E-2,-6.9981776E-2,1.0694585E-1,1.523394E-1,1.2926744E-2],"split_indices":[463,539,265,623,186,407,776,844,91,224,0,463,236,306,640,259,671,208,0,729,0,413,628,474,666,838,282,535,925,513,372,262,931,36,0,648,0,654,759,665,217,116,12,0,0,0,19,0,0,0,0,0,0,0,0,0,0,0,0,0,0,0,0,0,0,0,0,0,0,0,0,0,0,0,0,0,0,0,0],"split_type":[0,0,0,0,0,0,0,0,0,0,0,0,0,0,0,0,0,0,0,0,0,0,0,0,0,0,0,0,0,0,0,0,0,0,0,0,0,0,0,0,0,0,0,0,0,0,0,0,0,0,0,0,0,0,0,0,0,0,0,0,0,0,0,0,0,0,0,0,0,0,0,0,0,0,0,0,0,0,0],"sum_hessian":[9.625742E2,6.90242E2,2.723322E2,5.8309894E2,1.0714302E2,2.4756645E2,2.4765764E1,5.508118E2,3.228711E1,1.0547608E2,1.6669381E0,1.3461716E2,1.1294929E2,1.6463636E1,8.302127E0,4.336971E2,1.17114746E2,3.0567802E1,1.719305E0,1.0326254E2,2.2135372E0,1.01919235E2,3.2697926E1,1.08518425E2,4.430863E0,1.3779946E1,2.6836898E0,3.1323884E0,5.169739E0,2.6672195E2,1.6697514E2,8.501912E1,3.2095627E1,2.91097E1,1.4581023E0,1.0162175E2,1.6407996E0,8.73657E1,1.4553533E1,2.3913403E1,8.784524E0,1.0583422E2,2.6842036E0,2.21532E0,2.2155428E0,1.9759673E0,1.1803979E1,1.4760213E0,1.2076687E0,1.9235494E0,1.2088388E0,3.9620845E0,1.2076544E0,2.3094247E2,3.5779495E1,1.5197087E2,1.5004276E1,6.8895645E1,1.6123472E1,2.9610432E1,2.485196E0,2.7874756E1,1.234945E0,9.96996E1,1.9221443E0,8.343978E1,3.9259179E0,6.662836E0,7.8906965E0,1.6519285E1,7.3941164E0,7.573491E0,1.2110326E0,1.04618774E2,1.2154531E0,1.21585E0,1.4683536E0,8.166144E0,3.6378348E0],"tree_param":{"num_deleted":"0","num_feature":"1000","num_nodes":"79","size_leaf_vector":"1"}},{"base_weights":[-1.9679274E-3,3.321125E-1,-8.353391E-1,1.381881E-1,1.0923853E0,-9.4455487E-1,1.4705868E-1,3.326167E-1,-4.601087E-1,1.1182164E0,-1.0700136E-1,-4.5507854E-1,-1.1245075E0,6.989347E-1,-5.133805E-1,2.0812881E-1,1.0997227E0,-5.886514E-1,1.2505727E0,1.1579455E0,-4.6220583E-1,-2.7730284E-2,-9.341312E-1,-1.1737909E0,7.658531E-1,1.2584429E0,-3.0415627E-1,-1.0266601E0,6.731605E-1,9.609763E-2,1.0159547E0,1.1821705E0,-9.575499E-2,-7.261041E-1,6.6979796E-1,1.4904827E-1,-2.0940097E-2,1.2079825E0,-3.229136E-2,-1.231414E-1,8.107223E-2,-8.9627147E-1,3.034148E-1,-1.1960602E0,6.439475E-1,-1.2354054E0,1.8822305E-2,1.3151263E-1,-5.4010827E-2,1.5814498E-1,-7.837933E-3,6.383905E-1,-1.1640363E-1,-1.2921523E0,4.931515E-2,-6.7709066E-2,1.341577E-1,2.03481E-2,-6.957313E-2,1.1080624E-1,-9.2971645E-2,1.258752E-1,-4.870178E-2,-8.6771406E-2,2.9426817E-2,1.1061733E-1,-6.8493105E-2,1.23502925E-1,-7.0807375E-2,-1.13675945E-1,7.856989E-2,-1.2648278E-1,4.396762E-2,-9.411415E-3,1.0444372E-1,-1.3118055E-1,2.3097044E-2,-6.0273726E-2,1.2951112E-1,-1.2617077E-1,3.59415E-2,-6.544011E-2,1.2513985E-1,-1.9936854E-2,1.1295821E-1,-1.5364473E-1,-3.7091789E-3],"categories":[],"categories_nodes":[],"categories_segments":[],"categories_sizes":[],"default_left":[0,0,0,0,0,0,0,0,0,0,0,0,0,0,0,0,0,0,0,0,0,0,0,0,0,0,0,0,0,0,0,0,0,0,0,0,0,0,0,0,0,0,0,0,0,0,0,0,0,0,0,0,0,0,0,0,0,0,0,0,0,0,0,0,0,0,0,0,0,0,0,0,0,0,0,0,0,0,0,0,0,0,0,0,0,0,0],"id":4,"left_children":[1,3,5,7,9,11,13,15,17,19,-1,21,23,25,27,29,31,33,35,37,39,41,43,45,47,49,51,53,55,57,59,61,-1,63,65,-1,-1,67,69,-1,-1,71,73,75,77,79,81,-1,-1,-1,-1,83,-1,85,-1,-1,-1,-1,-1,-1,-1,-1,-1,-1,-1,-1,-1,-1,-1,-1,-1,-1,-1,-1,-1,-1,-1,-1,-1,-1,-1,-1,-1,-1,-1,-1,-1],"loss_changes":[2.630619E2,9.929168E1,2.91492E1,6.2800434E1,8.845139E0,2.0933365E1,1.0534045E1,3.8641815E1,2.9874012E1,9.062271E0,0E0,1.3716523E1,1.7420425E1,9.156026E0,8.782076E0,3.1708567E1,1.0732246E1,2.192284E1,3.6679583E0,7.9456177E0,4.958892E0,1.0772343E1,1.3839493E1,1.2752426E1,4.3766274E0,4.5410366E0,5.9322567E0,4.5388584E0,5.074045E0,2.6478926E1,8.682228E0,7.6265106E0,0E0,1.646819E1,8.279152E0,0E0,0E0,7.478302E0,6.611918E0,0E0,0E0,5.642462E0,8.104471E0,4.839836E0,4.962153E0,7.3635864E0,8.697766E0,0E0,0E0,0E0,0E0,1.7478701E0,0E0,2.5515394E0,0E0,0E0,0E0,0E0,0E0,0E0,0E0,0E0,0E0,0E0,0E0,0E0,0E0,0E0,0E0,0E0,0E0,0E0,0E0,0E0,0E0,0E0,0E0,0E0,0E0,0E0,0E0,0E0,0E0,0E0,0E0,0E0,0E0],"parents":[2147483647,0,0,1,1,2,2,3,3,4,4,5,5,6,6,7,7,8,8,9,9,11,11,12,12,13,13,14,14,15,15,16,16,17,17,18,18,19,19,20,20,21,21,22,22,23,23,24,24,25,25,26,26,27,27,28,28,29,29,30,30,31,31,33,33,34,34,37,37,38,38,41,41,42,42,43,43,44,44,45,45,46,46,51,51,53,53],"right_children":[2,4,6,8,10,12,14,16,18,20,-1,22,24,26,28,30,32,34,36,38,40,42,44,46,48,50,52,54,56,58,60,62,-1,64,66,-1,-1,68,70,-1,-1,72,74,76,78,80,82,-1,-1,-1,-1,84,-1,86,-1,-1,-1,-1,-1,-1,-1,-1,-1,-1,-1,-1,-1,-1,-1,-1,-1,-1,-1,-1,-1,-1,-1,-1,-1,-1,-1,-1,-1,-1,-1,-1,-1],"split_conditions":[-8.9897907E-1,-9.951639E-1,-9.967759E-1,-9.68834E-1,-9.998983E-1,-8.592155E-1,-9.7528213E-1,-9.9211895E-1,-9.9630105E-1,-9.920444E-1,-1.0700136E-1,-8.712372E-1,-9.989253E-1,1.2997799E-1,-9.306937E-1,-9.9090767E-1,-9.9946266E-1,-9.989253E-1,-9.858503E-1,-7.94734E-1,-9.967759E-1,-8.108544E-1,-9.310002E-1,-9.989253E-1,-9.4314E-1,-8.770213E-1,-9.288962E-1,-9.6990865E-1,-8.8778114E-1,-9.892531E-1,-9.1069436E-1,-9.63086E-1,-9.575499E-2,-9.785062E-1,-9.593567E-1,1.4904827E-1,-2.0940097E-2,-9.8693085E-1,-1.8728419E-1,-1.231414E-1,8.107223E-2,-3.4567675E-1,-7.557223E-1,-9.9304515E-1,-8.9378554E-1,1.6818914E-1,-9.6583647E-1,1.3151263E-1,-5.4010827E-2,1.5814498E-1,-7.837933E-3,-3.8045424E-1,-1.1640363E-1,-4.7546995E-1,4.931515E-2,-6.7709066E-2,1.341577E-1,2.03481E-2,-6.957313E-2,1.1080624E-1,-9.2971645E-2,1.258752E-1,-4.870178E-2,-8.6771406E-2,2.9426817E-2,1.1061733E-1,-6.8493105E-2,1.23502925E-1,-7.0807375E-2,-1.13675945E-1,7.856989E-2,-1.2648278E-1,4.396762E-2,-9.411415E-3,1.0444372E-1,-1.3118055E-1,2.3097044E-2,-6.0273726E-2,1.2951112E-1,-1.2617077E-1,3.59415E-2,-6.544011E-2,1.2513985E-1,-1.9936854E-2,1.1295821E-1,-1.5364473E-1,-3.7091789E-3],"split_indices":[463,904,845,647,625,639,612,726,339,286,0,101,361,884,622,771,439,460,475,639,15,646,250,236,562,57,728,653,637,487,312,213,0,916,997,0,0,751,784,0,0,879,753,904,597,669,612,0,0,0,0,736,0,99,0,0,0,0,0,0,0,0,0,0,0,0,0,0,0,0,0,0,0,0,0,0,0,0,0,0,0,0,0,0,0,0,0],"split_type":[0,0,0,0,0,0,0,0,0,0,0,0,0,0,0,0,0,0,0,0,0,0,0,0,0,0,0,0,0,0,0,0,0,0,0,0,0,0,0,0,0,0,0,0,0,0,0,0,0,0,0,0,0,0,0,0,0,0,0,0,0,0,0,0,0,0,0,0,0,0,0,0,0,0,0,0,0,0,0,0,0,0,0,0,0,0,0],"sum_hessian":[9.428656E2,6.7348254E2,2.6938306E2,5.3755023E2,1.3593231E2,2.4246599E2,2.691706E1,4.060426E2,1.3150766E2,1.3480487E2,1.1274383E0,6.612716E1,1.7633884E2,1.4631991E1,1.22850685E1,3.5044315E2,5.559947E1,1.2292669E2,8.58097E0,1.3175996E2,3.0449064E0,3.5508766E1,3.0618399E1,1.7222777E2,4.111063E0,9.229409E0,5.4025826E0,8.669515E0,3.615554E0,3.0874466E2,4.1698467E1,5.386609E1,1.7333804E0,1.1120362E2,1.1723067E1,7.3519626E0,1.2290072E0,1.2643001E2,5.3299627E0,1.9183153E0,1.126591E0,9.330295E0,2.6178469E1,2.6467422E1,4.1509757E0,1.6373288E2,8.494887E0,2.8889742E0,1.2220889E0,7.285962E0,1.9434474E0,2.700283E0,2.7022994E0,7.507791E0,1.1617234E0,1.1928767E0,2.4226775E0,2.7252887E2,3.6215805E1,4.0224735E1,1.4737307E0,5.1738255E1,2.127834E0,9.778269E1,1.3420926E1,9.0056925E0,2.7173746E0,1.2502067E2,1.4093407E0,2.1020422E0,3.2279205E0,7.3545766E0,1.9757184E0,1.7606356E1,8.572114E0,2.4556417E1,1.9110055E0,1.4497424E0,2.7012334E0,1.6128185E2,2.4510374E0,5.7974467E0,2.697441E0,1.2176368E0,1.4826462E0,6.0968504E0,1.4109408E0],"tree_param":{"num_deleted":"0","num_feature":"1000","num_nodes":"87","size_leaf_vector":"1"}},{"base_weights":[2.1178392E-3,3.1038305E-1,-8.1947976E-1,1.816839E-1,1.0782112E0,-8.8078296E-1,6.3555557E-1,2.6830888E-1,-1.100863E0,1.1358778E0,-4.218668E-1,-9.4674766E-1,3.3091158E-2,1.0757288E0,-7.9289295E-2,1.8757811E-1,1.3236926E0,-1.2724178E0,-4.022955E-2,1.1724284E0,-9.656792E-2,-1.4659128E-1,9.0186074E-2,-4.7574782E-1,-1.0883162E0,1.0054878E0,-4.4078752E-1,1.3284097E0,-2.7281785E-2,2.480754E-1,-1.216136E0,1.391888E0,-4.86765E-3,-1.3591453E0,5.2927967E-2,-6.922195E-1,9.1750614E-2,1.2093973E0,-9.2846446E-2,-6.488551E-1,7.842513E-1,-1.1319602E0,2.0048968E-1,-2.7359327E-2,1.3813843E-1,-9.209971E-1,5.157288E-1,1.4244165E-1,4.169094E-2,2.882637E-2,-1.5229252E-1,-1.3988282E-1,9.898649E-2,1.4416878E-1,-8.90578E-3,-1.4806746E-1,5.241281E-3,2.452477E-2,-1.120021E-1,1.2533496E-1,-6.0136158E-2,1.733913E-3,-9.523934E-2,-6.37308E-2,1.260471E-1,-1.2247058E-1,-6.339723E-2,8.642977E-2,-1.0866362E-1,-1.23041175E-1,3.6386993E-2,-4.6906732E-2,1.18921004E-1],"categories":[],"categories_nodes":[],"categories_segments":[],"categories_sizes":[],"default_left":[0,0,0,0,0,0,0,0,0,0,0,0,0,0,0,0,0,0,0,0,0,0,0,0,0,0,0,0,0,0,0,0,0,0,0,0,0,0,0,0,0,0,0,0,0,0,0,0,0,0,0,0,0,0,0,0,0,0,0,0,0,0,0,0,0,0,0,0,0,0,0,0,0],"id":5,"left_children":[1,3,5,7,9,11,13,15,17,19,21,23,25,27,-1,29,31,33,35,37,-1,-1,-1,39,41,43,45,47,-1,49,51,53,-1,55,-1,57,-1,59,-1,61,63,65,67,-1,-1,69,71,-1,-1,-1,-1,-1,-1,-1,-1,-1,-1,-1,-1,-1,-1,-1,-1,-1,-1,-1,-1,-1,-1,-1,-1,-1,-1],"loss_changes":[2.3786206E2,6.728976E1,2.3415665E1,6.541031E1,8.942192E0,1.4878937E1,7.731693E0,4.6596848E1,6.731575E0,8.389641E0,7.335127E0,1.48016205E1,8.52902E0,3.3567295E0,0E0,4.377349E1,3.7087402E0,5.728054E0,4.520727E0,8.370728E0,0E0,0E0,0E0,1.2477531E1,1.0119736E1,3.2888384E0,6.213441E0,6.869125E-2,0E0,3.542713E1,9.977087E0,2.8642502E0,0E0,5.37191E0,0E0,1.9880614E0,0E0,8.086807E0,0E0,9.883053E0,5.5969543E0,7.0875244E0,6.5870533E0,0E0,0E0,3.8970776E0,3.7524786E0,0E0,0E0,0E0,0E0,0E0,0E0,0E0,0E0,0E0,0E0,0E0,0E0,0E0,0E0,0E0,0E0,0E0,0E0,0E0,0E0,0E0,0E0,0E0,0E0,0E0,0E0],"parents":[2147483647,0,0,1,1,2,2,3,3,4,4,5,5,6,6,7,7,8,8,9,9,10,10,11,11,12,12,13,13,15,15,16,16,17,17,18,18,19,19,23,23,24,24,25,25,26,26,27,27,29,29,30,30,31,31,33,33,35,35,37,37,39,39,40,40,41,41,42,42,45,45,46,46],"right_children":[2,4,6,8,10,12,14,16,18,20,22,24,26,28,-1,30,32,34,36,38,-1,-1,-1,40,42,44,46,48,-1,50,52,54,-1,56,-1,58,-1,60,-1,62,64,66,68,-1,-1,70,72,-1,-1,-1,-1,-1,-1,-1,-1,-1,-1,-1,-1,-1,-1,-1,-1,-1,-1,-1,-1,-1,-1,-1,-1,-1,-1],"split_conditions":[-8.390103E-1,-9.967759E-1,-9.965678E-1,-9.849543E-1,-9.054272E-1,-9.978506E-1,-8.9151436E-1,-9.989253E-1,-8.4735996E-1,-9.998402E-1,-9.9644E-1,-8.2881683E-1,-8.7103707E-1,-9.6525866E-1,-7.9289295E-2,-9.849068E-1,-9.989253E-1,-9.892531E-1,-9.255291E-1,-9.9479824E-1,-9.656792E-2,-1.4659128E-1,9.0186074E-2,-9.9140245E-1,-9.977042E-1,-8.995109E-1,-9.8533773E-1,-9.1660225E-1,-2.7281785E-2,-9.9570125E-1,-9.6979827E-1,-9.859822E-1,-4.86765E-3,-9.4733626E-1,5.2927967E-2,-9.264988E-1,9.1750614E-2,-9.3551856E-1,-9.2846446E-2,3.9340362E-1,-8.516926E-1,-9.8904914E-1,-8.661234E-1,-2.7359327E-2,1.3813843E-1,-7.986455E-1,-9.376679E-1,1.4244165E-1,4.169094E-2,2.882637E-2,-1.5229252E-1,-1.3988282E-1,9.898649E-2,1.4416878E-1,-8.90578E-3,-1.4806746E-1,5.241281E-3,2.452477E-2,-1.120021E-1,1.2533496E-1,-6.0136158E-2,1.733913E-3,-9.523934E-2,-6.37308E-2,1.260471E-1,-1.2247058E-1,-6.339723E-2,8.642977E-2,-1.0866362E-1,-1.23041175E-1,3.6386993E-2,-4.6906732E-2,1.18921004E-1],"split_indices":[139,339,598,967,206,865,811,361,754,325,865,775,860,612,0,63,375,237,269,821,0,0,0,771,236,535,675,244,0,875,891,611,0,389,0,626,0,446,0,676,750,390,101,0,0,769,315,0,0,0,0,0,0,0,0,0,0,0,0,0,0,0,0,0,0,0,0,0,0,0,0,0,0],"split_type":[0,0,0,0,0,0,0,0,0,0,0,0,0,0,0,0,0,0,0,0,0,0,0,0,0,0,0,0,0,0,0,0,0,0,0,0,0,0,0,0,0,0,0,0,0,0,0,0,0,0,0,0,0,0,0,0,0,0,0,0,0,0,0,0,0,0,0,0,0,0,0,0,0],"sum_hessian":[9.371598E2,6.8192303E2,2.5523679E2,5.8509E2,9.6832985E1,2.4529668E2,9.94011E0,5.4881323E2,3.62768E1,9.3482086E1,3.3508954E0,2.2874927E2,1.6547411E1,7.7873735E0,2.152737E0,5.1090936E2,3.7903877E1,3.1054184E1,5.222614E0,9.231859E1,1.1635003E0,1.8133014E0,1.5375938E0,5.387318E1,1.7487608E2,5.054263E0,1.1493148E1,6.571067E0,1.2163062E0,4.905892E2,2.032015E1,3.609598E1,1.8078964E0,2.9862343E1,1.1918411E0,3.2722342E0,1.9503794E0,9.1139175E1,1.1794131E0,4.77922E1,6.080984E0,1.6926578E2,5.610309E0,1.2097944E0,3.8444688E0,7.676414E0,3.816734E0,5.4358068E0,1.1352605E0,4.8052225E2,1.0066984E1,1.9103935E1,1.2162138E0,3.494732E1,1.1486654E0,2.7450043E1,2.4122984E0,1.159054E0,2.1131802E0,8.927992E1,1.8592491E0,1.5254683E1,3.2537514E1,1.4410512E0,4.639933E0,1.4146071E2,2.7805058E1,3.9181247E0,1.6921842E0,6.220749E0,1.4556651E0,1.6733708E0,2.1433632E0],"tree_param":{"num_deleted":"0","num_feature":"1000","num_nodes":"73","size_leaf_vector":"1"}},{"base_weights":[9.541523E-3,2.8172112E-1,-7.3479503E-1,1.2921606E-1,8.7690103E-1,-8.13347E-1,3.1614825E-1,2.4307435E-2,1.003443E0,9.2204535E-1,-9.010402E-1,-8.770146E-1,3.1678286E-1,1.0106239E0,-4.8808837E-1,1.569184E-1,-7.0005506E-1,1.0846752E0,-6.4174175E-1,9.7011954E-1,-8.6650586E-1,-1.6690008E-1,3.7617948E-2,-9.2118317E-1,6.338063E-1,8.160063E-1,-7.1738404E-1,1.3162512E0,-6.42077E-2,8.7774694E-2,-8.6682236E-1,2.2197442E-1,-9.811066E-1,-8.2680935E-1,6.2982106E-1,1.1450514E0,-7.252898E-2,-1.3389617E-1,3.790567E-2,1.0164436E0,-5.85243E-1,3.5122275E-2,-1.441385E-1,-7.5269663E-1,-1.2508705E0,-3.2195935E-1,1.307369E-1,1.3356688E0,-6.2217545E-2,-1.16158545E-1,3.281196E-2,1.4747575E-1,4.60288E-2,-1.2324085E-1,4.3700296E-2,2.8884856E-2,-7.5438835E-2,-1.1597957E-1,7.8457676E-2,-9.5917925E-2,3.2469068E-2,1.2814981E-1,-4.453659E-2,1.1997151E-1,-5.375309E-2,1.0979569E-1,9.925764E-3,-1.4489144E-1,8.428926E-2,-4.6298083E-2,-1.0574298E-1,-1.3278519E-1,3.2239843E-3,-9.9593796E-2,5.794717E-2,1.607856E-1,-8.234196E-5],"categories":[],"categories_nodes":[],"categories_segments":[],"categories_sizes":[],"default_left":[0,0,0,0,0,0,0,0,0,0,0,0,0,0,0,0,0,0,0,0,0,0,0,0,0,0,0,0,0,0,0,0,0,0,0,0,0,0,0,0,0,0,0,0,0,0,0,0,0,0,0,0,0,0,0,0,0,0,0,0,0,0,0,0,0,0,0,0,0,0,0,0,0,0,0,0,0],"id":6,"left_children":[1,3,5,7,9,11,13,15,17,19,21,23,25,27,29,31,33,35,37,39,41,-1,-1,43,45,47,49,51,-1,-1,53,55,57,59,61,63,-1,-1,-1,65,67,-1,-1,69,71,73,-1,75,-1,-1,-1,-1,-1,-1,-1,-1,-1,-1,-1,-1,-1,-1,-1,-1,-1,-1,-1,-1,-1,-1,-1,-1,-1,-1,-1,-1,-1],"loss_changes":[1.8574854E2,6.082238E1,2.052391E1,4.9095375E1,1.1807632E1,1.6733704E1,1.0431365E1,4.6142654E1,8.361649E0,1.2350891E1,4.4455976E0,1.5049271E1,7.261879E0,5.8325996E0,5.374815E0,3.0267109E1,1.3051838E1,6.8442993E0,2.8755534E0,1.0021606E1,3.328982E0,0E0,0E0,1.078035E1,4.7661686E0,7.6989894E0,2.5835664E0,4.9625778E-1,0E0,0E0,4.106983E0,2.5339281E1,7.89283E0,1.0722328E1,5.501025E0,5.578766E0,0E0,0E0,0E0,9.416992E0,6.671375E0,0E0,0E0,1.2061531E1,6.9431686E0,2.7598586E0,0E0,2.5725546E0,0E0,0E0,0E0,0E0,0E0,0E0,0E0,0E0,0E0,0E0,0E0,0E0,0E0,0E0,0E0,0E0,0E0,0E0,0E0,0E0,0E0,0E0,0E0,0E0,0E0,0E0,0E0,0E0,0E0],"parents":[2147483647,0,0,1,1,2,2,3,3,4,4,5,5,6,6,7,7,8,8,9,9,10,10,11,11,12,12,13,13,14,14,15,15,16,16,17,17,18,18,19,19,20,20,23,23,24,24,25,25,26,26,27,27,30,30,31,31,32,32,33,33,34,34,35,35,39,39,40,40,43,43,44,44,45,45,47,47],"right_children":[2,4,6,8,10,12,14,16,18,20,22,24,26,28,30,32,34,36,38,40,42,-1,-1,44,46,48,50,52,-1,-1,54,56,58,60,62,64,-1,-1,-1,66,68,-1,-1,70,72,74,-1,76,-1,-1,-1,-1,-1,-1,-1,-1,-1,-1,-1,-1,-1,-1,-1,-1,-1,-1,-1,-1,-1,-1,-1,-1,-1,-1,-1,-1,-1],"split_conditions":[-8.36647E-1,-9.9570125E-1,-9.989253E-1,-9.989253E-1,-9.785062E-1,-6.0343903E-1,-9.612471E-1,-9.7127724E-1,-9.989253E-1,-9.978506E-1,-9.260422E-1,-9.989253E-1,-8.7103707E-1,-8.2590747E-1,-9.974924E-1,-9.978506E-1,-9.967759E-1,-9.62451E-1,-9.967759E-1,-9.977103E-1,-9.650273E-1,-1.6690008E-1,3.7617948E-2,-9.6955484E-1,-9.3125534E-1,-8.601088E-1,-8.924126E-1,1.1189951E-1,-6.42077E-2,8.7774694E-2,-4.1122156E-1,-9.76181E-1,-9.811332E-1,-9.8954123E-1,-9.2560863E-1,-9.9833786E-1,-7.252898E-2,-1.3389617E-1,3.790567E-2,-8.2537305E-1,-9.9166185E-1,3.5122275E-2,-1.441385E-1,4.7005454E-1,-9.681173E-1,-9.418977E-1,1.307369E-1,-9.26921E-1,-6.2217545E-2,-1.16158545E-1,3.281196E-2,1.4747575E-1,4.60288E-2,-1.2324085E-1,4.3700296E-2,2.8884856E-2,-7.5438835E-2,-1.1597957E-1,7.8457676E-2,-9.5917925E-2,3.2469068E-2,1.2814981E-1,-4.453659E-2,1.1997151E-1,-5.375309E-2,1.0979569E-1,9.925764E-3,-1.4489144E-1,8.428926E-2,-4.6298083E-2,-1.0574298E-1,-1.3278519E-1,3.2239843E-3,-9.9593796E-2,5.794717E-2,1.607856E-1,-8.234196E-5],"split_indices":[139,904,947,124,854,556,383,844,375,767,442,991,639,259,539,199,888,612,723,827,501,0,0,633,982,564,683,669,0,0,127,636,711,771,75,978,0,0,0,47,548,0,0,55,720,570,0,408,0,0,0,0,0,0,0,0,0,0,0,0,0,0,0,0,0,0,0,0,0,0,0,0,0,0,0,0,0],"split_type":[0,0,0,0,0,0,0,0,0,0,0,0,0,0,0,0,0,0,0,0,0,0,0,0,0,0,0,0,0,0,0,0,0,0,0,0,0,0,0,0,0,0,0,0,0,0,0,0,0,0,0,0,0,0,0,0,0,0,0,0,0,0,0,0,0,0,0,0,0,0,0,0,0,0,0,0,0],"sum_hessian":[9.148329E2,6.7033484E2,2.4449806E2,5.3457574E2,1.3575911E2,2.2770453E2,1.679353E1,4.7821677E2,5.635897E1,1.3286684E2,2.892274E0,2.1577263E2,1.1931905E1,8.874007E0,7.9195223E0,4.0487802E2,7.333873E1,5.4031807E1,2.3271616E0,1.2983464E2,3.0322094E0,1.6146684E0,1.2776055E0,2.1002292E2,5.749711E0,8.189527E0,3.742378E0,7.660887E0,1.2131208E0,1.4332359E0,6.486286E0,3.8374588E2,2.1132158E1,6.730224E1,6.036489E0,5.264312E1,1.388687E0,1.1975422E0,1.1296194E0,1.26416016E2,3.4186141E0,1.0971783E0,1.935031E0,1.4116412E2,6.8858795E1,2.5927212E0,3.1569896E0,6.0681744E0,2.121352E0,2.54855E0,1.193828E0,5.853939E0,1.8069475E0,5.1086273E0,1.3776588E0,3.598058E2,2.394007E1,1.950171E1,1.6304487E0,6.0513027E1,6.789213E0,3.6389914E0,2.3974977E0,5.1264618E1,1.3785027E0,1.15917015E2,1.0499006E1,2.1212368E0,1.2973772E0,7.365662E1,6.750751E1,6.4928474E1,3.9303172E0,1.4235363E0,1.169185E0,4.872758E0,1.1954168E0],"tree_param":{"num_deleted":"0","num_feature":"1000","num_nodes":"77","size_leaf_vector":"1"}},{"base_weights":[1.2695153E-2,2.498445E-1,-7.069433E-1,1.2631094E-1,1.0098655E0,-8.125768E-1,2.2972835E-2,2.7697474E-1,-5.238649E-1,1.0576124E0,-6.882763E-1,-9.351744E-1,-3.5822237E-1,5.914726E-1,-6.053422E-1,3.0126274E-2,6.407827E-1,3.6369926E-1,-6.722678E-1,1.1028124E0,-7.953295E-2,-1.3557838E-1,3.556112E-2,-1.0391501E0,-2.5856385E-1,-5.698171E-1,6.9803786E-1,9.20414E-1,-5.4829675E-1,-9.315234E-1,8.699018E-2,2.2992152E-1,-5.033497E-1,4.6294132E-1,1.1135107E0,7.0349306E-1,-1.4267416E-1,-9.9742067E-1,-2.901011E-1,1.1366099E0,-5.4835327E-2,-1.0794936E0,2.6743042E-1,-6.76242E-1,8.151081E-1,1.1242335E-1,-6.975156E-1,1.2520843E0,-9.1556445E-2,1.2201322E0,-4.1440666E-2,-1.115528E-1,5.2491624E-2,6.1425455E-2,-1.1841617E0,1.0230367E-2,9.476924E-2,-2.9175198E-2,-1.21213734E-1,5.280703E-2,-1.544463E-1,1.1879442E-1,-1.7170316E-2,9.431983E-2,-9.212696E-2,-1.3284329E-1,-2.018219E-2,1.1092034E-2,-1.0853683E-1,1.1793269E-1,-2.4001533E-2,-1.1278739E-1,8.113778E-3,-9.6767955E-2,1.3197085E-1,6.8055965E-2,-1.0183682E-1,1.292784E-1,-8.0165856E-2,-8.2297675E-2,1.12260655E-1,1.6532736E-1,-3.1320494E-2,-1.9807244E-2,1.4170809E-1,-1.4211442E-1,-2.1442322E-2],"categories":[],"categories_nodes":[],"categories_segments":[],"categories_sizes":[],"default_left":[0,0,0,0,0,0,0,0,0,0,0,0,0,0,0,0,0,0,0,0,0,0,0,0,0,0,0,0,0,0,0,0,0,0,0,0,0,0,0,0,0,0,0,0,0,0,0,0,0,0,0,0,0,0,0,0,0,0,0,0,0,0,0,0,0,0,0,0,0,0,0,0,0,0,0,0,0,0,0,0,0,0,0,0,0,0,0],"id":7,"left_children":[1,3,5,7,9,11,13,15,17,19,21,23,25,27,29,31,33,35,37,39,-1,-1,-1,41,43,45,47,49,51,53,-1,55,57,59,61,63,-1,65,67,69,-1,71,73,75,77,-1,79,81,-1,83,-1,-1,-1,-1,85,-1,-1,-1,-1,-1,-1,-1,-1,-1,-1,-1,-1,-1,-1,-1,-1,-1,-1,-1,-1,-1,-1,-1,-1,-1,-1,-1,-1,-1,-1,-1,-1],"loss_changes":[1.5435562E2,6.3738506E1,1.7303925E1,5.7575134E1,8.427696E0,1.0575394E1,1.0829104E1,4.278464E1,1.4818024E1,8.646088E0,2.7138958E0,1.0539108E1,1.0062132E1,6.464199E0,7.7486725E0,3.0493666E1,1.5678261E1,1.1041098E1,1.1533493E1,5.6999207E0,0E0,0E0,0E0,7.2905426E0,1.032499E1,8.696395E0,7.9998894E0,5.590061E0,3.13429E0,5.527293E0,0E0,1.8959455E1,1.1340164E1,1.933847E1,5.173073E0,6.5304303E0,0E0,1.3161949E1,1.4518827E1,5.5444717E0,0E0,7.3379974E0,7.48962E0,8.230335E0,6.1005864E0,0E0,8.831453E0,4.366686E0,0E0,3.250352E0,0E0,0E0,0E0,0E0,2.2015781E0,0E0,0E0,0E0,0E0,0E0,0E0,0E0,0E0,0E0,0E0,0E0,0E0,0E0,0E0,0E0,0E0,0E0,0E0,0E0,0E0,0E0,0E0,0E0,0E0,0E0,0E0,0E0,0E0,0E0,0E0,0E0,0E0],"parents":[2147483647,0,0,1,1,2,2,3,3,4,4,5,5,6,6,7,7,8,8,9,9,10,10,11,11,12,12,13,13,14,14,15,15,16,16,17,17,18,18,19,19,23,23,24,24,25,25,26,26,27,27,28,28,29,29,31,31,32,32,33,33,34,34,35,35,37,37,38,38,39,39,41,41,42,42,43,43,44,44,46,46,47,47,49,49,54,54],"right_children":[2,4,6,8,10,12,14,16,18,20,22,24,26,28,30,32,34,36,38,40,-1,-1,-1,42,44,46,48,50,52,54,-1,56,58,60,62,64,-1,66,68,70,-1,72,74,76,78,-1,80,82,-1,84,-1,-1,-1,-1,86,-1,-1,-1,-1,-1,-1,-1,-1,-1,-1,-1,-1,-1,-1,-1,-1,-1,-1,-1,-1,-1,-1,-1,-1,-1,-1,-1,-1,-1,-1,-1,-1],"split_conditions":[-9.301451E-1,-9.967759E-1,-9.93034E-1,-9.666435E-1,-9.989253E-1,-8.721118E-1,-9.7528213E-1,-9.451908E-1,1.0463662E-1,-9.990872E-1,-8.9838177E-1,-9.9570125E-1,-9.62365E-1,-8.82877E-1,-9.989253E-1,-9.065019E-1,-9.9211895E-1,-9.119783E-1,-9.505642E-1,-9.991973E-1,-7.953295E-2,-1.3557838E-1,3.556112E-2,-9.9351627E-1,-9.758868E-1,2.6433337E-1,-9.926324E-1,-7.2034556E-1,-2.6271215E-1,-8.130038E-1,8.699018E-2,-9.634018E-1,-9.892531E-1,-9.8356557E-1,-9.7925115E-1,-9.9352694E-1,-1.4267416E-1,-8.313966E-1,-9.849543E-1,-8.3311075E-1,-5.4835327E-2,-9.989253E-1,-9.343813E-1,-8.6029017E-1,-9.640367E-1,1.1242335E-1,-8.9103556E-1,-9.6682525E-1,-9.1556445E-2,-7.6101464E-1,-4.1440666E-2,-1.115528E-1,5.2491624E-2,6.1425455E-2,-9.8533773E-1,1.0230367E-2,9.476924E-2,-2.9175198E-2,-1.21213734E-1,5.280703E-2,-1.544463E-1,1.1879442E-1,-1.7170316E-2,9.431983E-2,-9.212696E-2,-1.3284329E-1,-2.018219E-2,1.1092034E-2,-1.0853683E-1,1.1793269E-1,-2.4001533E-2,-1.1278739E-1,8.113778E-3,-9.6767955E-2,1.3197085E-1,6.8055965E-2,-1.0183682E-1,1.292784E-1,-8.0165856E-2,-8.2297675E-2,1.12260655E-1,1.6532736E-1,-3.1320494E-2,-1.9807244E-2,1.4170809E-1,-1.4211442E-1,-2.1442322E-2],"split_indices":[957,530,707,612,544,463,144,250,669,744,524,53,296,572,397,618,726,44,867,874,0,0,0,672,936,118,437,133,187,687,0,296,261,63,338,161,0,392,261,255,0,124,993,769,974,0,411,748,0,23,0,0,0,0,675,0,0,0,0,0,0,0,0,0,0,0,0,0,0,0,0,0,0,0,0,0,0,0,0,0,0,0,0,0,0,0,0],"split_type":[0,0,0,0,0,0,0,0,0,0,0,0,0,0,0,0,0,0,0,0,0,0,0,0,0,0,0,0,0,0,0,0,0,0,0,0,0,0,0,0,0,0,0,0,0,0,0,0,0,0,0,0,0,0,0,0,0,0,0,0,0,0,0,0,0,0,0,0,0,0,0,0,0,0,0,0,0,0,0,0,0,0,0,0,0,0,0],"sum_hessian":[9.0241833E2,6.79236E2,2.2318234E2,5.852722E2,9.396376E1,1.9486781E2,2.831453E1,4.7562964E2,1.0964259E2,9.1760895E1,2.202863E0,1.5262659E2,4.2241226E1,1.489561E1,1.341892E1,2.8400876E2,1.9162086E2,1.5498543E1,9.414405E1,8.997101E1,1.789887E0,1.1614178E0,1.0414453E0,1.3183197E2,2.0794615E1,3.557518E1,6.666046E0,1.1708851E1,3.1867588E0,1.1291005E1,2.1279144E0,2.0703856E2,7.6970215E1,1.4067711E2,5.0943764E1,1.3536618E1,1.9619253E0,4.999645E1,4.4147602E1,8.8471725E1,1.4992834E0,1.280519E2,3.7800767E0,1.5237217E1,5.5573983E0,1.9466796E0,3.36285E1,5.128998E0,1.5370483E0,9.632016E0,2.0768352E0,2.0590496E0,1.1277093E0,1.3850647E0,9.90594E0,1.7675458E2,3.0283985E1,6.0361755E1,1.6608461E1,1.3697014E2,3.7069707E0,4.8226402E1,2.7173624E0,1.2161838E1,1.37478E0,3.4833923E1,1.5162526E1,2.9920443E1,1.4227158E1,8.594806E1,2.5236645E0,1.2295482E2,5.0970826E0,1.7759517E0,2.004125E0,2.869232E0,1.2367985E1,4.444619E0,1.1127793E0,3.1972483E1,1.656019E0,4.037868E0,1.0911298E0,1.1738136E0,8.458202E0,7.58648E0,2.31946E0],"tree_param":{"num_deleted":"0","num_feature":"1000","num_nodes":"87","size_leaf_vector":"1"}},{"base_weights":[9.6302945E-4,2.4727267E-1,-6.456179E-1,1.3468802E-1,9.3648994E-1,-3.8483256E-1,-9.4480985E-1,2.0341311E-1,-1.1111711E0,9.9656487E-1,-9.0534496E-1,-4.8434743E-1,7.917122E-1,-1.0215276E0,2.7199718E-1,7.168781E-2,7.688973E-1,-1.2282993E0,5.6328017E-2,1.042814E0,-1.302571E-1,-1.5190074E-1,2.7949115E-2,-2.3936214E-1,-8.956575E-1,6.2650554E-2,1.3456172E-1,-1.0604804E0,6.9543906E-2,-1.0206532E-1,1.038433E0,2.39082E-1,-3.8974294E-1,-4.3675572E-1,8.586962E-1,-1.3278066E0,5.672663E-2,1.0819718E0,-6.462153E-2,-3.1291792E-1,1.4941365E-1,4.9753165E-1,-9.9743235E-1,8.762639E-1,-1.0634229E-1,-1.1228957E0,1.6659015E-1,1.6365886E-1,-7.219856E-2,2.8013522E-2,-1.3532689E-1,-2.3586197E-2,-1.3809519E-1,6.1212238E-2,-1.1161845E-1,1.0289889E-1,1.6323594E-2,-1.3912533E-1,-6.973604E-3,1.1114772E-1,-6.5649435E-2,-5.565692E-4,-7.375738E-2,-4.7587562E-2,1.1139317E-1,-1.0863345E-1,7.064837E-2,1.3288856E-1,-9.846992E-3,-1.161158E-1,6.452398E-2,1.19547985E-1,-6.6728435E-2],"categories":[],"categories_nodes":[],"categories_segments":[],"categories_sizes":[],"default_left":[0,0,0,0,0,0,0,0,0,0,0,0,0,0,0,0,0,0,0,0,0,0,0,0,0,0,0,0,0,0,0,0,0,0,0,0,0,0,0,0,0,0,0,0,0,0,0,0,0,0,0,0,0,0,0,0,0,0,0,0,0,0,0,0,0,0,0,0,0,0,0,0,0],"id":8,"left_children":[1,3,5,7,9,11,13,15,17,19,21,23,25,27,29,31,33,35,-1,37,-1,-1,-1,39,41,43,-1,45,-1,-1,47,49,51,53,55,57,-1,59,-1,61,-1,63,65,67,-1,69,71,-1,-1,-1,-1,-1,-1,-1,-1,-1,-1,-1,-1,-1,-1,-1,-1,-1,-1,-1,-1,-1,-1,-1,-1,-1,-1],"loss_changes":[1.4409442E2,5.0713326E1,1.9110603E1,4.8547344E1,1.1063042E1,1.6194597E1,1.10644E1,3.9848324E1,6.508709E0,1.0865082E1,2.9145238E0,1.2394363E1,4.3218565E0,8.021156E0,8.631862E0,3.3738586E1,1.1321629E1,5.762142E0,0E0,6.532448E0,0E0,0E0,0E0,1.0640932E1,7.0675316E0,6.208608E0,0E0,8.37323E0,0E0,0E0,6.7558517E0,2.131458E1,1.741868E1,6.150255E0,1.1016296E1,2.0470695E0,0E0,5.1703796E0,0E0,1.0093485E1,0E0,2.823484E0,7.3603134E0,1.8478949E0,0E0,7.639099E0,5.983635E0,0E0,0E0,0E0,0E0,0E0,0E0,0E0,0E0,0E0,0E0,0E0,0E0,0E0,0E0,0E0,0E0,0E0,0E0,0E0,0E0,0E0,0E0,0E0,0E0,0E0,0E0],"parents":[2147483647,0,0,1,1,2,2,3,3,4,4,5,5,6,6,7,7,8,8,9,9,10,10,11,11,12,12,13,13,14,14,15,15,16,16,17,17,19,19,23,23,24,24,25,25,27,27,30,30,31,31,32,32,33,33,34,34,35,35,37,37,39,39,41,41,42,42,43,43,45,45,46,46],"right_children":[2,4,6,8,10,12,14,16,18,20,22,24,26,28,30,32,34,36,-1,38,-1,-1,-1,40,42,44,-1,46,-1,-1,48,50,52,54,56,58,-1,60,-1,62,-1,64,66,68,-1,70,72,-1,-1,-1,-1,-1,-1,-1,-1,-1,-1,-1,-1,-1,-1,-1,-1,-1,-1,-1,-1,-1,-1,-1,-1,-1,-1],"split_conditions":[-9.172488E-1,-9.978506E-1,-9.7367007E-1,-9.786931E-1,-9.6133447E-1,-9.903278E-1,-9.8656577E-1,-9.6320575E-1,-9.969696E-1,-9.99787E-1,-2.759716E-1,-7.7322704E-1,-9.920602E-1,-9.978506E-1,-8.9669484E-1,-9.559252E-1,-4.3564546E-1,-9.9780726E-1,5.6328017E-2,-9.991764E-1,-1.302571E-1,-1.5190074E-1,2.7949115E-2,-9.923553E-1,-4.6869272E-1,-6.8905234E-1,1.3456172E-1,-8.973822E-1,6.9543906E-2,-1.0206532E-1,-9.0592986E-1,-9.532488E-1,-9.919164E-1,-7.5984025E-1,-9.6955043E-1,7.1616906E-1,5.672663E-2,-9.9989223E-1,-6.462153E-2,-1.1963189E-1,1.4941365E-1,-8.6288357E-1,-9.837754E-1,-9.785062E-1,-1.0634229E-1,-9.970754E-1,-9.221432E-1,1.6365886E-1,-7.219856E-2,2.8013522E-2,-1.3532689E-1,-2.3586197E-2,-1.3809519E-1,6.1212238E-2,-1.1161845E-1,1.0289889E-1,1.6323594E-2,-1.3912533E-1,-6.973604E-3,1.1114772E-1,-6.5649435E-2,-5.565692E-4,-7.375738E-2,-4.7587562E-2,1.1139317E-1,-1.0863345E-1,7.064837E-2,1.3288856E-1,-9.846992E-3,-1.161158E-1,6.452398E-2,1.19547985E-1,-6.6728435E-2],"split_indices":[463,539,647,623,614,237,658,296,91,575,62,58,130,370,257,918,890,361,0,66,0,0,0,462,922,335,0,638,0,0,954,93,571,132,647,320,0,438,0,428,0,368,496,386,0,316,957,0,0,0,0,0,0,0,0,0,0,0,0,0,0,0,0,0,0,0,0,0,0,0,0,0,0],"split_type":[0,0,0,0,0,0,0,0,0,0,0,0,0,0,0,0,0,0,0,0,0,0,0,0,0,0,0,0,0,0,0,0,0,0,0,0,0,0,0,0,0,0,0,0,0,0,0,0,0,0,0,0,0,0,0,0,0,0,0,0,0,0,0,0,0,0,0,0,0,0,0,0,0],"sum_hessian":[9.027772E2,6.541875E2,2.4858972E2,5.6335767E2,9.082988E1,1.3404126E2,1.1454847E2,5.3469885E2,2.8658766E1,8.8405304E1,2.4245784E0,1.24130356E2,9.910904E0,1.0790566E2,6.6428037E0,4.3459094E2,1.0010793E2,2.7034168E1,1.6245968E0,8.719767E1,1.2076275E0,1.4114867E0,1.0130917E0,7.878577E1,4.534459E1,4.7594805E0,5.1514235E0,1.05885796E2,2.0198684E0,2.349132E0,4.2936716E0,3.1925574E2,1.153352E2,6.6715174E0,9.343642E1,2.5861475E1,1.1726941E0,8.55732E1,1.6244805E0,7.6364944E1,2.4208279E0,2.8222656E0,4.2522324E1,2.8918762E0,1.8676041E0,1.0084136E2,5.0444307E0,3.25726E0,1.0364115E0,3.1203506E2,7.2206645E0,1.0090766E2,1.4427534E1,2.6616378E0,4.0098796E0,7.467234E1,1.8764078E1,2.4519075E1,1.3424003E0,8.449972E1,1.0734789E0,4.488891E1,3.1476032E1,1.1826395E0,1.639626E0,4.0758205E1,1.7641184E0,1.7267302E0,1.1651459E0,9.9041405E1,1.7999594E0,2.0640385E0,2.9803925E0],"tree_param":{"num_deleted":"0","num_feature":"1000","num_nodes":"73","size_leaf_vector":"1"}},{"base_weights":[2.5977219E-2,2.4005352E-1,-5.298453E-1,9.944739E-2,8.3520854E-1,-4.076467E-1,-1.0965468E0,1.6965646E-1,-8.6064786E-1,8.9278877E-1,-5.0573844E-1,-5.1952904E-1,3.7437785E-1,-1.3329622E0,-5.424941E-1,6.8136655E-2,7.840699E-1,-1.0047001E0,8.531322E-2,9.217519E-1,-1.0997045E-1,-1.5492505E-1,7.142448E-2,-9.660032E-2,-6.992675E-1,6.333688E-1,-6.7610943E-1,-1.3610741E-1,-2.8358763E-2,4.4617665E-1,-1.006647E0,1.7756118E-1,-5.828677E-1,8.939195E-1,-7.488093E-1,-1.1161327E0,4.2356905E-2,9.549624E-1,-8.1080794E-2,-2.8370562E-1,9.146762E-1,-7.793116E-1,3.834791E-1,8.058026E-1,-7.674632E-2,-1.14251316E-1,6.126033E-2,-6.415712E-2,1.3462387E-1,-1.1734434E0,1.9958753E-2,-7.981776E-3,3.7740283E-2,-9.831714E-2,8.473689E-3,2.426323E-2,1.1744487E-1,5.460892E-2,-1.369918E-1,-1.27245E-1,-1.25962375E-2,1.04868986E-1,1.3988877E-2,-5.1045496E-2,4.7712415E-2,1.4044058E-1,-6.377759E-2,-8.411444E-2,6.2485315E-2,-3.7222378E-2,1.3223489E-1,1.0209308E-1,-3.6058217E-2,-1.2398324E-1,-3.279848E-2],"categories":[],"categories_nodes":[],"categories_segments":[],"categories_sizes":[],"default_left":[0,0,0,0,0,0,0,0,0,0,0,0,0,0,0,0,0,0,0,0,0,0,0,0,0,0,0,0,0,0,0,0,0,0,0,0,0,0,0,0,0,0,0,0,0,0,0,0,0,0,0,0,0,0,0,0,0,0,0,0,0,0,0,0,0,0,0,0,0,0,0,0,0,0,0],"id":9,"left_children":[1,3,5,7,9,11,13,15,17,19,21,23,25,27,29,31,33,35,-1,37,-1,-1,-1,39,41,43,45,-1,-1,47,49,51,53,55,57,59,-1,61,-1,63,65,67,69,71,-1,-1,-1,-1,-1,73,-1,-1,-1,-1,-1,-1,-1,-1,-1,-1,-1,-1,-1,-1,-1,-1,-1,-1,-1,-1,-1,-1,-1,-1,-1],"loss_changes":[1.0307884E2,5.224608E1,1.6234947E1,3.431905E1,9.668098E0,1.767205E1,4.7964554E0,2.9465706E1,9.426413E0,7.6394653E0,8.175853E0,1.324847E1,7.3884544E0,4.6507263E-1,7.006384E0,2.9113537E1,1.1953316E1,5.641968E0,0E0,7.3172455E0,0E0,0E0,0E0,1.0364253E1,1.0938942E1,5.7004824E0,4.031881E0,0E0,0E0,6.0115595E0,2.2524319E0,1.8001768E1,1.5806545E1,1.1223068E1,4.7898016E0,4.5455856E0,0E0,8.412094E0,0E0,8.149822E0,7.414896E0,1.0479698E1,6.96389E0,5.191148E0,0E0,0E0,0E0,0E0,0E0,9.615517E-2,0E0,0E0,0E0,0E0,0E0,0E0,0E0,0E0,0E0,0E0,0E0,0E0,0E0,0E0,0E0,0E0,0E0,0E0,0E0,0E0,0E0,0E0,0E0,0E0,0E0],"parents":[2147483647,0,0,1,1,2,2,3,3,4,4,5,5,6,6,7,7,8,8,9,9,10,10,11,11,12,12,13,13,14,14,15,15,16,16,17,17,19,19,23,23,24,24,25,25,26,26,29,29,30,30,31,31,32,32,33,33,34,34,35,35,37,37,39,39,40,40,41,41,42,42,43,43,49,49],"right_children":[2,4,6,8,10,12,14,16,18,20,22,24,26,28,30,32,34,36,-1,38,-1,-1,-1,40,42,44,46,-1,-1,48,50,52,54,56,58,60,-1,62,-1,64,66,68,70,72,-1,-1,-1,-1,-1,74,-1,-1,-1,-1,-1,-1,-1,-1,-1,-1,-1,-1,-1,-1,-1,-1,-1,-1,-1,-1,-1,-1,-1,-1,-1],"split_conditions":[-9.172488E-1,-9.9570125E-1,-9.795216E-1,-9.871037E-1,-7.94734E-1,-9.935203E-1,-7.3528445E-1,-9.9140245E-1,-9.975813E-1,-9.998921E-1,-1.8728419E-1,-7.657173E-1,-8.01409E-1,-7.3948455E-1,-8.107697E-1,-9.7312766E-1,-9.978506E-1,-9.8715526E-1,8.531322E-2,-9.8944384E-1,-1.0997045E-1,-1.5492505E-1,7.142448E-2,-9.629281E-1,-9.989253E-1,-9.8506886E-1,-8.9666164E-1,-1.3610741E-1,-2.8358763E-2,-9.110448E-1,-5.6176424E-1,-8.4271336E-1,-8.4393275E-1,-6.901379E-1,-8.692126E-1,-9.946276E-1,4.2356905E-2,-8.386517E-1,-8.1080794E-2,-7.204985E-1,4.7247523E-1,-9.989253E-1,-8.699624E-1,-9.6311545E-1,-7.674632E-2,-1.14251316E-1,6.126033E-2,-6.415712E-2,1.3462387E-1,-9.913329E-1,1.9958753E-2,-7.981776E-3,3.7740283E-2,-9.831714E-2,8.473689E-3,2.426323E-2,1.1744487E-1,5.460892E-2,-1.369918E-1,-1.27245E-1,-1.25962375E-2,1.04868986E-1,1.3988877E-2,-5.1045496E-2,4.7712415E-2,1.4044058E-1,-6.377759E-2,-8.411444E-2,6.2485315E-2,-3.7222378E-2,1.3223489E-1,1.0209308E-1,-3.6058217E-2,-1.2398324E-1,-3.279848E-2],"split_indices":[463,904,623,967,639,904,162,513,361,625,784,640,555,646,994,444,137,594,0,786,0,0,0,296,460,497,535,0,0,909,759,740,277,335,829,656,0,384,0,133,55,124,463,227,0,0,0,0,0,103,0,0,0,0,0,0,0,0,0,0,0,0,0,0,0,0,0,0,0,0,0,0,0,0,0],"split_type":[0,0,0,0,0,0,0,0,0,0,0,0,0,0,0,0,0,0,0,0,0,0,0,0,0,0,0,0,0,0,0,0,0,0,0,0,0,0,0,0,0,0,0,0,0,0,0,0,0,0,0,0,0,0,0,0,0,0,0,0,0,0,0,0,0,0,0,0,0,0,0,0,0,0,0],"sum_hessian":[8.6422406E2,6.2433E2,2.3989403E2,5.0596277E2,1.18367256E2,1.9875545E2,4.1138577E1,4.7225165E2,3.371114E1,1.13814285E2,4.552974E0,1.7417265E2,2.4582796E1,2.784936E1,1.328922E1,4.062394E2,6.601222E1,3.1478922E1,2.232217E0,1.1271326E2,1.101026E0,2.3085024E0,2.2444718E0,5.2403496E1,1.2176916E2,2.0039305E1,4.543492E0,2.6833477E1,1.0158815E0,4.2580566E0,9.031163E0,3.484048E2,5.783462E1,6.198693E1,4.02529E0,2.9403429E1,2.0754938E0,1.1103373E2,1.679529E0,4.4828777E1,7.5747156E0,1.1364777E2,8.121383E0,1.822116E1,1.8181435E0,3.4194057E0,1.1240861E0,2.058047E0,2.2000096E0,7.957935E0,1.0732278E0,1.5254301E2,1.9586179E2,3.5859905E1,2.1974714E1,1.9222998E1,4.276393E1,1.3440255E0,2.6812649E0,2.514822E1,4.2552085E0,9.932542E1,1.1708314E1,3.4789562E1,1.0039215E1,5.8307395E0,1.7439762E0,1.09238396E2,4.409378E0,4.834002E0,3.2873814E0,1.5489059E1,2.7321005E0,6.9460406E0,1.0118945E0],"tree_param":{"num_deleted":"0","num_feature":"1000","num_nodes":"75","size_leaf_vector":"1"}},{"base_weights":[6.20916E-3,2.0827864E-1,-5.276976E-1,6.710464E-2,8.102976E-1,-2.8066826E-1,-8.3538944E-1,-3.2492034E-2,7.401952E-1,8.5173863E-1,-9.7204685E-2,-9.2386514E-2,-7.682298E-1,-9.2088246E-1,1.8481615E-1,1.795448E-1,-4.237379E-1,8.631373E-1,-5.396271E-1,9.1104275E-1,-4.223488E-1,3.0019102E-1,-4.570575E-1,-8.9422065E-1,9.9388465E-2,-1.0069079E0,2.8546727E-1,9.139545E-1,-5.722772E-1,2.4599542E-1,-1.0187454E0,-4.989308E-1,8.9955986E-1,2.6824066E-1,1.1360303E0,-1.0627394E0,9.4673924E-2,9.553031E-1,-3.875491E-1,-9.912313E-1,7.833204E-2,6.808874E-1,-2.548335E-1,-5.4601604E-1,1.23523295E-1,-1.0647585E0,2.6337373E-1,-1.1134682E0,-9.019505E-2,1.189481E0,-8.0392486E-1,-2.1128373E-2,1.2623784E-1,-1.0422118E-1,4.0120456E-2,3.435437E-2,-3.3544004E-2,-1.2504612E-1,5.0111003E-2,-7.39448E-2,-9.303058E-3,1.24153905E-1,-3.473107E-2,-8.356183E-2,7.851831E-2,1.2177431E-2,1.2786597E-1,-1.3967894E-1,1.6365198E-2,9.8402806E-2,-8.331724E-2,7.8119546E-2,-1.139033E-1,-1.5688571E-1,3.621772E-2,9.3752496E-2,-4.9222473E-2,-8.558926E-2,3.537373E-2,-6.953173E-2,3.6494363E-2,-1.20832436E-1,3.2550875E-2,1.0529941E-1,-7.895423E-2,-1.1568984E-1,6.274658E-2,-7.386639E-2,9.609634E-2,1.7604238E-1,-3.4800626E-2,-9.3699336E-2,-2.115893E-2],"categories":[],"categories_nodes":[],"categories_segments":[],"categories_sizes":[],"default_left":[0,0,0,0,0,0,0,0,0,0,0,0,0,0,0,0,0,0,0,0,0,0,0,0,0,0,0,0,0,0,0,0,0,0,0,0,0,0,0,0,0,0,0,0,0,0,0,0,0,0,0,0,0,0,0,0,0,0,0,0,0,0,0,0,0,0,0,0,0,0,0,0,0,0,0,0,0,0,0,0,0,0,0,0,0,0,0,0,0,0,0,0,0],"id":10,"left_children":[1,3,5,7,9,11,13,15,17,19,-1,21,23,25,27,29,31,33,35,37,39,41,43,45,-1,47,49,51,53,55,57,59,61,63,65,67,-1,69,71,73,-1,75,77,79,-1,81,83,85,87,89,91,-1,-1,-1,-1,-1,-1,-1,-1,-1,-1,-1,-1,-1,-1,-1,-1,-1,-1,-1,-1,-1,-1,-1,-1,-1,-1,-1,-1,-1,-1,-1,-1,-1,-1,-1,-1,-1,-1,-1,-1,-1,-1],"loss_changes":[9.348803E1,5.3370216E1,1.7849648E1,3.42324E1,9.640907E0,1.2181945E1,9.3671875E0,3.703162E1,1.0821552E1,9.235603E0,0E0,1.4085103E1,9.1137905E0,1.0401474E1,5.483502E0,2.3310802E1,1.605757E1,9.506077E0,5.9696326E0,6.8216476E0,4.8184447E0,1.0214745E1,8.337953E0,7.210087E0,0E0,8.807785E0,8.112379E0,2.212328E0,2.7162108E0,1.572357E1,6.053793E0,1.4484959E1,4.1797566E0,1.2247505E1,5.7927094E0,2.3560166E0,0E0,6.4111023E0,4.7639556E0,4.0434012E0,0E0,9.029834E0,7.6411676E0,6.9258194E0,0E0,6.5394897E0,5.2452846E0,6.896248E0,7.924816E0,4.4525266E0,1.0851693E-1,0E0,0E0,0E0,0E0,0E0,0E0,0E0,0E0,0E0,0E0,0E0,0E0,0E0,0E0,0E0,0E0,0E0,0E0,0E0,0E0,0E0,0E0,0E0,0E0,0E0,0E0,0E0,0E0,0E0,0E0,0E0,0E0,0E0,0E0,0E0,0E0,0E0,0E0,0E0,0E0,0E0,0E0],"parents":[2147483647,0,0,1,1,2,2,3,3,4,4,5,5,6,6,7,7,8,8,9,9,11,11,12,12,13,13,14,14,15,15,16,16,17,17,18,18,19,19,20,20,21,21,22,22,23,23,25,25,26,26,27,27,28,28,29,29,30,30,31,31,32,32,33,33,34,34,35,35,37,37,38,38,39,39,41,41,42,42,43,43,45,45,46,46,47,47,48,48,49,49,50,50],"right_children":[2,4,6,8,10,12,14,16,18,20,-1,22,24,26,28,30,32,34,36,38,40,42,44,46,-1,48,50,52,54,56,58,60,62,64,66,68,-1,70,72,74,-1,76,78,80,-1,82,84,86,88,90,92,-1,-1,-1,-1,-1,-1,-1,-1,-1,-1,-1,-1,-1,-1,-1,-1,-1,-1,-1,-1,-1,-1,-1,-1,-1,-1,-1,-1,-1,-1,-1,-1,-1,-1,-1,-1,-1,-1,-1,-1,-1,-1],"split_conditions":[-8.7103707E-1,-9.946265E-1,-9.7367007E-1,-9.946265E-1,-9.8926586E-1,-8.8312453E-1,-9.989253E-1,-8.53842E-1,-9.9570125E-1,-9.967624E-1,-9.7204685E-2,4.691857E-1,-9.968628E-1,-9.8656577E-1,-9.2303294E-1,-9.7622585E-1,-9.871037E-1,-2.9177862E-1,-9.81773E-1,-9.976748E-1,-9.834492E-1,-8.949124E-1,-9.9570125E-1,-9.1288346E-1,9.9388465E-2,-9.9461865E-1,-8.2504493E-1,-9.3571764E-1,-9.703621E-1,-9.147888E-1,-9.795761E-1,-8.334229E-1,-9.3336916E-1,-4.0248993E-1,-8.796346E-1,-9.3891364E-1,9.4673924E-2,-9.5663846E-1,-4.7724423E-1,-9.221646E-1,7.833204E-2,-9.8014903E-1,-7.8934133E-1,-9.9570125E-1,1.23523295E-1,-8.569221E-1,-9.5899695E-1,-8.576068E-1,-2.5904337E-1,-9.594117E-1,-9.634448E-1,-2.1128373E-2,1.2623784E-1,-1.0422118E-1,4.0120456E-2,3.435437E-2,-3.3544004E-2,-1.2504612E-1,5.0111003E-2,-7.39448E-2,-9.303058E-3,1.24153905E-1,-3.473107E-2,-8.356183E-2,7.851831E-2,1.2177431E-2,1.2786597E-1,-1.3967894E-1,1.6365198E-2,9.8402806E-2,-8.331724E-2,7.8119546E-2,-1.139033E-1,-1.5688571E-1,3.621772E-2,9.3752496E-2,-4.9222473E-2,-8.558926E-2,3.537373E-2,-6.953173E-2,3.6494363E-2,-1.20832436E-1,3.2550875E-2,1.0529941E-1,-7.895423E-2,-1.1568984E-1,6.274658E-2,-7.386639E-2,9.609634E-2,1.7604238E-1,-3.4800626E-2,-9.3699336E-2,-2.115893E-2],"split_indices":[139,707,647,27,786,683,587,860,747,266,0,55,52,658,957,636,237,629,212,827,882,855,566,206,0,115,750,622,891,605,642,860,648,254,740,803,0,924,99,626,0,633,292,53,0,463,561,683,816,831,659,0,0,0,0,0,0,0,0,0,0,0,0,0,0,0,0,0,0,0,0,0,0,0,0,0,0,0,0,0,0,0,0,0,0,0,0,0,0,0,0,0,0],"split_type":[0,0,0,0,0,0,0,0,0,0,0,0,0,0,0,0,0,0,0,0,0,0,0,0,0,0,0,0,0,0,0,0,0,0,0,0,0,0,0,0,0,0,0,0,0,0,0,0,0,0,0,0,0,0,0,0,0,0,0,0,0,0,0,0,0,0,0,0,0,0,0,0,0,0,0,0,0,0,0,0,0,0,0,0,0,0,0,0,0,0,0,0,0],"sum_hessian":[8.645238E2,6.276028E2,2.3692102E2,5.0928616E2,1.18316605E2,1.324756E2,1.0444542E2,4.4447E2,6.481614E1,1.1613841E2,2.1781914E0,9.642762E1,3.604799E1,9.645949E1,7.9859324E0,2.8860226E2,1.5586775E2,5.9432526E1,5.3836174E0,1.1124529E2,4.8931146E0,4.6522156E1,4.990546E1,3.4102215E1,1.9457728E0,9.019309E1,6.26639E0,3.9625285E0,4.023404E0,2.741918E2,1.4410464E1,1.4807664E2,7.7911E0,1.9313267E1,4.0119255E1,4.1929555E0,1.190662E0,1.078343E2,3.4109993E0,3.4453294E0,1.4477851E0,2.7460192E1,1.9061964E1,4.805662E1,1.8488393E0,2.9793243E1,4.3089724E0,8.06084E1,9.584695E0,3.3743591E0,2.892031E0,1.0299373E0,2.9325912E0,2.665884E0,1.3575201E0,2.3514958E2,3.9042233E1,1.2657902E1,1.7525622E0,9.2464714E1,5.561193E1,6.117523E0,1.6735768E0,5.9632053E0,1.3350062E1,5.174747E0,3.494451E1,3.186154E0,1.0068017E0,1.0657242E2,1.2618806E0,1.3194261E0,2.0915732E0,2.3031645E0,1.1421651E0,2.269591E1,4.764282E0,9.385708E0,9.676256E0,4.1492886E1,6.563736E0,2.7123236E1,2.670008E0,2.4623165E0,1.846656E0,7.8973755E1,1.6346457E0,6.11165E0,3.4730444E0,2.354879E0,1.0194802E0,1.8863901E0,1.0056409E0],"tree_param":{"num_deleted":"0","num_feature":"1000","num_nodes":"93","size_leaf_vector":"1"}},{"base_weights":[1.33396E-2,1.8902329E-1,-5.0148815E-1,8.0365464E-2,7.8271973E-1,-5.7787645E-1,2.750743E-1,1.3682844E-1,-9.680814E-1,8.869778E-1,-9.829818E-1,-3.616099E-1,-8.121523E-1,5.752893E-1,-6.512371E-1,2.1931542E-1,-5.634125E-1,-1.1707989E0,-6.784612E-2,9.295161E-1,-1.1577965E-1,-1.3266237E-1,1.4624211E-2,-8.2137984E-1,-1.7076583E-1,-8.7078583E-1,5.4594433E-1,-2.6369104E-1,9.1857046E-1,-1.0241597E-1,4.5170154E-2,8.475264E-2,6.221003E-1,-7.031756E-1,8.375811E-1,-1.2856231E0,2.3910053E-2,-7.463556E-1,8.04893E-1,9.744087E-1,-2.4729007E-1,-9.3599945E-1,1.1610033E-1,-3.589647E-1,4.6283922E-1,-9.1073966E-1,6.816303E-2,1.1884407E-1,-7.841229E-2,-1.041343E-1,5.939233E-1,1.1414934E0,-2.455259E-2,1.3472013E-2,-1.14904754E-1,7.4603505E-2,-2.9771117E-2,-9.083078E-2,4.1895416E-2,1.1542534E-1,-2.7519885E-2,-1.3275647E-1,-3.0374462E-2,-9.912714E-2,-2.276045E-3,1.0622144E-1,1.2833527E-2,1.0131168E-1,-4.360971E-2,-1.12823844E-1,5.8531124E-2,5.6469418E-2,-1.0407495E-1,9.022488E-2,-4.8214626E-2,6.983239E-2,-9.3135744E-2,-9.774324E-2,1.1767412E-2,5.484283E-3,8.3474055E-2,1.3203764E-1,-8.747743E-3],"categories":[],"categories_nodes":[],"categories_segments":[],"categories_sizes":[],"default_left":[0,0,0,0,0,0,0,0,0,0,0,0,0,0,0,0,0,0,0,0,0,0,0,0,0,0,0,0,0,0,0,0,0,0,0,0,0,0,0,0,0,0,0,0,0,0,0,0,0,0,0,0,0,0,0,0,0,0,0,0,0,0,0,0,0,0,0,0,0,0,0,0,0,0,0,0,0,0,0,0,0,0,0],"id":11,"left_children":[1,3,5,7,9,11,13,15,17,19,21,23,25,27,29,31,33,35,37,39,-1,-1,-1,41,43,45,47,49,51,-1,-1,53,55,57,59,61,-1,63,65,67,69,71,-1,73,75,77,-1,-1,-1,-1,79,81,-1,-1,-1,-1,-1,-1,-1,-1,-1,-1,-1,-1,-1,-1,-1,-1,-1,-1,-1,-1,-1,-1,-1,-1,-1,-1,-1,-1,-1,-1,-1],"loss_changes":[7.75185E1,4.1155487E1,1.3094658E1,3.2171474E1,1.9047699E1,9.781677E0,5.9940457E0,2.9837616E1,4.9903927E0,9.23111E0,2.5142155E0,9.090994E0,8.012554E0,4.790373E0,2.689886E0,2.493015E1,1.1259127E1,3.9682827E0,4.2528987E0,5.122383E0,0E0,0E0,0E0,8.039085E0,9.182004E0,6.272522E0,4.8047347E0,4.194721E0,3.2462873E0,0E0,0E0,2.1526901E1,1.336261E1,1.1911358E1,2.2203598E0,4.6434402E-1,0E0,6.8432164E-1,4.1708207E-1,5.3123016E0,3.7357616E0,5.2217026E0,0E0,9.578925E0,6.4784894E0,6.2372894E0,0E0,0E0,0E0,0E0,3.6793566E-1,2.263278E0,0E0,0E0,0E0,0E0,0E0,0E0,0E0,0E0,0E0,0E0,0E0,0E0,0E0,0E0,0E0,0E0,0E0,0E0,0E0,0E0,0E0,0E0,0E0,0E0,0E0,0E0,0E0,0E0,0E0,0E0,0E0],"parents":[2147483647,0,0,1,1,2,2,3,3,4,4,5,5,6,6,7,7,8,8,9,9,10,10,11,11,12,12,13,13,14,14,15,15,16,16,17,17,18,18,19,19,23,23,24,24,25,25,26,26,27,27,28,28,31,31,32,32,33,33,34,34,35,35,37,37,38,38,39,39,40,40,41,41,43,43,44,44,45,45,50,50,51,51],"right_children":[2,4,6,8,10,12,14,16,18,20,22,24,26,28,30,32,34,36,38,40,-1,-1,-1,42,44,46,48,50,52,-1,-1,54,56,58,60,62,-1,64,66,68,70,72,-1,74,76,78,-1,-1,-1,-1,80,82,-1,-1,-1,-1,-1,-1,-1,-1,-1,-1,-1,-1,-1,-1,-1,-1,-1,-1,-1,-1,-1,-1,-1,-1,-1,-1,-1,-1,-1,-1,-1],"split_conditions":[-8.3171076E-1,-9.9211895E-1,-9.978506E-1,-9.819866E-1,-9.993035E-1,-9.763568E-1,-9.938302E-1,-9.967759E-1,-9.9570125E-1,-9.995021E-1,-9.913425E-1,-8.130038E-1,-9.977042E-1,-9.032778E-1,-9.627225E-1,-8.5429364E-1,-9.978506E-1,-9.989253E-1,-9.0556914E-1,-3.061514E-1,-1.1577965E-1,-1.3266237E-1,1.4624211E-2,-7.3201746E-1,-5.7844585E-1,-9.998882E-1,-9.608848E-1,-9.958132E-1,-7.6875025E-1,-1.0241597E-1,4.5170154E-2,-9.848489E-1,-9.814691E-1,-9.86029E-1,-9.696454E-1,-8.510205E-1,2.3910053E-2,-9.903278E-1,-9.820959E-1,-9.9608964E-1,-8.4271336E-1,-2.7625322E-1,1.1610033E-1,-5.90685E-1,-9.8677456E-1,-9.989253E-1,6.816303E-2,1.1884407E-1,-7.841229E-2,-1.041343E-1,-6.0193086E-1,-9.9556404E-1,-2.455259E-2,1.3472013E-2,-1.14904754E-1,7.4603505E-2,-2.9771117E-2,-9.083078E-2,4.1895416E-2,1.1542534E-1,-2.7519885E-2,-1.3275647E-1,-3.0374462E-2,-9.912714E-2,-2.276045E-3,1.0622144E-1,1.2833527E-2,1.0131168E-1,-4.360971E-2,-1.12823844E-1,5.8531124E-2,5.6469418E-2,-1.0407495E-1,9.022488E-2,-4.8214626E-2,6.983239E-2,-9.3135744E-2,-9.774324E-2,1.1767412E-2,5.484283E-3,8.3474055E-2,1.3203764E-1,-8.747743E-3],"split_indices":[139,726,265,623,469,407,336,603,667,935,476,292,236,632,419,262,400,886,807,205,0,0,0,946,721,274,923,185,276,0,0,54,651,59,685,262,0,473,642,307,740,816,0,721,675,842,0,0,0,0,282,530,0,0,0,0,0,0,0,0,0,0,0,0,0,0,0,0,0,0,0,0,0,0,0,0,0,0,0,0,0,0,0],"split_type":[0,0,0,0,0,0,0,0,0,0,0,0,0,0,0,0,0,0,0,0,0,0,0,0,0,0,0,0,0,0,0,0,0,0,0,0,0,0,0,0,0,0,0,0,0,0,0,0,0,0,0,0,0,0,0,0,0,0,0,0,0,0,0,0,0,0,0,0,0,0,0,0,0,0,0,0,0,0,0,0,0,0,0],"sum_hessian":[8.550134E2,6.3794806E2,2.1706534E2,5.402139E2,9.773412E1,1.9785841E2,1.9206926E1,5.1343304E2,2.6780888E1,9.275496E1,4.979168E0,1.0420626E2,9.365215E1,1.4791868E1,4.415058E0,4.5993985E2,5.3493202E1,2.1613379E1,5.167508E0,9.1398964E1,1.3559916E0,3.6834285E0,1.2957393E0,2.9597599E1,7.4608665E1,9.0120186E1,3.5319657E0,4.3622837E0,1.04295845E1,3.3528335E0,1.0622246E0,3.4566885E2,1.1427099E2,4.9093704E1,4.399499E0,2.0067223E1,1.5461571E0,2.9887345E0,2.1787736E0,8.8206085E1,3.1928833E0,2.847882E1,1.1187786E0,5.785695E1,1.6751715E1,8.826196E1,1.8582172E0,2.4533446E0,1.078621E0,2.1754427E0,2.1868408E0,8.769629E0,1.6599565E0,3.3307068E2,1.2598173E1,1.00868904E2,1.3402082E1,4.166723E1,7.426476E0,3.3958468E0,1.0036521E0,1.8907507E1,1.1597153E0,1.9565678E0,1.0321666E0,1.1654717E0,1.013302E0,8.612433E1,2.0817525E0,1.3788697E0,1.8140137E0,1.5716594E0,2.6907162E1,4.585281E0,5.3271667E1,1.4758136E1,1.9935796E0,8.2933304E1,5.3286643E0,1.0543549E0,1.1324859E0,7.590427E0,1.179201E0],"tree_param":{"num_deleted":"0","num_feature":"1000","num_nodes":"83","size_leaf_vector":"1"}},{"base_weights":[-1.0062029E-3,1.6504762E-1,-4.7582826E-1,7.314027E-2,8.2517E-1,-2.9975218E-1,-9.0603644E-1,1.2950915E-1,-1.0667034E0,8.869159E-1,-1.1825257E-1,-3.7358526E-2,-6.185634E-1,-1.096926E0,-6.7010093E-3,3.5723485E-4,6.2027115E-1,-1.1951005E0,2.6879287E-1,9.405493E-1,-8.7169655E-2,2.5666517E-1,-4.2623302E-1,-7.6409656E-1,2.3100987E-1,-1.1617105E0,6.0921934E-2,-6.877651E-1,8.1260693E-1,1.8133432E-1,-3.6231333E-1,7.766448E-1,-2.5268625E-2,-1.3495365E0,-5.319655E-2,9.2853755E-2,-5.36832E-2,9.946713E-1,-4.8602322E-1,4.1310748E-1,-4.6454877E-1,-6.4431316E-1,5.455078E-1,-8.602818E-1,2.783228E-1,-5.322921E-1,9.8445046E-1,-1.2284019E0,-5.8117066E-2,8.6322434E-2,-6.442245E-2,-1.1172705E-1,4.0407296E-2,1.2468388E0,-4.0155295E-2,7.818427E-3,9.058242E-2,-4.9096417E-2,6.0851395E-2,8.354399E-2,-9.036851E-2,-3.90969E-2,8.891455E-2,-1.5094787E-1,1.3765532E-2,-9.546896E-2,6.828652E-2,-7.600706E-2,1.03322916E-1,-1.2580946E-1,6.4340614E-2,6.007589E-2,-5.4185193E-2,-8.613074E-2,1.0042786E-1,-8.445638E-2,4.2500496E-2,-5.906416E-2,1.0266546E-1,-9.090009E-2,6.35755E-2,1.0789311E-1,-9.04729E-2,-1.0345193E-1,6.7574754E-2,-3.179896E-3,1.5154661E-1,-1.2740687E-1,-3.4380698E-4,9.118273E-2,-8.0928795E-2,1.545007E-1,9.990341E-3],"categories":[],"categories_nodes":[],"categories_segments":[],"categories_sizes":[],"default_left":[0,0,0,0,0,0,0,0,0,0,0,0,0,0,0,0,0,0,0,0,0,0,0,0,0,0,0,0,0,0,0,0,0,0,0,0,0,0,0,0,0,0,0,0,0,0,0,0,0,0,0,0,0,0,0,0,0,0,0,0,0,0,0,0,0,0,0,0,0,0,0,0,0,0,0,0,0,0,0,0,0,0,0,0,0,0,0,0,0,0,0,0,0],"id":12,"left_children":[1,3,5,7,9,11,13,15,17,19,-1,21,23,25,27,29,31,33,35,37,-1,39,41,43,45,47,49,51,53,55,57,59,61,63,65,-1,-1,67,69,71,73,75,77,79,81,83,85,87,89,-1,-1,-1,-1,91,-1,-1,-1,-1,-1,-1,-1,-1,-1,-1,-1,-1,-1,-1,-1,-1,-1,-1,-1,-1,-1,-1,-1,-1,-1,-1,-1,-1,-1,-1,-1,-1,-1,-1,-1,-1,-1,-1,-1],"loss_changes":[6.581985E1,3.7463898E1,1.6112797E1,3.509145E1,1.040715E1,1.2941173E1,1.069175E1,3.2912117E1,4.735548E0,7.7816277E0,0E0,9.950894E0,8.819212E0,3.9266129E0,7.209293E0,2.7112644E1,1.0940079E1,4.102268E0,2.1324885E0,6.0506897E0,0E0,5.792536E0,8.284607E0,6.2463913E0,6.8448925E0,3.5151443E0,2.6346145E0,3.7574706E0,3.5946813E0,2.0522694E1,1.7473795E1,9.361786E0,7.725867E0,5.1573296E0,3.213764E0,0E0,0E0,5.5078583E0,3.6934953E0,7.7299914E0,6.295682E0,7.0038996E0,4.653224E0,4.593464E0,6.485389E0,4.405322E0,3.2224364E0,2.5634613E0,3.5260103E0,0E0,0E0,0E0,0E0,1.4071779E0,0E0,0E0,0E0,0E0,0E0,0E0,0E0,0E0,0E0,0E0,0E0,0E0,0E0,0E0,0E0,0E0,0E0,0E0,0E0,0E0,0E0,0E0,0E0,0E0,0E0,0E0,0E0,0E0,0E0,0E0,0E0,0E0,0E0,0E0,0E0,0E0,0E0,0E0,0E0],"parents":[2147483647,0,0,1,1,2,2,3,3,4,4,5,5,6,6,7,7,8,8,9,9,11,11,12,12,13,13,14,14,15,15,16,16,17,17,18,18,19,19,21,21,22,22,23,23,24,24,25,25,26,26,27,27,28,28,29,29,30,30,31,31,32,32,33,33,34,34,37,37,38,38,39,39,40,40,41,41,42,42,43,43,44,44,45,45,46,46,47,47,48,48,53,53],"right_children":[2,4,6,8,10,12,14,16,18,20,-1,22,24,26,28,30,32,34,36,38,-1,40,42,44,46,48,50,52,54,56,58,60,62,64,66,-1,-1,68,70,72,74,76,78,80,82,84,86,88,90,-1,-1,-1,-1,92,-1,-1,-1,-1,-1,-1,-1,-1,-1,-1,-1,-1,-1,-1,-1,-1,-1,-1,-1,-1,-1,-1,-1,-1,-1,-1,-1,-1,-1,-1,-1,-1,-1,-1,-1,-1,-1,-1,-1],"split_conditions":[-8.9790434E-1,-9.967759E-1,-9.9355185E-1,-9.978506E-1,-9.997904E-1,4.7041932E-1,-9.881784E-1,-9.7205806E-1,-9.0721834E-1,-9.990872E-1,-1.1825257E-1,-8.761703E-1,-8.628116E-1,-9.975439E-1,-8.491621E-1,-8.428816E-1,-9.6881425E-1,-9.9731326E-1,-4.0705556E-1,-9.795809E-1,-8.7169655E-2,-7.556885E-1,-9.924772E-1,-9.597807E-1,-8.5862726E-1,-9.0972596E-1,-9.428257E-1,-9.8425096E-1,-9.838177E-1,-9.9570125E-1,-9.9215436E-1,-9.849068E-1,-8.4749824E-1,-9.79086E-1,-9.872874E-1,9.2853755E-2,-5.36832E-2,-2.380147E-1,-9.774315E-1,-9.420815E-1,-6.109432E-1,-7.932443E-1,2.4841644E-1,-9.967759E-1,2.5302595E-1,-9.656099E-1,-4.741877E-1,-9.894547E-1,-9.0673167E-1,8.6322434E-2,-6.442245E-2,-1.1172705E-1,4.0407296E-2,-9.86029E-1,-4.0155295E-2,7.818427E-3,9.058242E-2,-4.9096417E-2,6.0851395E-2,8.354399E-2,-9.036851E-2,-3.90969E-2,8.891455E-2,-1.5094787E-1,1.3765532E-2,-9.546896E-2,6.828652E-2,-7.600706E-2,1.03322916E-1,-1.2580946E-1,6.4340614E-2,6.007589E-2,-5.4185193E-2,-8.613074E-2,1.0042786E-1,-8.445638E-2,4.2500496E-2,-5.906416E-2,1.0266546E-1,-9.090009E-2,6.35755E-2,1.0789311E-1,-9.04729E-2,-1.0345193E-1,6.7574754E-2,-3.179896E-3,1.5154661E-1,-1.2740687E-1,-3.4380698E-4,9.118273E-2,-8.0928795E-2,1.545007E-1,9.990341E-3],"split_indices":[463,530,179,246,304,55,781,296,154,744,0,680,463,507,754,860,905,28,254,854,0,132,771,654,632,388,324,0,404,601,667,63,754,290,739,0,0,574,483,867,556,687,97,627,97,785,99,40,638,0,0,0,0,997,0,0,0,0,0,0,0,0,0,0,0,0,0,0,0,0,0,0,0,0,0,0,0,0,0,0,0,0,0,0,0,0,0,0,0,0,0,0,0],"split_type":[0,0,0,0,0,0,0,0,0,0,0,0,0,0,0,0,0,0,0,0,0,0,0,0,0,0,0,0,0,0,0,0,0,0,0,0,0,0,0,0,0,0,0,0,0,0,0,0,0,0,0,0,0,0,0,0,0,0,0,0,0,0,0,0,0,0,0,0,0,0,0,0,0,0,0,0,0,0,0,0,0,0,0,0,0,0,0,0,0,0,0,0,0],"sum_hessian":[8.3279376E2,6.174965E2,2.1529724E2,5.4300586E2,7.449068E1,1.5397496E2,6.1322285E1,5.182625E2,2.474334E1,7.2809685E1,1.6809919E0,8.507347E1,6.890149E1,5.040401E1,1.0918271E1,4.1108072E2,1.0718177E2,2.2669024E1,2.0743163E0,7.110629E1,1.703393E0,4.8638454E1,3.6435017E1,5.891062E1,9.990867E0,4.773006E1,2.6739528E0,6.049812E0,4.8684587E0,2.7456793E2,1.3651279E2,8.611776E1,2.1064007E1,1.980824E1,2.8607821E0,1.0565307E0,1.0177855E0,6.879892E1,2.307373E0,4.0319702E1,8.318754E0,3.0032099E1,6.4029174E0,5.4094032E1,4.816592E0,5.1087594E0,4.8821073E0,4.4903404E1,2.8266573E0,1.1459429E0,1.5280099E0,4.3251133E0,1.7246988E0,3.5661478E0,1.3023111E0,2.4131795E2,3.3249992E1,1.2097576E2,1.5537025E1,8.369217E1,2.425595E0,1.5455392E1,5.6086154E0,1.7871265E1,1.9369755E0,1.1523794E0,1.7084028E0,1.0769122E0,6.772201E1,1.3028393E0,1.0045339E0,3.4007973E1,6.311728E0,6.875231E0,1.4435239E0,2.5472132E1,4.5599685E0,1.8371704E0,4.565747E0,5.276801E1,1.326021E0,2.9250972E0,1.8914948E0,3.7100081E0,1.398751E0,1.9981657E0,2.8839414E0,4.325092E1,1.6524829E0,1.1403341E0,1.6863232E0,2.5548823E0,1.0112655E0],"tree_param":{"num_deleted":"0","num_feature":"1000","num_nodes":"93","size_leaf_vector":"1"}},{"base_weights":[2.2690436E-4,6.962611E-2,-9.0441877E-1,-8.434419E-3,7.603645E-1,-9.648565E-1,5.1227474E-1,1.1476173E-1,-4.5420772E-1,8.4566337E-1,-5.6634784E-1,-1.0355558E0,3.8607755E-1,7.1679994E-2,4.7336584E-3,-7.523554E-3,5.401198E-1,-5.4992896E-1,1.9951318E-1,9.364134E-1,-1.8375449E-1,-1.0683719E-1,5.8772046E-2,-1.0784541E0,5.194044E-2,-7.466867E-2,1.2380891E-1,-8.17792E-2,8.7638295E-1,6.884655E-1,-2.5216883E-1,-7.074121E-1,-4.5757167E-2,7.3710567E-1,-5.3286475E-1,9.9834865E-1,-5.8591384E-1,-1.0114636E0,1.13370396E-1,-1.155014E0,-5.7945944E-2,9.76012E-3,-4.625957E-2,1.02288604E-1,-3.2462846E-2,7.3823705E-2,-1.12430826E-1,-5.0514925E-2,1.0319628E-1,-8.310201E-2,-6.317833E-3,6.718152E-2,-3.214664E-2,1.4291295E-1,-7.370405E-5,-8.870215E-2,5.9292056E-2,1.0505869E-1,-4.6621133E-2,3.1396247E-2,-1.1251123E-1,-1.4031325E-1,9.55528E-3,-1.2236331E-1,-1.6723162E-2,-6.6478774E-2,1.04931496E-1],"categories":[],"categories_nodes":[],"categories_segments":[],"categories_sizes":[],"default_left":[0,0,0,0,0,0,0,0,0,0,0,0,0,0,0,0,0,0,0,0,0,0,0,0,0,0,0,0,0,0,0,0,0,0,0,0,0,0,0,0,0,0,0,0,0,0,0,0,0,0,0,0,0,0,0,0,0,0,0,0,0,0,0,0,0,0,0],"id":13,"left_children":[1,3,5,7,9,11,13,15,17,19,21,23,25,-1,-1,27,29,31,33,35,37,-1,-1,39,-1,-1,-1,41,43,45,47,49,51,53,55,57,59,61,-1,63,65,-1,-1,-1,-1,-1,-1,-1,-1,-1,-1,-1,-1,-1,-1,-1,-1,-1,-1,-1,-1,-1,-1,-1,-1,-1,-1],"loss_changes":[5.1628643E1,4.1187756E1,5.5109596E0,3.779135E1,9.256134E0,5.8000336E0,2.5614542E-1,2.8050602E1,9.433218E0,7.017433E0,3.689437E0,4.162262E0,4.341273E0,0E0,0E0,2.7624395E1,1.4326153E1,1.0307953E1,8.17436E0,6.94952E0,8.53175E0,0E0,0E0,4.064266E0,0E0,0E0,0E0,2.6561354E1,6.0712547E0,1.0005085E1,6.928233E0,7.844372E0,6.5600357E0,6.035069E0,4.093071E0,5.480583E0,1.9394655E0,2.1666002E0,0E0,3.1256409E0,3.8844185E0,0E0,0E0,0E0,0E0,0E0,0E0,0E0,0E0,0E0,0E0,0E0,0E0,0E0,0E0,0E0,0E0,0E0,0E0,0E0,0E0,0E0,0E0,0E0,0E0,0E0,0E0],"parents":[2147483647,0,0,1,1,2,2,3,3,4,4,5,5,6,6,7,7,8,8,9,9,10,10,11,11,12,12,15,15,16,16,17,17,18,18,19,19,20,20,23,23,27,27,28,28,29,29,30,30,31,31,32,32,33,33,34,34,35,35,36,36,37,37,39,39,40,40],"right_children":[2,4,6,8,10,12,14,16,18,20,22,24,26,-1,-1,28,30,32,34,36,38,-1,-1,40,-1,-1,-1,42,44,46,48,50,52,54,56,58,60,62,-1,64,66,-1,-1,-1,-1,-1,-1,-1,-1,-1,-1,-1,-1,-1,-1,-1,-1,-1,-1,-1,-1,-1,-1,-1,-1,-1,-1],"split_conditions":[-9.786931E-1,-9.9570125E-1,-9.9647176E-1,-9.301451E-1,-9.978506E-1,-9.989253E-1,-9.602542E-1,-9.709833E-1,-9.946265E-1,-9.985671E-1,-9.535947E-1,-9.9193984E-1,-7.5964594E-1,7.1679994E-2,4.7336584E-3,-9.989253E-1,-9.903278E-1,-8.721118E-1,-1.8621726E-1,-9.86029E-1,-8.0014604E-1,-1.0683719E-1,5.8772046E-2,-9.9695694E-1,5.194044E-2,-7.466867E-2,1.2380891E-1,-8.428816E-1,-9.992355E-1,-2.928533E-1,-9.989253E-1,-9.967759E-1,6.15582E-1,-9.348949E-1,-9.0299916E-1,-9.8065555E-1,-8.028829E-1,-9.754235E-1,1.13370396E-1,-9.828143E-1,-8.491103E-1,9.76012E-3,-4.625957E-2,1.02288604E-1,-3.2462846E-2,7.3823705E-2,-1.12430826E-1,-5.0514925E-2,1.0319628E-1,-8.310201E-2,-6.317833E-3,6.718152E-2,-3.214664E-2,1.4291295E-1,-7.370405E-5,-8.870215E-2,5.9292056E-2,1.0505869E-1,-4.6621133E-2,3.1396247E-2,-1.1251123E-1,-1.4031325E-1,9.55528E-3,-1.2236331E-1,-1.6723162E-2,-6.6478774E-2,1.04931496E-1],"split_indices":[623,667,865,957,149,886,541,296,413,830,240,761,23,0,0,489,487,463,784,311,769,0,0,981,0,0,0,860,893,205,316,930,210,622,807,436,665,422,0,436,258,0,0,0,0,0,0,0,0,0,0,0,0,0,0,0,0,0,0,0,0,0,0,0,0,0,0],"split_type":[0,0,0,0,0,0,0,0,0,0,0,0,0,0,0,0,0,0,0,0,0,0,0,0,0,0,0,0,0,0,0,0,0,0,0,0,0,0,0,0,0,0,0,0,0,0,0,0,0,0,0,0,0,0,0,0,0,0,0,0,0,0,0,0,0,0,0],"sum_hessian":[8.203488E2,7.627575E2,5.7591324E1,6.861979E2,7.6559616E1,5.554083E1,2.0504956E0,5.382006E2,1.4799727E2,7.2275375E1,4.284244E0,5.3000565E1,2.5402634E0,1.047842E0,1.0026536E0,4.187868E2,1.194138E2,1.2923306E2,1.8764214E1,6.650304E1,5.77234E0,3.0372741E0,1.2469699E0,5.187586E1,1.1247098E0,1.1435341E0,1.3967295E0,3.871688E2,3.1617985E1,1.0069166E2,1.8722145E1,9.81666E1,3.1066452E1,1.0817392E1,7.946821E0,6.42339E1,2.269134E0,3.6877365E0,2.0846033E0,4.813305E1,3.7428095E0,2.6369922E2,1.2346959E2,2.8312635E1,3.3053498E0,9.857786E1,2.1137974E0,1.6147608E1,2.574538E0,8.2120384E1,1.604622E1,8.224457E0,2.2841995E1,5.098551E0,5.7188416E0,6.2064447E0,1.7403768E0,6.229462E1,1.9392781E0,1.0067229E0,1.2624111E0,2.5263937E0,1.1613427E0,4.4783287E1,3.34976E0,2.675884E0,1.0669255E0],"tree_param":{"num_deleted":"0","num_feature":"1000","num_nodes":"67","size_leaf_vector":"1"}},{"base_weights":[-3.9833067E-3,6.192169E-2,-8.67125E-1,-2.6693827E-2,6.1919075E-1,-9.7669524E-1,2.894054E-1,9.117239E-2,-5.34193E-1,6.8310076E-1,-6.140266E-1,-1.0620497E0,8.803763E-2,1.2243712E-1,-4.0477526E-1,1.9957758E-1,-2.9739952E-1,-3.9990258E-1,-1.3156966E0,7.4237335E-1,-7.530005E-1,4.4191726E-2,-1.1041957E0,-1.1071703E0,3.384549E-2,9.4328746E-2,-6.9460206E-2,-9.054371E-2,2.988076E-2,3.7121123E-1,-6.437694E-2,-4.3973228E-1,4.0447402E-1,-4.9187824E-1,7.0071155E-1,-1.4792081E0,5.8847487E-2,7.966844E-1,-7.4447805E-1,-1.5064281E-1,7.60492E-2,-1.30925765E-2,-1.4970018E-1,-1.1448878E0,-1.1355515E-2,4.970654E-2,-6.468876E-3,1.3006043E-3,-1.3147631E-1,-1.5169266E-2,-8.9224815E-2,7.299354E-2,-8.164943E-2,-5.990984E-2,4.648697E-2,1.24236874E-1,-4.983725E-2,-1.5959954E-1,-1.46850245E-2,8.337817E-2,-1.0236043E-1,-1.2160764E-1,2.7507154E-2,-1.20571755E-1,-4.2380434E-2],"categories":[],"categories_nodes":[],"categories_segments":[],"categories_sizes":[],"default_left":[0,0,0,0,0,0,0,0,0,0,0,0,0,0,0,0,0,0,0,0,0,0,0,0,0,0,0,0,0,0,0,0,0,0,0,0,0,0,0,0,0,0,0,0,0,0,0,0,0,0,0,0,0,0,0,0,0,0,0,0,0,0,0,0,0],"id":14,"left_children":[1,3,5,7,9,11,13,15,17,19,21,23,25,-1,27,29,31,33,35,37,39,-1,41,43,-1,-1,-1,-1,-1,45,47,49,51,53,55,57,-1,59,61,-1,-1,-1,-1,63,-1,-1,-1,-1,-1,-1,-1,-1,-1,-1,-1,-1,-1,-1,-1,-1,-1,-1,-1,-1,-1],"loss_changes":[4.6401928E1,3.7443718E1,7.6153603E0,3.9221397E1,8.618206E0,4.9179115E0,4.2464514E0,2.2481604E1,1.2442734E1,9.017822E0,3.4133904E0,3.4851685E0,3.9104292E0,0E0,1.7035959E0,1.8905912E1,1.1817371E1,1.1165106E1,6.3764553E0,8.340363E0,6.2032824E0,0E0,1.3890305E0,1.6658783E0,0E0,0E0,0E0,0E0,0E0,1.3895824E1,1.59898815E1,1.2553143E1,8.609018E0,1.0458174E1,6.241222E0,2.3439903E0,0E0,7.1362724E0,2.208654E0,0E0,0E0,0E0,0E0,1.5092468E0,0E0,0E0,0E0,0E0,0E0,0E0,0E0,0E0,0E0,0E0,0E0,0E0,0E0,0E0,0E0,0E0,0E0,0E0,0E0,0E0,0E0],"parents":[2147483647,0,0,1,1,2,2,3,3,4,4,5,5,6,6,7,7,8,8,9,9,10,10,11,11,12,12,14,14,15,15,16,16,17,17,18,18,19,19,20,20,22,22,23,23,29,29,30,30,31,31,32,32,33,33,34,34,35,35,37,37,38,38,43,43],"right_children":[2,4,6,8,10,12,14,16,18,20,22,24,26,-1,28,30,32,34,36,38,40,-1,42,44,-1,-1,-1,-1,-1,46,48,50,52,54,56,58,-1,60,62,-1,-1,-1,-1,64,-1,-1,-1,-1,-1,-1,-1,-1,-1,-1,-1,-1,-1,-1,-1,-1,-1,-1,-1,-1,-1],"split_conditions":[-9.795216E-1,-9.946265E-1,-9.978506E-1,-9.849543E-1,-9.941753E-1,-9.688846E-1,-9.150772E-1,-9.7154564E-1,-9.1104925E-1,-9.9176073E-1,-9.117396E-1,-9.978506E-1,-2.8242075E-1,1.2243712E-1,-9.4621235E-1,4.7197077E-1,-9.8065555E-1,-9.6874934E-1,-9.2154753E-1,-9.9494195E-1,-9.9355185E-1,4.4191726E-2,-2.264918E-1,-9.989253E-1,3.384549E-2,9.4328746E-2,-6.9460206E-2,-9.054371E-2,2.988076E-2,-9.666846E-1,-6.797421E-1,-9.763568E-1,-8.786787E-1,-9.989253E-1,-9.512972E-1,-9.4236434E-1,5.8847487E-2,-9.989253E-1,-9.774315E-1,-1.5064281E-1,7.60492E-2,-1.30925765E-2,-1.4970018E-1,-8.7716776E-1,-1.1355515E-2,4.970654E-2,-6.468876E-3,1.3006043E-3,-1.3147631E-1,-1.5169266E-2,-8.9224815E-2,7.299354E-2,-8.164943E-2,-5.990984E-2,4.648697E-2,1.24236874E-1,-4.983725E-2,-1.5959954E-1,-1.46850245E-2,8.337817E-2,-1.0236043E-1,-1.2160764E-1,2.7507154E-2,-1.20571755E-1,-4.2380434E-2],"split_indices":[623,27,539,179,247,983,44,628,312,989,909,774,62,0,778,55,916,720,310,987,726,0,574,991,0,0,0,0,0,831,801,612,463,36,434,731,0,418,152,0,0,0,0,683,0,0,0,0,0,0,0,0,0,0,0,0,0,0,0,0,0,0,0,0,0],"split_type":[0,0,0,0,0,0,0,0,0,0,0,0,0,0,0,0,0,0,0,0,0,0,0,0,0,0,0,0,0,0,0,0,0,0,0,0,0,0,0,0,0,0,0,0,0,0,0,0,0,0,0,0,0,0,0,0,0,0,0,0,0,0,0,0,0],"sum_hessian":[8.137658E2,7.5690106E2,5.6864758E1,6.538755E2,1.0302553E2,5.2085632E1,4.7791257E0,5.313016E2,1.2257396E2,9.837352E1,4.652006E0,4.8222393E1,3.8632376E0,1.7109487E0,3.068177E0,4.157895E2,1.1551207E2,1.0588997E2,1.6683989E1,9.493818E1,3.4353454E0,1.5060487E0,3.1459575E0,4.6920197E1,1.3021975E0,1.747905E0,2.1153326E0,1.6249709E0,1.4432061E0,2.5171083E2,1.6407866E2,9.6347305E1,1.916476E1,9.823389E1,7.656081E0,1.5570151E1,1.1138364E0,9.2040344E1,2.897829E0,2.2966993E0,1.138646E0,1.2879834E0,1.8579739E0,4.5057575E1,1.8626201E0,1.952092E2,5.650163E1,1.55448E2,8.630653E0,5.9688835E1,3.665847E1,1.5448875E1,3.7158854E0,8.867063E1,9.563258E0,5.248914E0,2.4071674E0,1.4133418E1,1.4367332E0,9.073316E1,1.3071823E0,1.8495507E0,1.0482783E0,4.0932472E1,4.1251044E0],"tree_param":{"num_deleted":"0","num_feature":"1000","num_nodes":"65","size_leaf_vector":"1"}},{"base_weights":[7.773544E-3,1.4671598E-1,-4.431957E-1,6.263048E-2,7.381566E-1,-4.9266353E-1,8.2674855E-1,1.1132395E-1,-8.980956E-1,7.9381824E-1,-8.4823155E-1,-5.702657E-1,2.612911E-1,1.1089959E0,-2.9382868E-2,-1.6242944E-1,2.8381535E-1,-1.0232031E0,6.2859684E-2,8.61123E-1,-4.919007E-1,-1.14954464E-1,-1.1500904E-2,-3.7323374E-1,-8.666965E-1,6.099063E-1,-3.5701713E-1,1.2071637E-1,3.0678848E-2,2.621677E-1,-4.0255338E-1,3.9406878E-1,-3.908562E-1,-1.1256416E0,6.49931E-2,9.1503644E-1,-8.3382584E-2,6.947064E-2,-1.19516484E-1,-4.9789873E-1,4.7117934E-1,-9.2384803E-1,6.6684864E-2,8.9057714E-1,-8.384276E-2,-9.1712035E-2,5.3152233E-1,4.15626E-2,-1.277748E-1,-5.5017468E-2,3.250787E-2,-9.838954E-2,4.328862E-2,-6.905597E-2,6.904026E-2,-1.21689275E-1,2.9475799E-2,9.686847E-2,-5.449837E-2,-5.5500355E-2,1.01628914E-1,1.354924E-1,-3.4158573E-2,-1.01528965E-1,6.7113074E-3,1.0820639E-1,-2.7018756E-2,8.706255E-2,-1.2798744E-2],"categories":[],"categories_nodes":[],"categories_segments":[],"categories_sizes":[],"default_left":[0,0,0,0,0,0,0,0,0,0,0,0,0,0,0,0,0,0,0,0,0,0,0,0,0,0,0,0,0,0,0,0,0,0,0,0,0,0,0,0,0,0,0,0,0,0,0,0,0,0,0,0,0,0,0,0,0,0,0,0,0,0,0,0,0,0,0,0,0],"id":15,"left_children":[1,3,5,7,9,11,13,15,17,19,21,23,25,27,-1,29,31,33,-1,35,37,-1,-1,39,41,43,45,-1,-1,47,49,51,53,55,-1,57,-1,-1,-1,59,61,63,-1,65,-1,-1,67,-1,-1,-1,-1,-1,-1,-1,-1,-1,-1,-1,-1,-1,-1,-1,-1,-1,-1,-1,-1,-1,-1],"loss_changes":[5.014025E1,3.0374321E1,1.224781E1,2.5204926E1,7.388401E0,1.0799835E1,2.678947E0,2.4206253E1,5.6087513E0,6.825981E0,5.441148E-1,9.334873E0,4.027394E0,1.1416721E-1,0E0,2.0334515E1,2.3528759E1,4.9151535E0,0E0,7.220787E0,4.4326587E0,0E0,0E0,1.0876603E1,6.3367386E0,5.491003E0,3.9726515E0,0E0,0E0,1.7611492E1,1.3834402E1,1.4900002E1,1.4943127E1,3.3873558E0,0E0,5.9299774E0,0E0,0E0,0E0,8.222887E0,1.0173038E1,5.8081894E0,0E0,2.573162E0,0E0,0E0,8.5855114E-1,0E0,0E0,0E0,0E0,0E0,0E0,0E0,0E0,0E0,0E0,0E0,0E0,0E0,0E0,0E0,0E0,0E0,0E0,0E0,0E0,0E0,0E0],"parents":[2147483647,0,0,1,1,2,2,3,3,4,4,5,5,6,6,7,7,8,8,9,9,10,10,11,11,12,12,13,13,15,15,16,16,17,17,19,19,20,20,23,23,24,24,25,25,26,26,29,29,30,30,31,31,32,32,33,33,35,35,39,39,40,40,41,41,43,43,46,46],"right_children":[2,4,6,8,10,12,14,16,18,20,22,24,26,28,-1,30,32,34,-1,36,38,-1,-1,40,42,44,46,-1,-1,48,50,52,54,56,-1,58,-1,-1,-1,60,62,64,-1,66,-1,-1,68,-1,-1,-1,-1,-1,-1,-1,-1,-1,-1,-1,-1,-1,-1,-1,-1,-1,-1,-1,-1,-1,-1],"split_conditions":[-9.505642E-1,-9.978506E-1,-9.965678E-1,-9.786931E-1,-9.989253E-1,-9.978506E-1,-9.7654575E-1,-3.8335496E-1,-9.989253E-1,-9.054272E-1,-6.0278165E-1,-9.664446E-1,-9.86029E-1,-9.1028196E-1,-2.9382868E-2,1.0463662E-1,-9.758884E-1,-9.9670017E-1,6.2859684E-2,-9.967759E-1,-2.2104113E-1,-1.14954464E-1,-1.1500904E-2,-9.1649765E-1,-8.5814077E-1,-9.978506E-1,-9.638002E-1,1.2071637E-1,3.0678848E-2,-1.5373005E-1,-8.887901E-1,1.5248775E-1,-9.9140245E-1,-9.989253E-1,6.49931E-2,-9.996326E-1,-8.3382584E-2,6.947064E-2,-1.19516484E-1,-9.874803E-1,-9.6527326E-1,-9.978506E-1,6.6684864E-2,-9.989253E-1,-8.384276E-2,-9.1712035E-2,-9.666846E-1,4.15626E-2,-1.277748E-1,-5.5017468E-2,3.250787E-2,-9.838954E-2,4.328862E-2,-6.905597E-2,6.904026E-2,-1.21689275E-1,2.9475799E-2,9.686847E-2,-5.449837E-2,-5.5500355E-2,1.01628914E-1,1.354924E-1,-3.4158573E-2,-1.01528965E-1,6.7113074E-3,1.0820639E-1,-2.7018756E-2,8.706255E-2,-1.2798744E-2],"split_indices":[957,539,598,623,544,265,678,736,886,206,282,501,633,165,0,669,856,91,0,186,629,0,0,567,683,603,730,0,0,708,129,173,513,655,0,7,0,0,0,498,467,547,0,881,0,0,383,0,0,0,0,0,0,0,0,0,0,0,0,0,0,0,0,0,0,0,0,0,0],"split_type":[0,0,0,0,0,0,0,0,0,0,0,0,0,0,0,0,0,0,0,0,0,0,0,0,0,0,0,0,0,0,0,0,0,0,0,0,0,0,0,0,0,0,0,0,0,0,0,0,0,0,0,0,0,0,0,0,0,0,0,0,0,0,0,0,0,0,0,0,0],"sum_hessian":[7.981736E2,6.1069476E2,1.8747879E2,5.3564734E2,7.504744E1,1.8103888E2,6.439905E0,5.106497E2,2.4997658E1,7.298618E1,2.0612612E0,1.6436494E2,1.6673937E1,5.1524563E0,1.2874489E0,1.9740903E2,3.1324066E2,2.3409145E1,1.5885129E0,6.966937E1,3.3168104E0,1.0584857E0,1.0027755E0,1.0009366E2,6.427129E1,1.0670994E1,6.0029435E0,4.140921E0,1.0115354E0,7.12789E1,1.2613012E2,2.6959924E2,4.3641422E1,2.2366943E1,1.0422018E0,6.7967575E1,1.701792E0,1.238789E0,2.0780215E0,8.757489E1,1.25187645E1,6.23454E1,1.92589E0,9.261351E0,1.4096432E0,3.6622357E0,2.3407075E0,6.5483345E1,5.7955575E0,1.0505961E2,2.1070507E1,6.719502E0,2.6287973E2,3.445306E1,9.188364E0,2.1151382E1,1.2155607E0,6.588323E1,2.084345E0,8.500264E1,2.5722542E0,5.677925E0,6.840839E0,5.7055973E1,5.2894287E0,8.008088E0,1.2532622E0,1.3344548E0,1.0062528E0],"tree_param":{"num_deleted":"0","num_feature":"1000","num_nodes":"69","size_leaf_vector":"1"}},{"base_weights":[-1.4679587E-2,1.1320366E-1,-4.2092794E-1,-9.225913E-2,3.5967937E-1,-4.9387312E-1,4.5215765E-1,1.4083685E-1,-4.8468122E-1,4.374719E-1,-6.487851E-1,-5.730377E-1,2.586654E-1,7.865622E-1,-5.531921E-1,7.1257554E-2,9.194978E-1,-6.3408303E-1,7.6370025E-1,5.0687224E-1,-4.275176E-1,-1.2003762E0,1.1885114E-1,-1.0262416E-1,-7.1508116E-1,5.399401E-1,-8.5048616E-2,1.0678424E0,-3.4492633E-1,-1.03287034E-1,5.1681306E-2,-8.549792E-3,7.864E-1,1.1467712E0,-7.953639E-2,-9.2374545E-1,-7.692947E-2,1.0503919E0,-8.351719E-2,3.20561E-1,7.921627E-1,-9.1670346E-1,5.956065E-1,-1.4417909E0,-1.9531332E-4,-8.1192493E-1,6.520463E-1,3.26523E-1,-6.251312E-1,-7.602748E-1,9.21149E-1,1.0611995E0,-1.6311178E-1,1.3737907E0,-4.7138784E-2,-7.01242E-2,1.9417834E-2,8.478428E-3,-8.547841E-2,9.453214E-2,-9.1809474E-2,1.3461627E-1,-2.2731347E-3,1.6709534E-2,-1.0852837E-1,5.6537736E-2,-4.977713E-2,1.238419E-1,-2.4181059E-2,4.536126E-2,-2.0886268E-2,8.4807724E-2,-6.745102E-2,6.915202E-2,-1.1426653E-1,-7.817845E-2,1.05127744E-1,-1.6621634E-1,-5.2900254E-3,4.3748543E-3,-1.17740564E-1,1.07013166E-1,-4.0082432E-2,6.711217E-2,-7.648417E-2,6.430637E-2,-9.584903E-2,-7.8836165E-2,7.506123E-2,-1.1817778E-2,1.4585504E-1,1.3167606E-1,-2.0161858E-2,-6.2404532E-2,8.326019E-2,1.5630256E-1,1.972233E-2],"categories":[],"categories_nodes":[],"categories_segments":[],"categories_sizes":[],"default_left":[0,0,0,0,0,0,0,0,0,0,0,0,0,0,0,0,0,0,0,0,0,0,0,0,0,0,0,0,0,0,0,0,0,0,0,0,0,0,0,0,0,0,0,0,0,0,0,0,0,0,0,0,0,0,0,0,0,0,0,0,0,0,0,0,0,0,0,0,0,0,0,0,0,0,0,0,0,0,0,0,0,0,0,0,0,0,0,0,0,0,0,0,0,0,0,0,0],"id":16,"left_children":[1,3,5,7,9,11,13,15,17,19,21,23,25,27,29,31,33,35,37,39,41,43,45,47,49,51,-1,53,55,-1,-1,57,59,61,-1,63,65,67,-1,69,71,73,75,77,-1,79,81,83,85,87,89,91,93,95,-1,-1,-1,-1,-1,-1,-1,-1,-1,-1,-1,-1,-1,-1,-1,-1,-1,-1,-1,-1,-1,-1,-1,-1,-1,-1,-1,-1,-1,-1,-1,-1,-1,-1,-1,-1,-1,-1,-1,-1,-1,-1,-1],"loss_changes":[4.0794533E1,3.0282326E1,1.2196159E1,2.993917E1,2.1603695E1,1.0512772E1,5.4839506E0,1.107593E1,2.3222713E1,1.5398151E1,8.553892E0,1.0465855E1,5.8404036E0,4.0863385E0,2.75904E0,1.0842624E1,7.453701E0,1.7589573E1,7.0583386E0,1.2214096E1,1.0218554E1,3.3674812E0,5.1030593E0,8.668539E0,9.64642E0,5.4397006E0,0E0,5.168641E0,7.2814244E-1,0E0,0E0,1.3640645E1,6.033906E0,3.582018E0,0E0,1.2852417E1,1.0694508E1,3.1852503E0,0E0,1.020862E1,8.115932E0,5.6845484E0,5.125884E0,2.8793278E0,0E0,1.24048E0,3.252259E0,8.554972E0,7.9579716E0,5.6108932E0,2.241112E0,2.9717817E0,3.7255697E0,1.5316954E0,0E0,0E0,0E0,0E0,0E0,0E0,0E0,0E0,0E0,0E0,0E0,0E0,0E0,0E0,0E0,0E0,0E0,0E0,0E0,0E0,0E0,0E0,0E0,0E0,0E0,0E0,0E0,0E0,0E0,0E0,0E0,0E0,0E0,0E0,0E0,0E0,0E0,0E0,0E0,0E0,0E0,0E0,0E0],"parents":[2147483647,0,0,1,1,2,2,3,3,4,4,5,5,6,6,7,7,8,8,9,9,10,10,11,11,12,12,13,13,14,14,15,15,16,16,17,17,18,18,19,19,20,20,21,21,22,22,23,23,24,24,25,25,27,27,28,28,31,31,32,32,33,33,35,35,36,36,37,37,39,39,40,40,41,41,42,42,43,43,45,45,46,46,47,47,48,48,49,49,50,50,51,51,52,52,53,53],"right_children":[2,4,6,8,10,12,14,16,18,20,22,24,26,28,30,32,34,36,38,40,42,44,46,48,50,52,-1,54,56,-1,-1,58,60,62,-1,64,66,68,-1,70,72,74,76,78,-1,80,82,84,86,88,90,92,94,96,-1,-1,-1,-1,-1,-1,-1,-1,-1,-1,-1,-1,-1,-1,-1,-1,-1,-1,-1,-1,-1,-1,-1,-1,-1,-1,-1,-1,-1,-1,-1,-1,-1,-1,-1,-1,-1,-1,-1,-1,-1,-1,-1],"split_conditions":[-8.3171076E-1,-9.451908E-1,-9.946265E-1,-8.990001E-1,-9.9643636E-1,-9.967759E-1,-7.720183E-1,-9.8460525E-1,-9.978506E-1,-9.966795E-1,-9.903278E-1,3.925483E-1,-9.953721E-1,-9.478448E-1,-9.7197634E-1,-9.8671144E-1,-8.347743E-1,-8.484744E-1,-9.967759E-1,-9.43294E-1,-9.989253E-1,-9.967759E-1,-8.73297E-1,-8.7668663E-1,-9.4734013E-1,-9.763568E-1,-8.5048616E-2,-8.1232923E-1,-9.3839765E-1,-1.03287034E-1,5.1681306E-2,-9.7091115E-1,-9.886818E-1,-9.7473514E-1,-7.953639E-2,-8.192084E-1,-8.6136484E-1,-9.717001E-1,-8.351719E-2,-9.805485E-1,-9.9550754E-1,-8.4869856E-1,-7.548314E-1,-9.692933E-1,-1.9531332E-4,-7.1843094E-1,-9.6993583E-1,-9.438264E-1,-5.6764555E-1,-9.989253E-1,-9.2243093E-1,-9.9355185E-1,-9.561201E-1,-8.2374084E-1,-4.7138784E-2,-7.01242E-2,1.9417834E-2,8.478428E-3,-8.547841E-2,9.453214E-2,-9.1809474E-2,1.3461627E-1,-2.2731347E-3,1.6709534E-2,-1.0852837E-1,5.6537736E-2,-4.977713E-2,1.238419E-1,-2.4181059E-2,4.536126E-2,-2.0886268E-2,8.4807724E-2,-6.745102E-2,6.915202E-2,-1.1426653E-1,-7.817845E-2,1.05127744E-1,-1.6621634E-1,-5.2900254E-3,4.3748543E-3,-1.17740564E-1,1.07013166E-1,-4.0082432E-2,6.711217E-2,-7.648417E-2,6.430637E-2,-9.584903E-2,-7.8836165E-2,7.506123E-2,-1.1817778E-2,1.4585504E-1,1.3167606E-1,-2.0161858E-2,-6.2404532E-2,8.326019E-2,1.5630256E-1,1.972233E-2],"split_indices":[139,250,462,689,199,530,815,679,448,71,834,676,672,731,892,122,860,277,326,867,124,96,873,680,595,214,0,775,250,0,0,214,601,395,0,639,275,577,0,373,987,12,804,685,0,327,892,138,759,361,328,92,148,837,0,0,0,0,0,0,0,0,0,0,0,0,0,0,0,0,0,0,0,0,0,0,0,0,0,0,0,0,0,0,0,0,0,0,0,0,0,0,0,0,0,0,0],"split_type":[0,0,0,0,0,0,0,0,0,0,0,0,0,0,0,0,0,0,0,0,0,0,0,0,0,0,0,0,0,0,0,0,0,0,0,0,0,0,0,0,0,0,0,0,0,0,0,0,0,0,0,0,0,0,0,0,0,0,0,0,0,0,0,0,0,0,0,0,0,0,0,0,0,0,0,0,0,0,0,0,0,0,0,0,0,0,0,0,0,0,0,0,0,0,0,0,0],"sum_hessian":[7.833124E2,5.9631824E2,1.8699414E2,3.2555792E2,2.7076028E2,1.7297652E2,1.401763E1,2.046427E2,1.2091524E2,2.5189537E2,1.8864908E1,1.567278E2,1.624872E1,1.0682114E1,3.3355162E0,1.8885828E2,1.5784418E1,1.0843071E2,1.2484522E1,2.3356949E2,1.8325872E1,1.0649149E1,8.215759E0,3.674842E1,1.1997938E2,1.3371083E1,2.8776374E0,8.600371E0,2.0817423E0,2.3270266E0,1.0084897E0,1.707871E2,1.8071184E1,1.42297945E1,1.5546234E0,7.090792E1,3.7522793E1,1.087719E1,1.607333E0,1.4258005E2,9.098944E1,1.2468385E1,5.857488E0,8.694602E0,1.9545472E0,2.8018813E0,5.4138784E0,2.038271E1,1.636571E1,1.17275505E2,2.7038705E0,7.385718E0,5.985365E0,7.2640076E0,1.3363638E0,1.072278E0,1.0094643E0,1.5463202E2,1.6155085E1,1.6937395E1,1.1337903E0,1.2028047E1,2.201748E0,9.141624E0,6.17663E1,1.471725E1,2.2805542E1,9.531843E0,1.3453466E0,1.1405869E2,2.8521362E1,8.805428E1,2.935158E0,1.2822151E0,1.118617E1,1.2781745E0,4.5793138E0,7.3341513E0,1.3604507E0,1.1020439E0,1.6998374E0,3.8633735E0,1.5505049E0,1.57839775E1,4.5987325E0,3.2131004E0,1.3152609E1,1.15604675E2,1.6708337E0,1.1874509E0,1.5164196E0,6.1070886E0,1.2786294E0,4.346542E0,1.6388232E0,5.9746103E0,1.2893968E0],"tree_param":{"num_deleted":"0","num_feature":"1000","num_nodes":"97","size_leaf_vector":"1"}},{"base_weights":[-1.6343249E-2,-6.780679E-2,8.6773914E-1,4.1381072E-2,-5.0562674E-1,9.9315435E-1,-6.347222E-1,1.687432E-1,-3.0630848E-1,-6.234706E-1,7.0065826E-1,1.1130301E0,-4.8614445E-1,-1.4290929E-1,6.9205195E-2,1.1643904E-1,1.0562814E0,-1.700134E-1,-8.250443E-1,-7.3306006E-1,7.372006E-2,9.297382E-1,-3.5740414E-1,1.1884621E0,-6.4300686E-2,-1.2189199E-1,6.3501246E-2,4.7175735E-1,6.2244376E-3,1.2004763E0,-3.4955136E-2,-3.016447E-1,4.4334096E-1,-9.1692513E-1,9.223078E-2,-9.3954474E-1,-3.4978303E-1,7.386903E-1,-5.38572E-1,1.084219E0,-2.0710299E-2,1.8719567E-2,-7.0822276E-2,1.2393082E0,-2.7840456E-2,-3.1602096E-2,6.584377E-2,-3.6454428E-2,1.50285605E-2,1.287425E-1,-7.5902767E-3,-1.960565E-2,-1.0938846E-1,5.7530493E-2,-9.8172136E-2,-1.03546776E-1,2.813187E-2,-1.15545295E-1,-2.3306644E-2,-5.2019585E-2,5.9995987E-2,9.9954545E-2,-5.4224204E-2,-9.77675E-2,4.8290346E-2,1.16646886E-1,1.8390164E-2,1.281533E-1,2.2341855E-2],"categories":[],"categories_nodes":[],"categories_segments":[],"categories_sizes":[],"default_left":[0,0,0,0,0,0,0,0,0,0,0,0,0,0,0,0,0,0,0,0,0,0,0,0,0,0,0,0,0,0,0,0,0,0,0,0,0,0,0,0,0,0,0,0,0,0,0,0,0,0,0,0,0,0,0,0,0,0,0,0,0,0,0,0,0,0,0,0,0],"id":17,"left_children":[1,3,5,7,9,11,13,15,17,19,21,23,25,-1,-1,27,29,31,33,35,37,39,41,43,-1,-1,-1,45,47,49,-1,51,53,55,-1,57,59,61,63,65,-1,-1,-1,67,-1,-1,-1,-1,-1,-1,-1,-1,-1,-1,-1,-1,-1,-1,-1,-1,-1,-1,-1,-1,-1,-1,-1,-1,-1],"loss_changes":[3.512583E1,3.488325E1,8.633064E0,2.5940233E1,2.114064E1,7.561306E0,5.0805225E0,1.9770164E1,1.0966421E1,1.023201E1,3.5881438E0,5.6552467E0,3.7838457E0,0E0,0E0,1.5888887E1,5.228943E0,1.0279579E1,6.051876E0,8.789009E0,8.135212E0,2.2125196E0,7.2733974E-1,3.0117722E0,0E0,0E0,0E0,1.4335009E1,1.6652672E1,2.5107574E0,0E0,8.490045E0,4.8165264E0,4.738529E0,0E0,1.10607605E1,7.0982614E0,3.7268343E0,5.1691375E0,5.353222E-1,0E0,0E0,0E0,1.2038879E0,0E0,0E0,0E0,0E0,0E0,0E0,0E0,0E0,0E0,0E0,0E0,0E0,0E0,0E0,0E0,0E0,0E0,0E0,0E0,0E0,0E0,0E0,0E0,0E0,0E0],"parents":[2147483647,0,0,1,1,2,2,3,3,4,4,5,5,6,6,7,7,8,8,9,9,10,10,11,11,12,12,15,15,16,16,17,17,18,18,19,19,20,20,21,21,22,22,23,23,27,27,28,28,29,29,31,31,32,32,33,33,35,35,36,36,37,37,38,38,39,39,43,43],"right_children":[2,4,6,8,10,12,14,16,18,20,22,24,26,-1,-1,28,30,32,34,36,38,40,42,44,-1,-1,-1,46,48,50,-1,52,54,56,-1,58,60,62,64,66,-1,-1,-1,68,-1,-1,-1,-1,-1,-1,-1,-1,-1,-1,-1,-1,-1,-1,-1,-1,-1,-1,-1,-1,-1,-1,-1,-1,-1],"split_conditions":[-9.989253E-1,-9.874166E-1,-9.978575E-1,-9.817303E-1,-9.967759E-1,-9.6875465E-1,-9.8280495E-1,-9.989253E-1,-9.9140245E-1,-9.946265E-1,-9.521894E-1,-8.37267E-1,-8.994706E-1,-1.4290929E-1,6.9205195E-2,1.0235706E-1,-9.2664057E-1,-9.946265E-1,-9.9677193E-1,-9.1632074E-1,-9.763568E-1,-9.456516E-1,-9.189887E-1,-9.5320654E-1,-6.4300686E-2,-1.2189199E-1,6.3501246E-2,-3.9279956E-1,-3.8505557E-1,-9.978506E-1,-3.4955136E-2,-9.868084E-1,-9.8688877E-1,-9.8472023E-1,9.223078E-2,-7.025571E-1,-1.2839617E-1,-9.9074966E-1,-9.9140245E-1,-8.387037E-1,-2.0710299E-2,1.8719567E-2,-7.0822276E-2,-9.892429E-1,-2.7840456E-2,-3.1602096E-2,6.584377E-2,-3.6454428E-2,1.50285605E-2,1.287425E-1,-7.5902767E-3,-1.960565E-2,-1.0938846E-1,5.7530493E-2,-9.8172136E-2,-1.03546776E-1,2.813187E-2,-1.15545295E-1,-2.3306644E-2,-5.2019585E-2,5.9995987E-2,9.9954545E-2,-5.4224204E-2,-9.77675E-2,4.8290346E-2,1.16646886E-1,1.8390164E-2,1.281533E-1,2.2341855E-2],"split_indices":[361,179,706,844,400,844,984,460,487,27,709,258,975,0,0,669,622,707,415,209,892,285,315,148,0,0,0,205,736,314,0,136,772,711,0,801,604,969,311,691,0,0,0,49,0,0,0,0,0,0,0,0,0,0,0,0,0,0,0,0,0,0,0,0,0,0,0,0,0],"split_type":[0,0,0,0,0,0,0,0,0,0,0,0,0,0,0,0,0,0,0,0,0,0,0,0,0,0,0,0,0,0,0,0,0,0,0,0,0,0,0,0,0,0,0,0,0,0,0,0,0,0,0,0,0,0,0,0,0,0,0,0,0,0,0,0,0,0,0,0,0],"sum_hessian":[7.6973694E2,7.282669E2,4.147002E1,5.8362274E2,1.4464412E2,3.8587944E1,2.8820763E0,4.2752924E2,1.5609352E2,1.3221133E2,1.2432787E1,3.592439E1,2.6635551E0,1.7544985E0,1.1275778E0,4.048046E2,2.272464E1,1.24665955E2,3.142757E1,1.1420788E2,1.8003464E1,1.0319751E1,2.113036E0,3.4754684E1,1.1697025E0,1.5580398E0,1.1055155E0,9.506059E1,3.0974402E2,2.0743114E1,1.9815255E0,1.0305717E2,2.1608784E1,3.0309078E1,1.1184907E0,7.3278725E1,4.0929153E1,8.531512E0,9.471951E0,9.125951E0,1.1938002E0,1.010606E0,1.1024299E0,3.3740276E1,1.014409E0,1.8078346E1,7.698225E1,8.6245186E1,2.2349883E2,1.941208E1,1.3310329E0,9.203799E1,1.1019179E1,2.0323112E1,1.2856712E0,2.7704145E1,2.6049345E0,5.563921E1,1.7639515E1,3.508594E1,5.84321E0,7.270572E0,1.2609401E0,6.6543264E0,2.8176243E0,8.09115E0,1.0347999E0,3.2142796E1,1.5974811E0],"tree_param":{"num_deleted":"0","num_feature":"1000","num_nodes":"69","size_leaf_vector":"1"}},{"base_weights":[-3.2008656E-3,-1.7934889E-1,2.4156557E-1,-4.9734665E-3,-5.498235E-1,3.6406896E-1,-2.5510937E-1,-5.0349675E-2,1.1005456E0,-6.4663243E-1,5.2983606E-1,5.2492386E-1,-4.4022404E-2,-4.439959E-1,6.637663E-1,-1.1002907E-1,7.5566703E-1,1.2554275E0,-2.7591044E-2,-7.327841E-1,1.2574086E-1,1.038161E0,-2.8285146E-1,6.418224E-1,-6.0358904E-2,-3.7149125E-1,5.682125E-1,-7.73711E-1,-3.3396102E-2,9.326904E-1,-6.4495645E-2,-1.6893668E-1,7.819376E-1,1.2257838E0,-9.8127805E-2,1.4128463E-1,2.1133764E-2,-5.230664E-1,-1.0648082E0,4.7975674E-1,-1.001264E-1,1.1950952E-1,2.5232227E-3,-8.596793E-1,6.0344737E-2,7.8171533E-1,2.2393945E-1,5.72944E-1,-3.802665E-1,-5.11176E-1,6.84695E-1,7.775133E-1,-7.132278E-1,-9.146885E-1,6.2975657E-1,-1.1074369E0,2.881662E-1,1.153519E0,-3.5741393E-2,1.898484E-2,-3.49977E-2,9.463969E-2,-5.164358E-2,-1.6631197E-2,1.3618831E-1,-1.0873764E-1,5.297034E-2,-8.469943E-2,-1.6325312E-2,-1.1355739E-1,4.9219273E-2,-5.1299702E-2,9.765481E-2,-1.2925714E-1,1.6194046E-2,8.151298E-2,-1.04640305E-1,4.2224165E-2,-7.923462E-2,-2.6892552E-2,1.1887641E-1,9.310003E-2,-5.913148E-2,-7.53749E-2,3.1876173E-2,1.07159175E-1,-6.3104294E-2,9.308698E-2,-4.3363385E-2,3.1793248E-2,-1.3440989E-1,-1.12913765E-1,4.2634746E-3,9.5674686E-2,-4.850918E-3,-1.387238E-1,6.3660205E-4,8.466243E-2,-6.1455965E-2,1.23234406E-1,2.782609E-2],"categories":[],"categories_nodes":[],"categories_segments":[],"categories_sizes":[],"default_left":[0,0,0,0,0,0,0,0,0,0,0,0,0,0,0,0,0,0,0,0,0,0,0,0,0,0,0,0,0,0,0,0,0,0,0,0,0,0,0,0,0,0,0,0,0,0,0,0,0,0,0,0,0,0,0,0,0,0,0,0,0,0,0,0,0,0,0,0,0,0,0,0,0,0,0,0,0,0,0,0,0,0,0,0,0,0,0,0,0,0,0,0,0,0,0,0,0,0,0,0,0],"id":18,"left_children":[1,3,5,7,9,11,13,15,17,19,21,23,25,27,29,31,33,35,-1,37,39,41,43,45,47,49,51,53,55,57,-1,59,61,63,65,-1,-1,67,69,71,-1,-1,-1,73,-1,75,77,79,81,83,85,87,89,91,93,95,97,99,-1,-1,-1,-1,-1,-1,-1,-1,-1,-1,-1,-1,-1,-1,-1,-1,-1,-1,-1,-1,-1,-1,-1,-1,-1,-1,-1,-1,-1,-1,-1,-1,-1,-1,-1,-1,-1,-1,-1,-1,-1,-1,-1],"loss_changes":[3.3083782E1,2.8822784E1,1.9631641E1,1.5325848E1,1.526767E1,1.6959442E1,1.1424007E1,1.4194666E1,2.9143705E0,8.841999E0,5.374867E0,1.2705627E1,1.5020484E1,7.25603E0,4.590666E0,1.4529685E1,8.288823E0,1.5105991E0,0E0,7.6906166E0,6.0855546E0,1.2067442E0,3.3402607E0,8.851124E0,6.6474566E0,7.5393324E0,7.5645256E0,6.46966E0,8.95366E0,3.2074127E0,0E0,1.6815565E1,4.1514215E0,2.727129E0,5.6393166E0,0E0,0E0,8.551878E0,5.5046806E0,6.106962E0,0E0,0E0,0E0,1.8702137E0,0E0,7.894638E0,8.421288E0,6.04832E0,6.551877E0,9.020029E0,3.7913482E0,4.6654663E0,3.153792E0,5.6888866E0,7.807977E-1,1.8683844E0,1.0620041E1,2.5137234E-1,0E0,0E0,0E0,0E0,0E0,0E0,0E0,0E0,0E0,0E0,0E0,0E0,0E0,0E0,0E0,0E0,0E0,0E0,0E0,0E0,0E0,0E0,0E0,0E0,0E0,0E0,0E0,0E0,0E0,0E0,0E0,0E0,0E0,0E0,0E0,0E0,0E0,0E0,0E0,0E0,0E0,0E0,0E0],"parents":[2147483647,0,0,1,1,2,2,3,3,4,4,5,5,6,6,7,7,8,8,9,9,10,10,11,11,12,12,13,13,14,14,15,15,16,16,17,17,19,19,20,20,21,21,22,22,23,23,24,24,25,25,26,26,27,27,28,28,29,29,31,31,32,32,33,33,34,34,37,37,38,38,39,39,43,43,45,45,46,46,47,47,48,48,49,49,50,50,51,51,52,52,53,53,54,54,55,55,56,56,57,57],"right_children":[2,4,6,8,10,12,14,16,18,20,22,24,26,28,30,32,34,36,-1,38,40,42,44,46,48,50,52,54,56,58,-1,60,62,64,66,-1,-1,68,70,72,-1,-1,-1,74,-1,76,78,80,82,84,86,88,90,92,94,96,98,100,-1,-1,-1,-1,-1,-1,-1,-1,-1,-1,-1,-1,-1,-1,-1,-1,-1,-1,-1,-1,-1,-1,-1,-1,-1,-1,-1,-1,-1,-1,-1,-1,-1,-1,-1,-1,-1,-1,-1,-1,-1,-1,-1],"split_conditions":[-9.4411606E-1,-9.0532E-1,-9.881227E-1,-9.989253E-1,-9.968328E-1,-8.001075E-1,-9.9676824E-1,-9.946265E-1,-9.5782876E-1,-9.623242E-1,-9.9140245E-1,-8.8272667E-1,-9.5533204E-1,-9.079637E-1,-8.5372186E-1,-9.967759E-1,-9.4191796E-1,-4.11309E-1,-2.7591044E-2,-9.5458853E-1,-9.6426654E-1,-9.763535E-1,-9.930567E-1,-8.876878E-1,-4.792236E-1,-9.1152096E-1,-9.913288E-1,-9.875789E-1,-9.126721E-1,-9.878604E-1,-6.4495645E-2,1.0499333E-1,-9.9353987E-1,-5.9734446E-1,-7.603322E-1,1.4128463E-1,2.1133764E-2,-8.721368E-1,1.7860784E-1,-7.7510643E-1,-1.001264E-1,1.1950952E-1,2.5232227E-3,-7.8860426E-1,6.0344737E-2,-9.9732554E-1,-9.580413E-1,-4.1882986E-1,-8.4345335E-1,-9.214423E-1,-9.4876665E-1,-9.978506E-1,-3.527094E-1,-9.6982944E-1,-9.742074E-1,-9.9355185E-1,-9.711385E-1,-9.573196E-1,-3.5741393E-2,1.898484E-2,-3.49977E-2,9.463969E-2,-5.164358E-2,-1.6631197E-2,1.3618831E-1,-1.0873764E-1,5.297034E-2,-8.469943E-2,-1.6325312E-2,-1.1355739E-1,4.9219273E-2,-5.1299702E-2,9.765481E-2,-1.2925714E-1,1.6194046E-2,8.151298E-2,-1.04640305E-1,4.2224165E-2,-7.923462E-2,-2.6892552E-2,1.1887641E-1,9.310003E-2,-5.913148E-2,-7.53749E-2,3.1876173E-2,1.07159175E-1,-6.3104294E-2,9.308698E-2,-4.3363385E-2,3.1793248E-2,-1.3440989E-1,-1.12913765E-1,4.2634746E-3,9.5674686E-2,-4.850918E-3,-1.387238E-1,6.3660205E-4,8.466243E-2,-6.1455965E-2,1.23234406E-1,2.782609E-2],"split_indices":[250,618,852,460,448,582,124,462,110,296,98,463,6,832,357,530,803,127,0,918,501,371,904,396,99,668,732,771,909,977,0,669,681,721,23,0,0,352,503,670,0,0,0,292,0,690,11,127,670,626,529,516,931,576,538,449,844,383,0,0,0,0,0,0,0,0,0,0,0,0,0,0,0,0,0,0,0,0,0,0,0,0,0,0,0,0,0,0,0,0,0,0,0,0,0,0,0,0,0,0,0],"split_type":[0,0,0,0,0,0,0,0,0,0,0,0,0,0,0,0,0,0,0,0,0,0,0,0,0,0,0,0,0,0,0,0,0,0,0,0,0,0,0,0,0,0,0,0,0,0,0,0,0,0,0,0,0,0,0,0,0,0,0,0,0,0,0,0,0,0,0,0,0,0,0,0,0,0,0,0,0,0,0,0,0,0,0,0,0,0,0,0,0,0,0,0,0,0,0,0,0,0,0,0,0],"sum_hessian":[7.65331E2,4.4520392E2,3.2012708E2,3.0340863E2,1.4179529E2,2.5700467E2,6.312243E1,2.92363E2,1.10456295E1,1.3049535E2,1.129994E1,1.8413785E2,7.286681E1,5.2787994E1,1.0334435E1,2.7301202E2,1.935097E1,1.0007492E1,1.0381372E0,1.1744646E2,1.3048887E1,6.781046E0,4.5188947E0,1.5340222E2,3.0735619E1,4.773031E1,2.5136505E1,2.8787249E1,2.4000748E1,8.811188E0,1.5232471E0,2.5685904E2,1.6152985E1,1.2198524E1,7.1524453E0,8.389423E0,1.6180686E0,7.355931E1,4.388715E1,1.0366774E1,2.6821134E0,5.7156696E0,1.065376E0,2.7555444E0,1.7633501E0,1.14275894E2,3.912633E1,