{"learner":{"attributes":{"scikit_learn":"{\"_estimator_type\": \"regressor\"}"},"feature_names":[],"feature_types":[],"gradient_booster":{"model":{"gbtree_model_param":{"num_parallel_tree":"1","num_trees":"250"},"iteration_indptr":[0,1,2,3,4,5,6,7,8,9,10,11,12,13,14,15,16,17,18,19,20,21,22,23,24,25,26,27,28,29,30,31,32,33,34,35,36,37,38,39,40,41,42,43,44,45,46,47,48,49,50,51,52,53,54,55,56,57,58,59,60,61,62,63,64,65,66,67,68,69,70,71,72,73,74,75,76,77,78,79,80,81,82,83,84,85,86,87,88,89,90,91,92,93,94,95,96,97,98,99,100,101,102,103,104,105,106,107,108,109,110,111,112,113,114,115,116,117,118,119,120,121,122,123,124,125,126,127,128,129,130,131,132,133,134,135,136,137,138,139,140,141,142,143,144,145,146,147,148,149,150,151,152,153,154,155,156,157,158,159,160,161,162,163,164,165,166,167,168,169,170,171,172,173,174,175,176,177,178,179,180,181,182,183,184,185,186,187,188,189,190,191,192,193,194,195,196,197,198,199,200,201,202,203,204,205,206,207,208,209,210,211,212,213,214,215,216,217,218,219,220,221,222,223,224,225,226,227,228,229,230,231,232,233,234,235,236,237,238,239,240,241,242,243,244,245,246,247,248,249,250],"tree_info":[0,0,0,0,0,0,0,0,0,0,0,0,0,0,0,0,0,0,0,0,0,0,0,0,0,0,0,0,0,0,0,0,0,0,0,0,0,0,0,0,0,0,0,0,0,0,0,0,0,0,0,0,0,0,0,0,0,0,0,0,0,0,0,0,0,0,0,0,0,0,0,0,0,0,0,0,0,0,0,0,0,0,0,0,0,0,0,0,0,0,0,0,0,0,0,0,0,0,0,0,0,0,0,0,0,0,0,0,0,0,0,0,0,0,0,0,0,0,0,0,0,0,0,0,0,0,0,0,0,0,0,0,0,0,0,0,0,0,0,0,0,0,0,0,0,0,0,0,0,0,0,0,0,0,0,0,0,0,0,0,0,0,0,0,0,0,0,0,0,0,0,0,0,0,0,0,0,0,0,0,0,0,0,0,0,0,0,0,0,0,0,0,0,0,0,0,0,0,0,0,0,0,0,0,0,0,0,0,0,0,0,0,0,0,0,0,0,0,0,0,0,0,0,0,0,0,0,0,0,0,0,0,0,0,0,0,0,0,0,0,0,0,0,0,0,0,0,0,0,0],"trees":[{"base_weights":[-1.2591639E-2,-1.3111745E0,4.571793E-1,-1.4104688E0,3.9418237E-3,6.051358E-2,1.2878076E0,-1.819763E-1,-1.15677886E-1,-1.18633606E-1,7.039651E-2,-9.784097E-2,3.2276127E-2,-5.134936E-2,1.3317388E-1],"categories":[],"categories_nodes":[],"categories_segments":[],"categories_sizes":[],"default_left":[0,0,0,0,0,0,0,0,0,0,0,0,0,0,0],"id":0,"left_children":[1,3,5,7,9,11,13,-1,-1,-1,-1,-1,-1,-1,-1],"loss_changes":[5.9443365E2,3.3808136E1,2.3569371E2,2.2886444E1,1.6807575E1,1.3255292E2,1.8981903E1,0E0,0E0,0E0,0E0,0E0,0E0,0E0,0E0],"parents":[2147483647,0,0,1,1,2,2,3,3,4,4,5,5,6,6],"right_children":[2,4,6,8,10,12,14,-1,-1,-1,-1,-1,-1,-1,-1],"split_conditions":[-1.8095623E-1,-1.633361E-1,-3.246461E-1,-1.8046474E-1,-1.866331E-1,-1.9246559E-1,-1.8985397E-1,-1.819763E-1,-1.15677886E-1,-1.18633606E-1,7.039651E-2,-9.784097E-2,3.2276127E-2,-5.134936E-2,1.3317388E-1],"split_indices":[83,473,1866,1527,1673,1634,1665,0,0,0,0,0,0,0,0],"split_type":[0,0,0,0,0,0,0,0,0,0,0,0,0,0,0],"sum_hessian":[9.724406E2,2.578573E2,7.145833E2,2.396878E2,1.8169481E1,4.8435358E2,2.3022972E2,8.935403E1,1.5033379E2,6.471322E0,1.1698159E1,9.706983E1,3.8728372E2,5.226837E0,2.2500288E2],"tree_param":{"num_deleted":"0","num_feature":"2000","num_nodes":"15","size_leaf_vector":"1"}},{"base_weights":[-2.3045013E-2,4.9934688E-1,-1.0440646E0,1.0995739E-1,1.2216417E0,-1.171841E0,5.84333E-1,-1.1161651E-2,1.3532598E-1,-6.546877E-2,1.2598002E-1,-1.330145E-1,-3.0369788E-2,-3.8510535E-2,1.1539544E-1],"categories":[],"categories_nodes":[],"categories_segments":[],"categories_sizes":[],"default_left":[0,0,0,0,0,0,0,0,0,0,0,0,0,0,0],"id":1,"left_children":[1,3,5,7,9,11,13,-1,-1,-1,-1,-1,-1,-1,-1],"loss_changes":[5.2411005E2,1.8270221E2,6.98851E1,1.16810814E2,1.7120667E1,4.202295E1,1.417534E1,0E0,0E0,0E0,0E0,0E0,0E0,0E0,0E0],"parents":[2147483647,0,0,1,1,2,2,3,3,4,4,5,5,6,6],"right_children":[2,4,6,8,10,12,14,-1,-1,-1,-1,-1,-1,-1,-1],"split_conditions":[-4.8247424E-1,-3.3170262E-1,-1.280351E-1,-1.515827E-1,-5.1920015E-1,-3.0959725E-1,-3.4827214E-1,-1.1161651E-2,1.3532598E-1,-6.546877E-2,1.2598002E-1,-1.330145E-1,-3.0369788E-2,-3.8510535E-2,1.1539544E-1],"split_indices":[1896,1866,1925,1925,1936,1866,1991,0,0,0,0,0,0,0,0],"split_type":[0,0,0,0,0,0,0,0,0,0,0,0,0,0,0],"sum_hessian":[9.806569E2,6.490761E2,3.3158075E2,4.2247296E2,2.2660316E2,3.0771542E2,2.3865318E1,3.593432E2,6.3129765E1,4.1944995E0,2.2240866E2,2.598079E2,4.7907555E1,8.952682E0,1.4912637E1],"tree_param":{"num_deleted":"0","num_feature":"2000","num_nodes":"15","size_leaf_vector":"1"}},{"base_weights":[-9.588615E-3,4.174994E-1,-1.0795101E0,-1.4906316E0,5.276503E-1,-1.4115509E0,-7.500713E-1,-1.6435733E-1,1.1163069E-1,3.1814717E-2,1.2130292E-1,-1.4534864E-1,9.5205046E-2,-9.269274E-2,1.3581281E-2],"categories":[],"categories_nodes":[],"categories_segments":[],"categories_sizes":[],"default_left":[0,0,0,0,0,0,0,0,0,0,0,0,0,0,0],"id":2,"left_children":[1,3,5,7,9,11,13,-1,-1,-1,-1,-1,-1,-1,-1],"loss_changes":[4.445171E2,1.4692108E2,2.9299286E1,1.706829E1,9.410541E1,1.4971436E1,2.2286522E1,0E0,0E0,0E0,0E0,0E0,0E0,0E0,0E0],"parents":[2147483647,0,0,1,1,2,2,3,3,4,4,5,5,6,6],"right_children":[2,4,6,8,10,12,14,-1,-1,-1,-1,-1,-1,-1,-1],"split_conditions":[-4.5190564E-1,-1.8920542E-1,-1.7656691E-1,-1.7202747E-1,-1.7191453E-1,-8.621145E-2,-1.5941381E-1,-1.6435733E-1,1.1163069E-1,3.1814717E-2,1.2130292E-1,-1.4534864E-1,9.5205046E-2,-9.269274E-2,1.3581281E-2],"split_indices":[1896,1615,1634,1591,1806,76,336,0,0,0,0,0,0,0,0],"split_type":[0,0,0,0,0,0,0,0,0,0,0,0,0,0,0],"sum_hessian":[9.7080383E2,6.94275E2,2.765288E2,3.7207165E1,6.570679E2,1.3608463E2,1.404442E2,3.549435E1,1.7128149E0,5.043614E2,1.5270647E2,1.3409062E2,1.9940068E0,1.1703353E2,2.341067E1],"tree_param":{"num_deleted":"0","num_feature":"2000","num_nodes":"15","size_leaf_vector":"1"}},{"base_weights":[1.2787229E-2,-1.0496389E0,3.6278248E-1,-5.559511E-1,-1.2805623E0,-1.3586805E0,4.747194E-1,-8.03078E-2,2.2993987E-2,-1.3726418E-1,2.0376517E-2,-1.5149917E-1,4.2598274E-2,2.7379641E-2,1.17600955E-1],"categories":[],"categories_nodes":[],"categories_segments":[],"categories_sizes":[],"default_left":[0,0,0,0,0,0,0,0,0,0,0,0,0,0,0],"id":3,"left_children":[1,3,5,7,9,11,13,-1,-1,-1,-1,-1,-1,-1,-1],"loss_changes":[3.6072137E2,2.669342E1,1.4124986E2,1.5406397E1,2.2559631E1,1.3145317E1,9.632019E1,0E0,0E0,0E0,0E0,0E0,0E0,0E0,0E0],"parents":[2147483647,0,0,1,1,2,2,3,3,4,4,5,5,6,6],"right_children":[2,4,6,8,10,12,14,-1,-1,-1,-1,-1,-1,-1,-1],"split_conditions":[-2.0237882E-1,-1.6797474E-1,-1.9714601E-1,-1.0343038E-1,-1.6123788E-1,-1.6705407E-1,-1.713771E-1,-8.03078E-2,2.2993987E-2,-1.3726418E-1,2.0376517E-2,-1.5149917E-1,4.2598274E-2,2.7379641E-2,1.17600955E-1],"split_indices":[1252,1623,1838,161,76,1212,1672,0,0,0,0,0,0,0,0],"split_type":[0,0,0,0,0,0,0,0,0,0,0,0,0,0,0],"sum_hessian":[9.6806366E2,2.3938893E2,7.2867474E2,7.737583E1,1.6201309E2,4.38087E1,6.84866E2,5.8848732E1,1.8527103E1,1.526206E2,9.392481E0,4.041962E1,3.3890796E0,5.3342706E2,1.5143898E2],"tree_param":{"num_deleted":"0","num_feature":"2000","num_nodes":"15","size_leaf_vector":"1"}},{"base_weights":[6.7405745E-5,-9.093022E-1,3.312373E-1,-9.810245E-1,1.073119E0,1.351241E-1,1.0608118E0,-1.0206156E-1,1.263548E-1,-5.9570696E-2,1.4013533E-1,-4.765219E-2,3.8305663E-2,-1.14874296E-1,1.09379075E-1],"categories":[],"categories_nodes":[],"categories_segments":[],"categories_sizes":[],"default_left":[0,0,0,0,0,0,0,0,0,0,0,0,0,0,0],"id":4,"left_children":[1,3,5,7,9,11,13,-1,-1,-1,-1,-1,-1,-1,-1],"loss_changes":[2.8704974E2,3.7231766E1,9.9827225E1,2.3158401E1,5.9629927E0,8.386554E1,1.2032349E1,0E0,0E0,0E0,0E0,0E0,0E0,0E0,0E0],"parents":[2147483647,0,0,1,1,2,2,3,3,4,4,5,5,6,6],"right_children":[2,4,6,8,10,12,14,-1,-1,-1,-1,-1,-1,-1,-1],"split_conditions":[-1.8348159E-1,-1.7202747E-1,-1.713771E-1,-1.7140959E-1,-1.85423E-1,-1.7962897E-1,-1.7694984E-1,-1.0206156E-1,1.263548E-1,-5.9570696E-2,1.4013533E-1,-4.765219E-2,3.8305663E-2,-1.14874296E-1,1.09379075E-1],"split_indices":[83,1591,1672,1712,85,1812,1525,0,0,0,0,0,0,0,0],"split_type":[0,0,0,0,0,0,0,0,0,0,0,0,0,0,0],"sum_hessian":[9.511601E2,2.5345221E2,6.9770795E2,2.4509018E2,8.362021E0,5.508279E2,1.4688002E2,2.4137791E2,3.7122662E0,1.2404381E0,7.121583E0,1.586121E2,3.922158E2,1.6624966E0,1.4521753E2],"tree_param":{"num_deleted":"0","num_feature":"2000","num_nodes":"15","size_leaf_vector":"1"}},{"base_weights":[2.5341585E-3,3.8193646E-1,-7.814066E-1,-1.3359905E0,4.642418E-1,-2.434623E-1,-9.937909E-1,-1.507755E-1,9.3749724E-2,1.36084E-3,6.840918E-2,-4.2270686E-2,8.896388E-2,-1.0673367E-1,3.6428798E-2],"categories":[],"categories_nodes":[],"categories_segments":[],"categories_sizes":[],"default_left":[0,0,0,0,0,0,0,0,0,0,0,0,0,0,0],"id":5,"left_children":[1,3,5,7,9,11,13,-1,-1,-1,-1,-1,-1,-1,-1],"loss_changes":[2.8295438E2,9.126409E1,3.5205627E1,1.2959621E1,6.067244E1,1.8481678E1,2.2573929E1,0E0,0E0,0E0,0E0,0E0,0E0,0E0,0E0],"parents":[2147483647,0,0,1,1,2,2,3,3,4,4,5,5,6,6],"right_children":[2,4,6,8,10,12,14,-1,-1,-1,-1,-1,-1,-1,-1],"split_conditions":[-4.7573334E-1,-1.8920542E-1,-2.8889623E-1,-1.721526E-1,-4.4988376E-1,-1.6141303E-1,-1.5160042E-1,-1.507755E-1,9.3749724E-2,1.36084E-3,6.840918E-2,-4.2270686E-2,8.896388E-2,-1.0673367E-1,3.6428798E-2],"split_indices":[1896,1615,1935,118,1936,1806,1212,0,0,0,0,0,0,0,0],"split_type":[0,0,0,0,0,0,0,0,0,0,0,0,0,0,0],"sum_hessian":[9.49331E2,6.4007025E2,3.0926077E2,2.856716E1,6.1150305E2,8.814537E1,2.211154E2,2.6873636E1,1.6935232E0,2.0085867E2,4.106444E2,7.664749E1,1.1497873E1,2.0995929E2,1.1156107E1],"tree_param":{"num_deleted":"0","num_feature":"2000","num_nodes":"15","size_leaf_vector":"1"}},{"base_weights":[7.4476693E-3,3.8232875E-1,-6.5735465E-1,1.1322727E-1,1.0773154E0,-8.425148E-1,1.560842E-1,-1.8593164E-2,6.551598E-2,1.16079114E-1,-3.9748255E-2,-1.0108624E-1,-2.2743532E-2,-4.9770843E-2,6.3188456E-2],"categories":[],"categories_nodes":[],"categories_segments":[],"categories_sizes":[],"default_left":[0,0,0,0,0,0,0,0,0,0,0,0,0,0,0],"id":6,"left_children":[1,3,5,7,9,11,13,-1,-1,-1,-1,-1,-1,-1,-1],"loss_changes":[2.3216829E2,1.11279686E2,5.0724106E1,6.991848E1,2.0915665E1,2.8118881E1,1.9951689E1,0E0,0E0,0E0,0E0,0E0,0E0,0E0,0E0],"parents":[2147483647,0,0,1,1,2,2,3,3,4,4,5,5,6,6],"right_children":[2,4,6,8,10,12,14,-1,-1,-1,-1,-1,-1,-1,-1],"split_conditions":[-4.9170938E-1,-2.8669226E-1,-3.1307608E-1,-3.4258887E-1,8.1584823E-1,-1.7642573E-1,-2.2603607E-1,-1.8593164E-2,6.551598E-2,1.16079114E-1,-3.9748255E-2,-1.0108624E-1,-2.2743532E-2,-4.9770843E-2,6.3188456E-2],"split_indices":[1896,1925,1866,1866,1924,1720,1831,0,0,0,0,0,0,0,0],"split_type":[0,0,0,0,0,0,0,0,0,0,0,0,0,0,0],"sum_hessian":[9.2956445E2,5.946609E2,3.3490356E2,4.2951428E2,1.6514664E2,2.7277664E2,6.212693E1,2.7716815E2,1.5234613E2,1.5650134E2,8.645286E0,2.1365555E2,5.9121082E1,2.6149336E1,3.5977592E1],"tree_param":{"num_deleted":"0","num_feature":"2000","num_nodes":"15","size_leaf_vector":"1"}},{"base_weights":[1.2379799E-2,-8.3206815E-1,2.7956715E-1,-9.592466E-1,-1.1004453E-1,-4.8619244E-2,7.3813236E-1,-1.00569345E-1,8.0540866E-2,-7.424057E-2,5.9025522E-2,-2.0276072E-2,1.0666734E-1,-3.3219654E-2,8.300548E-2],"categories":[],"categories_nodes":[],"categories_segments":[],"categories_sizes":[],"default_left":[0,0,0,0,0,0,0,0,0,0,0,0,0,0,0],"id":7,"left_children":[1,3,5,7,9,11,13,-1,-1,-1,-1,-1,-1,-1,-1],"loss_changes":[2.0803271E2,2.0244629E1,1.0543902E2,1.6243378E1,1.5636333E1,7.0556E1,2.9026245E1,0E0,0E0,0E0,0E0,0E0,0E0,0E0,0E0],"parents":[2147483647,0,0,1,1,2,2,3,3,4,4,5,5,6,6],"right_children":[2,4,6,8,10,12,14,-1,-1,-1,-1,-1,-1,-1,-1],"split_conditions":[-2.0237882E-1,3.431016E-1,-3.4299436E-1,-1.6671197E-1,-1.7482466E-1,-9.763443E-3,-2.2009727E-1,-1.00569345E-1,8.0540866E-2,-7.424057E-2,5.9025522E-2,-2.0276072E-2,1.0666734E-1,-3.3219654E-2,8.300548E-2],"split_indices":[1252,1953,1866,1591,1217,1925,1601,0,0,0,0,0,0,0,0],"split_type":[0,0,0,0,0,0,0,0,0,0,0,0,0,0,0],"sum_hessian":[9.199943E2,2.2061728E2,6.99377E2,1.8729779E2,3.3319492E1,4.081592E2,2.912178E2,1.8291348E2,4.38431E0,1.7477459E1,1.5842034E1,3.593172E2,4.884202E1,2.2825676E1,2.6839212E2],"tree_param":{"num_deleted":"0","num_feature":"2000","num_nodes":"15","size_leaf_vector":"1"}},{"base_weights":[3.9112085E-4,4.1835034E-1,-5.1378316E-1,2.50646E-1,9.876642E-1,-7.206729E-1,7.053547E-1,-2.256849E-3,5.477437E-2,3.8803417E-2,1.2133499E-1,-8.687177E-2,1.2776931E-2,-7.974937E-2,8.728601E-2],"categories":[],"categories_nodes":[],"categories_segments":[],"categories_sizes":[],"default_left":[0,0,0,0,0,0,0,0,0,0,0,0,0,0,0],"id":8,"left_children":[1,3,5,7,9,11,13,-1,-1,-1,-1,-1,-1,-1,-1],"loss_changes":[1.9843869E2,4.838308E1,1.0493949E2,3.2057865E1,1.51675415E1,4.463408E1,1.5944771E1,0E0,0E0,0E0,0E0,0E0,0E0,0E0,0E0],"parents":[2147483647,0,0,1,1,2,2,3,3,4,4,5,5,6,6],"right_children":[2,4,6,8,10,12,14,-1,-1,-1,-1,-1,-1,-1,-1],"split_conditions":[-3.6774412E-1,-2.6492932E-1,-2.056302E-1,-1.1646077E-1,-1.711021E-1,-3.032037E-1,-3.948148E-1,-2.256849E-3,5.477437E-2,3.8803417E-2,1.2133499E-1,-8.687177E-2,1.2776931E-2,-7.974937E-2,8.728601E-2],"split_indices":[1935,1925,1925,1859,1627,1866,1252,0,0,0,0,0,0,0,0],"split_type":[0,0,0,0,0,0,0,0,0,0,0,0,0,0,0],"sum_hessian":[9.213833E2,5.0834714E2,4.1303613E2,3.9378815E2,1.14559E2,3.534619E2,5.957423E1,2.0562085E2,1.8816728E2,3.2070213E1,8.2488785E1,3.009289E2,5.253303E1,5.5970287E0,5.39772E1],"tree_param":{"num_deleted":"0","num_feature":"2000","num_nodes":"15","size_leaf_vector":"1"}},{"base_weights":[2.6152156E-2,3.3179927E-1,-5.279446E-1,4.7839563E-2,7.4584043E-1,-6.865909E-1,7.970229E-1,3.7367627E-2,-3.29427E-2,-9.55626E-3,8.3922036E-2,-7.808221E-2,3.3427984E-2,9.149683E-2,-1.0734041E-1],"categories":[],"categories_nodes":[],"categories_segments":[],"categories_sizes":[],"default_left":[0,0,0,0,0,0,0,0,0,0,0,0,0,0,0],"id":9,"left_children":[1,3,5,7,9,11,13,-1,-1,-1,-1,-1,-1,-1,-1],"loss_changes":[1.5035732E2,6.7230316E1,6.689556E1,4.1973183E1,1.836229E1,2.742987E1,8.53027E0,0E0,0E0,0E0,0E0,0E0,0E0,0E0,0E0],"parents":[2147483647,0,0,1,1,2,2,3,3,4,4,5,5,6,6],"right_children":[2,4,6,8,10,12,14,-1,-1,-1,-1,-1,-1,-1,-1],"split_conditions":[-2.8889623E-1,-3.4299436E-1,-1.1802487E-1,-4.7306713E-1,-2.1691108E-1,-1.6035816E-1,7.8740865E-1,3.7367627E-2,-3.29427E-2,-9.55626E-3,8.3922036E-2,-7.808221E-2,3.3427984E-2,9.149683E-2,-1.0734041E-1],"split_indices":[1935,1866,1925,1935,1784,724,336,0,0,0,0,0,0,0,0],"split_type":[0,0,0,0,0,0,0,0,0,0,0,0,0,0,0],"sum_hessian":[8.8577277E2,5.711307E2,3.1464206E2,3.3944583E2,2.3168486E2,2.8142694E2,3.321512E1,1.8214275E2,1.5730309E2,2.3141768E1,2.0854309E2,2.5786035E2,2.3566593E1,3.17254E1,1.4897176E0],"tree_param":{"num_deleted":"0","num_feature":"2000","num_nodes":"15","size_leaf_vector":"1"}},{"base_weights":[1.2449693E-2,2.863112E-1,-4.9895734E-1,2.7376274E-2,6.899746E-1,-6.1385745E-1,7.0450497E-1,-3.0652344E-2,3.900441E-2,-1.3593943E-1,7.208422E-2,-1.0433971E-1,-3.3815034E-2,-3.444733E-2,1.0319078E-1],"categories":[],"categories_nodes":[],"categories_segments":[],"categories_sizes":[],"default_left":[0,0,0,0,0,0,0,0,0,0,0,0,0,0,0],"id":10,"left_children":[1,3,5,7,9,11,13,-1,-1,-1,-1,-1,-1,-1,-1],"loss_changes":[1.2479593E2,6.063233E1,4.340399E1,4.3053528E1,1.5322029E1,3.3305626E1,9.81708E0,0E0,0E0,0E0,0E0,0E0,0E0,0E0,0E0],"parents":[2147483647,0,0,1,1,2,2,3,3,4,4,5,5,6,6],"right_children":[2,4,6,8,10,12,14,-1,-1,-1,-1,-1,-1,-1,-1],"split_conditions":[-2.8519997E-1,-3.4299436E-1,-1.13924555E-1,-2.1185933E-1,-1.8183516E-1,-2.0193915E-1,-1.7534496E-1,-3.0652344E-2,3.900441E-2,-1.3593943E-1,7.208422E-2,-1.0433971E-1,-3.3815034E-2,-3.444733E-2,1.0319078E-1],"split_indices":[1935,1866,1686,1647,1629,1778,203,0,0,0,0,0,0,0,0],"split_type":[0,0,0,0,0,0,0,0,0,0,0,0,0,0,0],"sum_hessian":[8.890312E2,5.792692E2,3.0976196E2,3.5354877E2,2.2572046E2,2.832123E2,2.6549667E1,1.8415573E2,1.6939302E2,2.710709E0,2.2300975E2,1.0962967E2,1.7358264E2,6.303026E0,2.0246641E1],"tree_param":{"num_deleted":"0","num_feature":"2000","num_nodes":"15","size_leaf_vector":"1"}},{"base_weights":[1.9511772E-2,3.3238205E-1,-3.7830532E-1,1.3000646E-1,8.229361E-1,-5.6075424E-1,5.485561E-1,-7.7168117E-3,6.235361E-2,2.3983669E-2,1.04812264E-1,-6.746342E-2,4.1502696E-2,-7.653599E-2,6.9509864E-2],"categories":[],"categories_nodes":[],"categories_segments":[],"categories_sizes":[],"default_left":[0,0,0,0,0,0,0,0,0,0,0,0,0,0,0],"id":11,"left_children":[1,3,5,7,9,11,13,-1,-1,-1,-1,-1,-1,-1,-1],"loss_changes":[1.10271324E2,4.912366E1,6.626783E1,3.606488E1,1.8741104E1,3.654985E1,1.2981565E1,0E0,0E0,0E0,0E0,0E0,0E0,0E0,0E0],"parents":[2147483647,0,0,1,1,2,2,3,3,4,4,5,5,6,6],"right_children":[2,4,6,8,10,12,14,-1,-1,-1,-1,-1,-1,-1,-1],"split_conditions":[-3.5821584E-1,-3.1421408E-1,-2.3396404E-1,-3.354026E-1,-1.318367E-1,-1.6201313E-1,-3.948148E-1,-7.7168117E-3,6.235361E-2,2.3983669E-2,1.04812264E-1,-6.746342E-2,4.1502696E-2,-7.653599E-2,6.9509864E-2],"split_indices":[1935,1925,1925,1866,665,14,1252,0,0,0,0,0,0,0,0],"split_type":[0,0,0,0,0,0,0,0,0,0,0,0,0,0,0],"sum_hessian":[8.839511E2,4.9489594E2,3.8905518E2,3.512532E2,1.4364273E2,3.253971E2,6.3658096E1,2.479937E2,1.03259514E2,4.0593838E1,1.0304889E2,2.9166635E2,3.3730713E1,5.963743E0,5.7694355E1],"tree_param":{"num_deleted":"0","num_feature":"2000","num_nodes":"15","size_leaf_vector":"1"}},{"base_weights":[9.671215E-4,-6.3681775E-1,1.9342382E-1,3.8143727E-1,-7.218252E-1,3.2282445E-1,-6.3201725E-1,1.17414534E-1,-4.2493366E-2,-7.7536404E-2,6.583507E-2,-8.4765494E-2,3.935457E-2,-8.544876E-2,1.5425536E-2],"categories":[],"categories_nodes":[],"categories_segments":[],"categories_sizes":[],"default_left":[0,0,0,0,0,0,0,0,0,0,0,0,0,0,0],"id":12,"left_children":[1,3,5,7,9,11,13,-1,-1,-1,-1,-1,-1,-1,-1],"loss_changes":[1.0601811E2,1.7606018E1,7.107404E1,1.0778318E1,1.419075E1,4.786813E1,1.5919548E1,0E0,0E0,0E0,0E0,0E0,0E0,0E0,0E0],"parents":[2147483647,0,0,1,1,2,2,3,3,4,4,5,5,6,6],"right_children":[2,4,6,8,10,12,14,-1,-1,-1,-1,-1,-1,-1,-1],"split_conditions":[-2.0237882E-1,-1.7393352E-1,-1.2286017E-1,-6.212998E-1,-1.2126822E-1,-1.870925E-1,-1.3938093E-1,1.17414534E-1,-4.2493366E-2,-7.7536404E-2,6.583507E-2,-8.4765494E-2,3.935457E-2,-8.544876E-2,1.5425536E-2],"split_indices":[1252,1749,1897,1916,1212,1838,734,0,0,0,0,0,0,0,0],"split_type":[0,0,0,0,0,0,0,0,0,0,0,0,0,0,0],"sum_hessian":[8.6171625E2,1.9921758E2,6.6249866E2,1.508122E1,1.8413635E2,5.732429E2,8.925576E1,7.3750467E0,7.706173E0,1.7768204E2,6.4543095E0,3.2036335E1,5.412066E2,6.950349E1,1.9752277E1],"tree_param":{"num_deleted":"0","num_feature":"2000","num_nodes":"15","size_leaf_vector":"1"}},{"base_weights":[6.851219E-4,2.4553205E-1,-4.133119E-1,3.0888382E-2,6.779209E-1,-5.2938896E-1,3.7341982E-1,-7.4865185E-2,1.910187E-2,-1.0490632E-1,7.2813384E-2,-6.1170876E-2,4.9272105E-2,-4.434314E-2,7.8827634E-2],"categories":[],"categories_nodes":[],"categories_segments":[],"categories_sizes":[],"default_left":[0,0,0,0,0,0,0,0,0,0,0,0,0,0,0],"id":13,"left_children":[1,3,5,7,9,11,13,-1,-1,-1,-1,-1,-1,-1,-1],"loss_changes":[8.663146E1,4.982038E1,2.920248E1,4.5071667E1,1.6208458E1,2.3624054E1,1.4386732E1,0E0,0E0,0E0,0E0,0E0,0E0,0E0,0E0],"parents":[2147483647,0,0,1,1,2,2,3,3,4,4,5,5,6,6],"right_children":[2,4,6,8,10,12,14,-1,-1,-1,-1,-1,-1,-1,-1],"split_conditions":[-4.9575278E-1,-3.211856E-1,-1.658885E-1,-1.8917501E-1,-1.7930488E-1,4.106052E-3,-2.8875503E-1,-7.4865185E-2,1.910187E-2,-1.0490632E-1,7.2813384E-2,-6.1170876E-2,4.9272105E-2,-4.434314E-2,7.8827634E-2],"split_indices":[1896,1925,1672,159,1764,1925,1831,0,0,0,0,0,0,0,0],"split_type":[0,0,0,0,0,0,0,0,0,0,0,0,0,0,0],"sum_hessian":[8.526399E2,5.360281E2,3.1661185E2,3.589245E2,1.7710356E2,2.761891E2,4.0422775E1,6.053842E1,2.9838608E2,4.4418497E0,1.7266171E2,2.5597464E2,2.021443E1,1.359176E1,2.6831015E1],"tree_param":{"num_deleted":"0","num_feature":"2000","num_nodes":"15","size_leaf_vector":"1"}},{"base_weights":[7.198224E-3,-4.6894446E-1,2.043968E-1,-5.6751144E-1,5.502552E-1,-1.0398118E0,2.7384374E-1,-1.4923051E-2,-8.5808985E-2,-5.0919455E-2,8.587348E-2,-1.1298331E-1,6.113381E-2,-4.106117E-2,3.7045196E-2],"categories":[],"categories_nodes":[],"categories_segments":[],"categories_sizes":[],"default_left":[0,0,0,0,0,0,0,0,0,0,0,0,0,0,0],"id":14,"left_children":[1,3,5,7,9,11,13,-1,-1,-1,-1,-1,-1,-1,-1],"loss_changes":[7.9775734E1,2.5309795E1,5.2195778E1,2.750872E1,7.774421E0,5.442501E0,3.783014E1,0E0,0E0,0E0,0E0,0E0,0E0,0E0,0E0],"parents":[2147483647,0,0,1,1,2,2,3,3,4,4,5,5,6,6],"right_children":[2,4,6,8,10,12,14,-1,-1,-1,-1,-1,-1,-1,-1],"split_conditions":[-1.936897E-1,-1.6851565E-1,-1.8920542E-1,-3.545054E-1,-1.8207452E-1,-1.7202747E-1,-2.321238E-1,-1.4923051E-2,-8.5808985E-2,-5.0919455E-2,8.587348E-2,-1.1298331E-1,6.113381E-2,-4.106117E-2,3.7045196E-2],"split_indices":[1700,76,1615,1924,1799,1591,83,0,0,0,0,0,0,0,0],"split_type":[0,0,0,0,0,0,0,0,0,0,0,0,0,0,0],"sum_hessian":[8.4760925E2,2.4783212E2,5.9977716E2,2.2638188E2,2.1450249E1,3.096878E1,5.6880835E2,9.341981E1,1.3296207E2,4.6904817E0,1.6759766E1,2.9667053E1,1.3017266E0,6.995278E1,4.988556E2],"tree_param":{"num_deleted":"0","num_feature":"2000","num_nodes":"15","size_leaf_vector":"1"}},{"base_weights":[8.364289E-3,-5.5522573E-1,1.5306652E-1,-6.6708744E-1,4.8583555E-1,7.681903E-3,6.591168E-1,-8.254695E-2,1.4008301E-2,-4.3231767E-2,9.175626E-2,-5.3931028E-2,1.5977966E-2,-3.652871E-2,7.512705E-2],"categories":[],"categories_nodes":[],"categories_segments":[],"categories_sizes":[],"default_left":[0,0,0,0,0,0,0,0,0,0,0,0,0,0,0],"id":15,"left_children":[1,3,5,7,9,11,13,-1,-1,-1,-1,-1,-1,-1,-1],"loss_changes":[6.7972305E1,2.0154064E1,4.878447E1,1.9826248E1,7.174955E0,4.302926E1,1.4244919E1,0E0,0E0,0E0,0E0,0E0,0E0,0E0,0E0],"parents":[2147483647,0,0,1,1,2,2,3,3,4,4,5,5,6,6],"right_children":[2,4,6,8,10,12,14,-1,-1,-1,-1,-1,-1,-1,-1],"split_conditions":[-2.0143084E-1,-7.414271E-2,-1.6720453E-1,-1.7582926E-1,-5.316063E-1,-1.8017973E-1,-1.8722524E-1,-8.254695E-2,1.4008301E-2,-4.3231767E-2,9.175626E-2,-5.3931028E-2,1.5977966E-2,-3.652871E-2,7.512705E-2],"split_indices":[1634,1925,336,1720,1893,1831,86,0,0,0,0,0,0,0,0],"split_type":[0,0,0,0,0,0,0,0,0,0,0,0,0,0,0],"sum_hessian":[8.314346E2,1.6928027E2,6.621543E2,1.5318031E2,1.609995E1,5.1516595E2,1.4698831E2,1.280348E2,2.514551E1,5.1487484E0,1.0951201E1,1.115284E2,4.0363757E2,1.1886877E1,1.3510143E2],"tree_param":{"num_deleted":"0","num_feature":"2000","num_nodes":"15","size_leaf_vector":"1"}},{"base_weights":[-1.6393965E-2,-9.014185E-1,7.4967444E-2,-1.0519905E0,1.6250284E-1,-4.563847E-2,6.583986E-1,-1.0999369E-1,8.940807E-2,-8.5367404E-2,8.498093E-2,-6.2033202E-2,7.993185E-3,5.08565E-4,8.336849E-2],"categories":[],"categories_nodes":[],"categories_segments":[],"categories_sizes":[],"default_left":[0,0,0,0,0,0,0,0,0,0,0,0,0,0,0],"id":16,"left_children":[1,3,5,7,9,11,13,-1,-1,-1,-1,-1,-1,-1,-1],"loss_changes":[6.648905E1,1.24968605E1,5.248912E1,7.285103E0,7.9928875E0,4.4701153E1,1.4628475E1,0E0,0E0,0E0,0E0,0E0,0E0,0E0,0E0],"parents":[2147483647,0,0,1,1,2,2,3,3,4,4,5,5,6,6],"right_children":[2,4,6,8,10,12,14,-1,-1,-1,-1,-1,-1,-1,-1],"split_conditions":[-1.8779357E-1,-1.6179916E-1,-1.9616094E-1,2.0021062E0,-1.7616831E-1,-2.1155971E-1,-6.3138026E-1,-1.0999369E-1,8.940807E-2,-8.5367404E-2,8.498093E-2,-6.2033202E-2,7.993185E-3,5.08565E-4,8.336849E-2],"split_indices":[1838,1646,1925,1686,73,1784,1893,0,0,0,0,0,0,0,0],"split_type":[0,0,0,0,0,0,0,0,0,0,0,0,0,0,0],"sum_hessian":[8.2046765E2,7.594233E1,7.445253E2,6.653688E1,9.405451E0,6.177474E2,1.2677792E2,6.536133E1,1.1755508E0,3.6971653E0,5.708286E0,1.1006705E2,5.0768033E2,2.7036955E1,9.9740974E1],"tree_param":{"num_deleted":"0","num_feature":"2000","num_nodes":"15","size_leaf_vector":"1"}},{"base_weights":[-7.705516E-3,-1.8852626E-1,4.372243E-1,-4.4770408E-1,2.6518193E-1,5.6942636E-1,-2.0205817E-1,-5.2976858E-2,7.6980405E-2,7.1382644E-3,8.2671665E-2,-9.0236455E-2,6.1109673E-2,6.730401E-2,-4.1260984E-2],"categories":[],"categories_nodes":[],"categories_segments":[],"categories_sizes":[],"default_left":[0,0,0,0,0,0,0,0,0,0,0,0,0,0,0],"id":17,"left_children":[1,3,5,7,9,11,13,-1,-1,-1,-1,-1,-1,-1,-1],"loss_changes":[6.536257E1,6.8044044E1,1.9956684E1,3.7176674E1,2.2863415E1,1.2498718E1,7.8263345E0,0E0,0E0,0E0,0E0,0E0,0E0,0E0,0E0],"parents":[2147483647,0,0,1,1,2,2,3,3,4,4,5,5,6,6],"right_children":[2,4,6,8,10,12,14,-1,-1,-1,-1,-1,-1,-1,-1],"split_conditions":[-3.3242056E-1,-1.7650387E-1,-4.02248E-1,2.578841E-1,-9.9257335E-2,-5.1834816E-1,-5.029344E-1,-5.2976858E-2,7.6980405E-2,7.1382644E-3,8.2671665E-2,-9.0236455E-2,6.1109673E-2,6.730401E-2,-4.1260984E-2],"split_indices":[1866,1720,1896,1925,1859,1936,1910,0,0,0,0,0,0,0,0],"split_type":[0,0,0,0,0,0,0,0,0,0,0,0,0,0,0],"sum_hessian":[8.104119E2,5.7664E2,2.3377188E2,3.6700443E2,2.0963562E2,1.9380313E2,3.996875E1,3.443583E2,2.2646132E1,1.5668643E2,5.294918E1,4.767319E0,1.8903581E2,7.325565E0,3.2643185E1],"tree_param":{"num_deleted":"0","num_feature":"2000","num_nodes":"15","size_leaf_vector":"1"}},{"base_weights":[-5.3042164E-3,1.903589E-1,-3.5943148E-1,5.3062208E-2,6.94735E-1,-4.1856974E-1,1.0124397E0,1.175614E-2,-1.2297084E-1,6.607592E-3,9.196188E-2,-4.531177E-2,1.7911784E-1,-6.32765E-2,1.2304064E-1],"categories":[],"categories_nodes":[],"categories_segments":[],"categories_sizes":[],"default_left":[0,0,0,0,0,0,0,0,0,0,0,0,0,0,0],"id":18,"left_children":[1,3,5,7,9,11,13,-1,-1,-1,-1,-1,-1,-1,-1],"loss_changes":[5.590113E1,3.594998E1,2.371745E1,3.403077E1,1.5647423E1,2.1878838E1,5.138376E0,0E0,0E0,0E0,0E0,0E0,0E0,0E0,0E0],"parents":[2147483647,0,0,1,1,2,2,3,3,4,4,5,5,6,6],"right_children":[2,4,6,8,10,12,14,-1,-1,-1,-1,-1,-1,-1,-1],"split_conditions":[-4.9170938E-1,-2.6242787E-1,-1.6788493E-1,1.683832E-2,-1.2262417E-1,5.7891786E-1,-1.049999E0,1.175614E-2,-1.2297084E-1,6.607592E-3,9.196188E-2,-4.531177E-2,1.7911784E-1,-6.32765E-2,1.2304064E-1],"split_indices":[1896,1925,1373,1914,665,74,1887,0,0,0,0,0,0,0,0],"split_type":[0,0,0,0,0,0,0,0,0,0,0,0,0,0,0],"sum_hessian":[8.047872E2,5.1867194E2,2.8611523E2,4.0856207E2,1.1010988E2,2.7495734E2,1.1157892E1,3.8986743E2,1.869463E1,2.9351652E1,8.0758224E1,2.7150745E2,3.4498954E0,1.082697E0,1.0075195E1],"tree_param":{"num_deleted":"0","num_feature":"2000","num_nodes":"15","size_leaf_vector":"1"}},{"base_weights":[1.7108573E-2,2.9864788E-1,-2.593626E-1,-1.0718659E-1,5.0960577E-1,-3.8047656E-1,5.6424624E-1,-3.0856803E-2,5.1466566E-2,-6.8638645E-2,5.814327E-2,-8.279556E-2,-1.6748343E-2,9.2002355E-2,6.2773773E-3],"categories":[],"categories_nodes":[],"categories_segments":[],"categories_sizes":[],"default_left":[0,0,0,0,0,0,0,0,0,0,0,0,0,0,0],"id":19,"left_children":[1,3,5,7,9,11,13,-1,-1,-1,-1,-1,-1,-1,-1],"loss_changes":[6.2030373E1,3.385617E1,4.0325645E1,1.7172731E1,2.2730064E1,3.3330284E1,9.211458E0,0E0,0E0,0E0,0E0,0E0,0E0,0E0,0E0],"parents":[2147483647,0,0,1,1,2,2,3,3,4,4,5,5,6,6],"right_children":[2,4,6,8,10,12,14,-1,-1,-1,-1,-1,-1,-1,-1],"split_conditions":[-4.0753847E-1,-1.733889E-1,-1.5791908E-1,-1.708589E-1,-2.0175222E-1,-2.0107271E-1,-4.9575278E-1,-3.0856803E-2,5.1466566E-2,-6.8638645E-2,5.814327E-2,-8.279556E-2,-1.6748343E-2,9.2002355E-2,6.2773773E-3],"split_indices":[1935,1627,1686,47,1210,1778,1896,0,0,0,0,0,0,0,0],"split_type":[0,0,0,0,0,0,0,0,0,0,0,0,0,0,0],"sum_hessian":[7.949263E2,3.9381342E2,4.0111282E2,1.3486194E2,2.5895148E2,3.5015903E2,5.0953808E1,1.02252235E2,3.2609703E1,1.4185878E1,2.4476561E2,1.1199035E2,2.3816867E2,2.931862E1,2.1635187E1],"tree_param":{"num_deleted":"0","num_feature":"2000","num_nodes":"15","size_leaf_vector":"1"}},{"base_weights":[3.857181E-3,-7.91528E-1,7.8773946E-2,-9.5194805E-1,4.1449016E-1,-6.4331627E-1,1.5621297E-1,-1.01938784E-1,7.336321E-2,-6.734662E-2,1.342531E-1,-7.717883E-2,8.578732E-2,6.018639E-3,7.857485E-2],"categories":[],"categories_nodes":[],"categories_segments":[],"categories_sizes":[],"default_left":[0,0,0,0,0,0,0,0,0,0,0,0,0,0,0],"id":20,"left_children":[1,3,5,7,9,11,13,-1,-1,-1,-1,-1,-1,-1,-1],"loss_changes":[4.7086884E1,1.3554943E1,4.048123E1,7.607052E0,9.67066E0,1.4189169E1,3.942816E1,0E0,0E0,0E0,0E0,0E0,0E0,0E0,0E0],"parents":[2147483647,0,0,1,1,2,2,3,3,4,4,5,5,6,6],"right_children":[2,4,6,8,10,12,14,-1,-1,-1,-1,-1,-1,-1,-1],"split_conditions":[-1.8779357E-1,-1.5506363E-1,-2.2555044E-1,-1.5930712E-1,-1.481766E-1,-5.7368305E-2,-1.717484E-1,-1.01938784E-1,7.336321E-2,-6.734662E-2,1.342531E-1,-7.717883E-2,8.578732E-2,6.018639E-3,7.857485E-2],"split_indices":[1838,14,1621,1014,313,1686,14,0,0,0,0,0,0,0,0],"split_type":[0,0,0,0,0,0,0,0,0,0,0,0,0,0,0],"sum_hessian":[7.8816547E2,6.702294E1,7.211425E2,5.934037E1,7.682569E0,6.913905E1,6.520034E2,5.7437534E1,1.9028342E0,3.6628585E0,4.0197105E0,6.4136154E1,5.002898E0,5.666628E2,8.5340645E1],"tree_param":{"num_deleted":"0","num_feature":"2000","num_nodes":"15","size_leaf_vector":"1"}},{"base_weights":[-2.099498E-2,-2.1622416E-1,3.0158156E-1,-4.0836987E-1,2.9843304E-1,1.286403E-1,7.243372E-1,-5.1300284E-2,4.4784043E-2,-2.2305395E-2,5.1644232E-2,-4.996587E-2,2.9133368E-2,-8.047315E-2,8.46385E-2],"categories":[],"categories_nodes":[],"categories_segments":[],"categories_sizes":[],"default_left":[0,0,0,0,0,0,0,0,0,0,0,0,0,0,0],"id":21,"left_children":[1,3,5,7,9,11,13,-1,-1,-1,-1,-1,-1,-1,-1],"loss_changes":[4.861224E1,4.7669212E1,2.118697E1,3.163264E1,1.5041206E1,2.1384655E1,1.6410278E1,0E0,0E0,0E0,0E0,0E0,0E0,0E0,0E0],"parents":[2147483647,0,0,1,1,2,2,3,3,4,4,5,5,6,6],"right_children":[2,4,6,8,10,12,14,-1,-1,-1,-1,-1,-1,-1,-1],"split_conditions":[-1.7688255E-1,-3.246461E-1,-9.9257335E-2,-1.6291688E-1,-1.773798E-1,-1.808502E-1,-1.766704E-1,-5.1300284E-2,4.4784043E-2,-2.2305395E-2,5.1644232E-2,-4.996587E-2,2.9133368E-2,-8.047315E-2,8.46385E-2],"split_indices":[1720,1866,1859,14,1252,1784,1751,0,0,0,0,0,0,0,0],"split_type":[0,0,0,0,0,0,0,0,0,0,0,0,0,0,0],"sum_hessian":[7.6987714E2,4.7981442E2,2.900627E2,3.4952634E2,1.3028809E2,2.0677805E2,8.328466E1,3.1182117E2,3.7705185E1,3.8403122E1,9.188496E1,4.2104645E1,1.646734E2,5.742798E0,7.754186E1],"tree_param":{"num_deleted":"0","num_feature":"2000","num_nodes":"15","size_leaf_vector":"1"}},{"base_weights":[-1.7827086E-2,-1.5476246E-1,4.509142E-1,-7.2579414E-1,2.2356179E-2,5.707468E-1,-6.810151E-1,-8.5932605E-2,4.8154198E-2,1.0426972E-2,-6.679395E-2,-3.534259E-2,6.863218E-2,-9.818288E-2,3.4475394E-2],"categories":[],"categories_nodes":[],"categories_segments":[],"categories_sizes":[],"default_left":[0,0,0,0,0,0,0,0,0,0,0,0,0,0,0],"id":22,"left_children":[1,3,5,7,9,11,13,-1,-1,-1,-1,-1,-1,-1,-1],"loss_changes":[4.90314E1,5.9798313E1,2.3815807E1,2.2978401E1,2.5634401E1,1.6982334E1,5.581001E0,0E0,0E0,0E0,0E0,0E0,0E0,0E0,0E0],"parents":[2147483647,0,0,1,1,2,2,3,3,4,4,5,5,6,6],"right_children":[2,4,6,8,10,12,14,-1,-1,-1,-1,-1,-1,-1,-1],"split_conditions":[-8.754288E-2,-1.7763345E-1,4.6138275E-1,-9.763443E-3,-8.429912E-2,-2.0053932E-1,-1.1506844E-1,-8.5932605E-2,4.8154198E-2,1.0426972E-2,-6.679395E-2,-3.534259E-2,6.863218E-2,-9.818288E-2,3.4475394E-2],"split_indices":[1859,131,1935,1925,1862,83,313,0,0,0,0,0,0,0,0],"split_type":[0,0,0,0,0,0,0,0,0,0,0,0,0,0,0],"sum_hessian":[7.617933E2,5.9008044E2,1.7171286E2,1.3896347E2,4.5111697E2,1.5572292E2,1.5989953E1,1.2538418E2,1.357929E1,4.0402277E2,4.7094185E1,1.7080889E1,1.3864201E2,1.2397221E1,3.592733E0],"tree_param":{"num_deleted":"0","num_feature":"2000","num_nodes":"15","size_leaf_vector":"1"}},{"base_weights":[1.36653455E-2,9.302289E-2,-7.075147E-1,1.5509818E-1,-8.787935E-1,-8.9559984E-1,4.0210223E-1,6.2418603E-3,7.777399E-2,-1.0290199E-1,4.0329006E-2,-9.9114984E-2,7.6825574E-2,8.364695E-2,-7.601813E-2],"categories":[],"categories_nodes":[],"categories_segments":[],"categories_sizes":[],"default_left":[0,0,0,0,0,0,0,0,0,0,0,0,0,0,0],"id":23,"left_children":[1,3,5,7,9,11,13,-1,-1,-1,-1,-1,-1,-1,-1],"loss_changes":[4.3864285E1,4.177991E1,1.6217289E1,3.744403E1,8.4266205E0,1.1139343E1,6.5439343E0,0E0,0E0,0E0,0E0,0E0,0E0,0E0,0E0],"parents":[2147483647,0,0,1,1,2,2,3,3,4,4,5,5,6,6],"right_children":[2,4,6,8,10,12,14,-1,-1,-1,-1,-1,-1,-1,-1],"split_conditions":[-7.8933224E-2,-3.0591061E-2,-2.1230699E-1,-1.6989116E-1,-3.0810343E-2,-1.0552189E-1,-1.5203251E-1,6.2418603E-3,7.777399E-2,-1.0290199E-1,4.0329006E-2,-9.9114984E-2,7.6825574E-2,8.364695E-2,-7.601813E-2],"split_indices":[1862,1914,1866,14,1689,1531,1710,0,0,0,0,0,0,0,0],"split_type":[0,0,0,0,0,0,0,0,0,0,0,0,0,0,0],"sum_hessian":[7.642916E2,6.893118E2,7.49798E1,6.487152E2,4.059663E1,6.427737E1,1.0702432E1,5.6562305E2,8.309216E1,3.6515377E1,4.081255E0,6.1168934E1,3.1084352E0,7.9949064E0,2.7075253E0],"tree_param":{"num_deleted":"0","num_feature":"2000","num_nodes":"15","size_leaf_vector":"1"}},{"base_weights":[-5.692594E-3,-7.2189584E-2,8.970735E-1,-5.749008E-1,4.661198E-2,-1.0542818E-1,9.7661936E-1,-7.7706285E-2,9.9051525E-5,-2.7592054E-3,7.676062E-2,7.0325746E-3,1.1057901E-1],"categories":[],"categories_nodes":[],"categories_segments":[],"categories_sizes":[],"default_left":[0,0,0,0,0,0,0,0,0,0,0,0,0],"id":24,"left_children":[1,3,5,7,9,-1,11,-1,-1,-1,-1,-1,-1],"loss_changes":[4.5426586E1,4.21148E1,9.088078E0,1.5692528E1,3.0566849E1,0E0,5.822525E0,0E0,0E0,0E0,0E0,0E0,0E0],"parents":[2147483647,0,0,1,1,2,2,3,3,4,4,6,6],"right_children":[2,4,6,8,10,-1,12,-1,-1,-1,-1,-1,-1],"split_conditions":[-7.0020095E-2,-1.7660767E-1,-1.8420982E-1,-1.7620175E-1,-1.6117832E-1,-1.0542818E-1,-3.651488E-1,-7.7706285E-2,9.9051525E-5,-2.7592054E-3,7.676062E-2,7.0325746E-3,1.1057901E-1],"split_indices":[1686,1210,70,1720,14,0,1984,0,0,0,0,0,0],"split_type":[0,0,0,0,0,0,0,0,0,0,0,0,0],"sum_hessian":[7.5463715E2,7.037217E2,5.0915512E1,1.3378186E2,5.699398E2,1.514295E0,4.9401215E1,9.876269E1,3.501917E1,5.176278E2,5.2312023E1,6.355296E0,4.304592E1],"tree_param":{"num_deleted":"0","num_feature":"2000","num_nodes":"13","size_leaf_vector":"1"}},{"base_weights":[-4.4769596E-4,-1.1249117E-1,5.5714375E-1,1.974994E-2,-6.083619E-1,-1.9229004E-1,5.953718E-1,-4.2835187E-2,1.4838192E-2,-6.936785E-2,8.3481185E-2,-1.347507E-1,6.329475E-2],"categories":[],"categories_nodes":[],"categories_segments":[],"categories_sizes":[],"default_left":[0,0,0,0,0,0,0,0,0,0,0,0,0],"id":25,"left_children":[1,3,5,7,9,-1,11,-1,-1,-1,-1,-1,-1],"loss_changes":[4.7360413E1,4.14047E1,1.3170338E1,2.884344E1,1.6946228E1,0E0,1.0028164E1,0E0,0E0,0E0,0E0,0E0,0E0],"parents":[2147483647,0,0,1,1,2,2,3,3,4,4,6,6],"right_children":[2,4,6,8,10,-1,12,-1,-1,-1,-1,-1,-1],"split_conditions":[-2.6382706E-1,-3.9398986E-1,-1.941315E-1,-1.8622547E-1,1.7312843E-1,-1.9229004E-1,-1.8857339E-1,-4.2835187E-2,1.4838192E-2,-6.936785E-2,8.3481185E-2,-1.347507E-1,6.329475E-2],"split_indices":[1866,1914,78,1778,1925,0,1849,0,0,0,0,0,0],"split_type":[0,0,0,0,0,0,0,0,0,0,0,0,0],"sum_hessian":[7.56073E2,6.302314E2,1.2584162E2,4.9830203E2,1.3192932E2,1.1619091E0,1.2467971E2,1.1061925E2,3.876828E2,1.2505571E2,6.87362E0,1.704156E0,1.22975555E2],"tree_param":{"num_deleted":"0","num_feature":"2000","num_nodes":"13","size_leaf_vector":"1"}},{"base_weights":[3.0854815E-3,-6.309245E-1,8.5629515E-2,-9.584142E-1,-9.152636E-2,-5.872115E-1,1.5703064E-1,-1.6133683E-3,-1.1172771E-1,-1.0089388E-1,2.73781E-2,5.7827093E-2,-7.086395E-2,-8.705562E-3,3.6818445E-2],"categories":[],"categories_nodes":[],"categories_segments":[],"categories_sizes":[],"default_left":[0,0,0,0,0,0,0,0,0,0,0,0,0,0,0],"id":26,"left_children":[1,3,5,7,9,11,13,-1,-1,-1,-1,-1,-1,-1,-1],"loss_changes":[3.9033455E1,1.508984E1,3.1795055E1,7.969002E0,1.1524837E1,9.399395E0,3.0821022E1,0E0,0E0,0E0,0E0,0E0,0E0,0E0,0E0],"parents":[2147483647,0,0,1,1,2,2,3,3,4,4,5,5,6,6],"right_children":[2,4,6,8,10,12,14,-1,-1,-1,-1,-1,-1,-1,-1],"split_conditions":[-1.8652177E-1,-1.5331914E-1,-2.221929E-1,-6.7568517E-1,-1.8561652E-1,1.2560241E0,-1.1667151E-1,-1.6133683E-3,-1.1172771E-1,-1.0089388E-1,2.73781E-2,5.7827093E-2,-7.086395E-2,-8.705562E-3,3.6818445E-2],"split_indices":[105,155,1601,1932,1210,563,1859,0,0,0,0,0,0,0,0],"split_type":[0,0,0,0,0,0,0,0,0,0,0,0,0,0,0],"sum_hessian":[7.4382404E2,8.492012E1,6.589039E2,5.2355957E1,3.2564163E1,6.2520874E1,5.96383E2,7.712358E0,4.46436E1,8.772218E0,2.3791945E1,5.5442376E0,5.6976635E1,2.768927E2,3.1949033E2],"tree_param":{"num_deleted":"0","num_feature":"2000","num_nodes":"15","size_leaf_vector":"1"}},{"base_weights":[-4.4356534E-4,-7.856231E-1,6.677028E-2,-9.249872E-1,3.892332E-1,-7.97542E-2,4.525628E-1,-1.0461815E-1,3.661586E-2,-8.8841975E-2,1.0781856E-1,-1.262462E-2,1.2089781E-1,-3.3292975E-2,5.671307E-2],"categories":[],"categories_nodes":[],"categories_segments":[],"categories_sizes":[],"default_left":[0,0,0,0,0,0,0,0,0,0,0,0,0,0,0],"id":27,"left_children":[1,3,5,7,9,11,13,-1,-1,-1,-1,-1,-1,-1,-1],"loss_changes":[3.9037777E1,9.910217E0,3.855325E1,8.588654E0,7.0219564E0,2.9791494E1,1.7080853E1,0E0,0E0,0E0,0E0,0E0,0E0,0E0,0E0],"parents":[2147483647,0,0,1,1,2,2,3,3,4,4,5,5,6,6],"right_children":[2,4,6,8,10,12,14,-1,-1,-1,-1,-1,-1,-1,-1],"split_conditions":[-2.0061673E-1,-9.249644E-2,-1.3630551E-1,-1.5143837E-1,-1.7339438E-1,-1.7002833E-1,-2.221929E-1,-1.0461815E-1,3.661586E-2,-8.8841975E-2,1.0781856E-1,-1.262462E-2,1.2089781E-1,-3.3292975E-2,5.671307E-2],"split_indices":[1529,336,155,76,1561,1567,1601,0,0,0,0,0,0,0,0],"split_type":[0,0,0,0,0,0,0,0,0,0,0,0,0,0,0],"sum_hessian":[7.377091E2,5.7327824E1,6.803813E2,5.1438725E1,5.889099E0,4.9367587E2,1.8670543E2,4.7198162E1,4.240562E0,1.9616754E0,3.9274237E0,4.7735687E2,1.6318974E1,2.3522964E1,1.6318246E2],"tree_param":{"num_deleted":"0","num_feature":"2000","num_nodes":"15","size_leaf_vector":"1"}},{"base_weights":[-1.9054465E-2,-4.6307826E-1,9.4990626E-2,-5.4839396E-1,7.3718876E-1,3.7200954E-2,9.411635E-1,-7.230277E-2,-6.2495996E-3,1.01826094E-1,-8.922746E-2,-6.959657E-2,1.088901E-2,-8.567172E-2,1.0256674E-1],"categories":[],"categories_nodes":[],"categories_segments":[],"categories_sizes":[],"default_left":[0,0,0,0,0,0,0,0,0,0,0,0,0,0,0],"id":28,"left_children":[1,3,5,7,9,11,13,-1,-1,-1,-1,-1,-1,-1,-1],"loss_changes":[3.768328E1,1.5976135E1,2.8924776E1,1.2050644E1,5.7258863E0,2.9267902E1,6.624523E0,0E0,0E0,0E0,0E0,0E0,0E0,0E0,0E0],"parents":[2147483647,0,0,1,1,2,2,3,3,4,4,5,5,6,6],"right_children":[2,4,6,8,10,12,14,-1,-1,-1,-1,-1,-1,-1,-1],"split_conditions":[-1.8917501E-1,9.231964E-2,-5.7368305E-2,1.14457846E-1,-7.710475E-2,-1.7954232E-1,-1.8420982E-1,-7.230277E-2,-6.2495996E-3,1.01826094E-1,-8.922746E-2,-6.959657E-2,1.088901E-2,-8.567172E-2,1.0256674E-1],"split_indices":[159,1866,1686,1998,1862,1780,70,0,0,0,0,0,0,0,0],"split_type":[0,0,0,0,0,0,0,0,0,0,0,0,0,0,0],"sum_hessian":[7.422906E2,1.510666E2,5.91224E2,1.4154837E2,9.518235E0,5.544047E2,3.68193E1,1.037663E2,3.778207E1,8.437853E0,1.0803821E0,4.8605625E1,5.0579907E2,1.2426603E0,3.557664E1],"tree_param":{"num_deleted":"0","num_feature":"2000","num_nodes":"15","size_leaf_vector":"1"}},{"base_weights":[-1.0199141E-2,-6.3492435E-1,7.24982E-2,-7.2936636E-1,7.46724E-1,-1.3547988E-1,2.9143822E-1,-7.8788035E-2,1.1551162E-1,-6.838317E-2,1.174194E-1,-5.9133835E-2,2.8336379E-3,-4.400629E-2,3.7758395E-2],"categories":[],"categories_nodes":[],"categories_segments":[],"categories_sizes":[],"default_left":[0,0,0,0,0,0,0,0,0,0,0,0,0,0,0],"id":29,"left_children":[1,3,5,7,9,11,13,-1,-1,-1,-1,-1,-1,-1,-1],"loss_changes":[3.820853E1,1.1825611E1,2.978395E1,9.889069E0,4.4876833E0,2.5084497E1,2.0239426E1,0E0,0E0,0E0,0E0,0E0,0E0,0E0,0E0],"parents":[2147483647,0,0,1,1,2,2,3,3,4,4,5,5,6,6],"right_children":[2,4,6,8,10,12,14,-1,-1,-1,-1,-1,-1,-1,-1],"split_conditions":[-1.8421592E-1,-1.7410862E-1,-2.477379E-1,-1.7393675E-1,-1.9750476E-1,-7.626883E-2,-1.6429414E-1,-7.8788035E-2,1.1551162E-1,-6.838317E-2,1.174194E-1,-5.9133835E-2,2.8336379E-3,-4.400629E-2,3.7758395E-2],"split_indices":[1520,1781,1647,1643,1527,1738,128,0,0,0,0,0,0,0,0],"split_type":[0,0,0,0,0,0,0,0,0,0,0,0,0,0,0],"sum_hessian":[7.3767975E2,8.545377E1,6.52226E2,8.042824E1,5.025535E0,3.3468207E2,3.175439E2,7.85705E1,1.8577359E0,1.0182333E0,4.007302E0,8.7786125E1,2.4689595E2,3.3022972E1,2.8452094E2],"tree_param":{"num_deleted":"0","num_feature":"2000","num_nodes":"15","size_leaf_vector":"1"}},{"base_weights":[2.5041668E-2,-4.5823053E-2,6.4097434E-1,-5.15378E-1,6.478383E-2,-1.312559E-1,6.890884E-1,1.9273508E-2,-6.2878214E-2,-5.1249392E-2,1.4337579E-2,-1.104365E-2,8.066964E-2],"categories":[],"categories_nodes":[],"categories_segments":[],"categories_sizes":[],"default_left":[0,0,0,0,0,0,0,0,0,0,0,0,0],"id":30,"left_children":[1,3,5,7,9,-1,11,-1,-1,-1,-1,-1,-1],"loss_changes":[3.2129227E1,3.4335987E1,8.043108E0,1.0241825E1,2.4366405E1,0E0,7.1206284E0,0E0,0E0,0E0,0E0,0E0,0E0],"parents":[2147483647,0,0,1,1,2,2,3,3,4,4,6,6],"right_children":[2,4,6,8,10,-1,12,-1,-1,-1,-1,-1,-1],"split_conditions":[-1.5765676E-1,-2.1155971E-1,-4.92689E-1,-1.5999301E-1,-1.7710699E-1,-1.312559E-1,-1.750878E-1,1.9273508E-2,-6.2878214E-2,-5.1249392E-2,1.4337579E-2,-1.104365E-2,8.066964E-2],"split_indices":[1686,1784,1937,101,1362,0,203,0,0,0,0,0,0],"split_type":[0,0,0,0,0,0,0,0,0,0,0,0,0],"sum_hessian":[7.344273E2,6.5947815E2,7.494914E1,1.2503072E2,5.3444745E2,1.1698662E0,7.3779274E1,1.7162964E1,1.0786776E2,6.338053E1,4.7106693E2,9.468865E0,6.431041E1],"tree_param":{"num_deleted":"0","num_feature":"2000","num_nodes":"13","size_leaf_vector":"1"}},{"base_weights":[-1.5956936E-2,7.168634E-2,-5.1017565E-1,2.1296676E-2,9.5676494E-1,-6.1679965E-1,7.8355366E-1,-1.1777031E-2,3.0331174E-2,-6.9480404E-2,1.0674586E-1,-6.9517314E-2,7.1926706E-2,1.0687176E-1,-4.4122647E-2],"categories":[],"categories_nodes":[],"categories_segments":[],"categories_sizes":[],"default_left":[0,0,0,0,0,0,0,0,0,0,0,0,0,0,0],"id":31,"left_children":[1,3,5,7,9,11,13,-1,-1,-1,-1,-1,-1,-1,-1],"loss_changes":[3.166425E1,2.7678717E1,1.5671724E1,2.312161E1,6.853609E0,1.121027E1,3.5534735E0,0E0,0E0,0E0,0E0,0E0,0E0,0E0,0E0],"parents":[2147483647,0,0,1,1,2,2,3,3,4,4,5,5,6,6],"right_children":[2,4,6,8,10,12,14,-1,-1,-1,-1,-1,-1,-1,-1],"split_conditions":[-1.6853628E-1,-1.5640718E-1,9.417762E-3,-4.5600635E-1,-3.9793193E-1,-1.7160022E-1,-1.6293402E-1,-1.1777031E-2,3.0331174E-2,-6.9480404E-2,1.0674586E-1,-6.9517314E-2,7.1926706E-2,1.0687176E-1,-4.4122647E-2],"split_indices":[1901,1246,1859,1915,289,1740,1843,0,0,0,0,0,0,0,0],"split_type":[0,0,0,0,0,0,0,0,0,0,0,0,0,0,0],"sum_hessian":[7.291792E2,6.200724E2,1.0910685E2,5.876406E2,3.2431744E1,1.0128277E2,7.8240848E0,3.939559E2,1.9368474E2,1.7056937E0,3.072605E1,9.612384E1,5.158924E0,6.449806E0,1.3742788E0],"tree_param":{"num_deleted":"0","num_feature":"2000","num_nodes":"15","size_leaf_vector":"1"}},{"base_weights":[-1.5927486E-2,-1.11041866E-1,4.1046283E-1,-3.510305E-1,1.2787317E-1,5.7127583E-1,-2.4003294E-1,-4.321744E-2,5.2407343E-2,-6.7612275E-2,2.293201E-2,-6.587655E-2,6.484769E-2,1.0469742E-1,-4.4554852E-2],"categories":[],"categories_nodes":[],"categories_segments":[],"categories_sizes":[],"default_left":[0,0,0,0,0,0,0,0,0,0,0,0,0,0,0],"id":32,"left_children":[1,3,5,7,9,11,13,-1,-1,-1,-1,-1,-1,-1,-1],"loss_changes":[2.9743908E1,3.441906E1,1.41305485E1,2.148322E1,2.471863E1,1.0640259E1,7.6659656E0,0E0,0E0,0E0,0E0,0E0,0E0,0E0,0E0],"parents":[2147483647,0,0,1,1,2,2,3,3,4,4,5,5,6,6],"right_children":[2,4,6,8,10,12,14,-1,-1,-1,-1,-1,-1,-1,-1],"split_conditions":[-6.742412E-2,-6.0214136E-2,-1.957094E-1,-1.7258799E-1,-1.7587684E-1,-4.890819E-1,-1.5171342E-1,-4.321744E-2,5.2407343E-2,-6.7612275E-2,2.293201E-2,-6.587655E-2,6.484769E-2,1.0469742E-1,-4.4554852E-2],"split_indices":[155,1998,1897,1549,63,1937,1977,0,0,0,0,0,0,0,0],"split_type":[0,0,0,0,0,0,0,0,0,0,0,0,0,0,0],"sum_hessian":[7.312822E2,5.985124E2,1.3276987E2,2.9835123E2,3.0016116E2,1.0655063E2,2.621924E1,2.7349738E2,2.4853859E1,3.299573E1,2.6716544E2,5.847622E0,1.00703E2,3.0465221E0,2.3172718E1],"tree_param":{"num_deleted":"0","num_feature":"2000","num_nodes":"15","size_leaf_vector":"1"}},{"base_weights":[-2.3241922E-2,-1.7180167E-1,2.3939367E-1,-4.0869963E-1,5.184749E-2,-3.3652353E-1,3.5700288E-1,-4.601702E-2,7.722493E-2,-1.2042338E-1,1.0263174E-2,-1.2479932E-2,-1.1868663E-1,-1.339292E-1,3.9643038E-2],"categories":[],"categories_nodes":[],"categories_segments":[],"categories_sizes":[],"default_left":[0,0,0,0,0,0,0,0,0,0,0,0,0,0,0],"id":33,"left_children":[1,3,5,7,9,11,13,-1,-1,-1,-1,-1,-1,-1,-1],"loss_changes":[2.8198696E1,2.4473654E1,1.7808607E1,1.3985348E1,1.5323763E1,7.917739E0,1.5067343E1,0E0,0E0,0E0,0E0,0E0,0E0,0E0,0E0],"parents":[2147483647,0,0,1,1,2,2,3,3,4,4,5,5,6,6],"right_children":[2,4,6,8,10,12,14,-1,-1,-1,-1,-1,-1,-1,-1],"split_conditions":[-3.4299436E-1,-2.477379E-1,-2.2412756E-1,-1.291007E-1,-1.8100673E-1,-8.206586E-2,-1.755861E-1,-4.601702E-2,7.722493E-2,-1.2042338E-1,1.0263174E-2,-1.2479932E-2,-1.1868663E-1,-1.339292E-1,3.9643038E-2],"split_indices":[1866,1647,1700,76,1789,1862,147,0,0,0,0,0,0,0,0],"split_type":[0,0,0,0,0,0,0,0,0,0,0,0,0,0,0],"sum_hessian":[7.20673E2,4.605237E2,2.6014926E2,2.2323598E2,2.3728773E2,4.380083E1,2.1634842E2,2.1449765E2,8.738341E0,8.338295E0,2.2894943E2,3.5987244E1,7.813588E0,4.165537E0,2.1218289E2],"tree_param":{"num_deleted":"0","num_feature":"2000","num_nodes":"15","size_leaf_vector":"1"}},{"base_weights":[1.1194681E-2,-8.530792E-1,6.026136E-2,-9.443992E-1,1.2456013E-1,-2.3944912E-2,5.1866186E-1,-1.1237816E-1,2.7560517E-2,-1.1466089E-2,4.3386143E-2,-1.5840386E-1,5.7355326E-2],"categories":[],"categories_nodes":[],"categories_segments":[],"categories_sizes":[],"default_left":[0,0,0,0,0,0,0,0,0,0,0,0,0],"id":34,"left_children":[1,3,5,7,-1,9,11,-1,-1,-1,-1,-1,-1],"loss_changes":[3.0660059E1,8.620422E0,2.6412655E1,8.580135E0,0E0,2.4085714E1,1.3164284E1,0E0,0E0,0E0,0E0,0E0,0E0],"parents":[2147483647,0,0,1,1,2,2,3,3,5,5,6,6],"right_children":[2,4,6,8,-1,10,12,-1,-1,-1,-1,-1,-1],"split_conditions":[-1.7640679E-1,-1.727199E-1,-2.5952855E-1,-1.7142646E-1,1.2456013E-1,-1.7263342E-1,-1.7454392E-1,-1.1237816E-1,2.7560517E-2,-1.1466089E-2,4.3386143E-2,-1.5840386E-1,5.7355326E-2],"split_indices":[151,1191,1866,146,0,1811,1572,0,0,0,0,0,0],"split_type":[0,0,0,0,0,0,0,0,0,0,0,0,0],"sum_hessian":[7.2078217E2,3.7841717E1,6.829404E2,3.6790836E1,1.0508784E0,5.777567E2,1.0518375E2,3.2143513E1,4.6473246E0,4.8283145E2,9.492524E1,1.9672576E0,1.0321649E2],"tree_param":{"num_deleted":"0","num_feature":"2000","num_nodes":"13","size_leaf_vector":"1"}},{"base_weights":[-1.201416E-2,-5.97767E-1,5.5084042E-2,-7.5321364E-1,6.3327444E-1,-4.9810746E-1,1.3201852E-1,-8.068999E-2,1.2550412E-1,-4.7045205E-2,1.0738277E-1,-9.802308E-2,-8.698386E-3,2.0789651E-2,-4.5015067E-2],"categories":[],"categories_nodes":[],"categories_segments":[],"categories_sizes":[],"default_left":[0,0,0,0,0,0,0,0,0,0,0,0,0,0,0],"id":35,"left_children":[1,3,5,7,9,11,13,-1,-1,-1,-1,-1,-1,-1,-1],"loss_changes":[2.8077772E1,1.4527039E1,2.7352093E1,8.090427E0,4.7720027E0,1.5472017E1,2.4991982E1,0E0,0E0,0E0,0E0,0E0,0E0,0E0,0E0],"parents":[2147483647,0,0,1,1,2,2,3,3,4,4,5,5,6,6],"right_children":[2,4,6,8,10,12,14,-1,-1,-1,-1,-1,-1,-1,-1],"split_conditions":[-1.7454392E-1,-1.5880506E-1,-1.7643405E-1,-1.7085648E-1,-1.7800978E-1,-1.7043369E-1,-8.3998635E-2,-8.068999E-2,1.2550412E-1,-4.7045205E-2,1.0738277E-1,-9.802308E-2,-8.698386E-3,2.0789651E-2,-4.5015067E-2],"split_indices":[1595,1759,163,1611,1180,123,1862,0,0,0,0,0,0,0,0],"split_type":[0,0,0,0,0,0,0,0,0,0,0,0,0,0,0],"sum_hessian":[7.125554E2,7.24216E1,6.4013385E2,6.464666E1,7.7749443E0,7.748798E1,5.626459E2,6.3546104E1,1.1005555E0,2.1986806E0,5.5762634E0,3.50273E1,4.246068E1,4.9833713E2,6.43087E1],"tree_param":{"num_deleted":"0","num_feature":"2000","num_nodes":"15","size_leaf_vector":"1"}},{"base_weights":[-7.1647586E-3,-1.1980088E0,2.4665238E-2,-1.3249989E0,4.2610917E-2,-7.479184E-3,1.2499266E0,3.2203496E-2,-1.4728227E-1,-9.984749E-3,3.6102246E-2,-1.13169355E-2,1.3463049E-1],"categories":[],"categories_nodes":[],"categories_segments":[],"categories_sizes":[],"default_left":[0,0,0,0,0,0,0,0,0,0,0,0,0],"id":36,"left_children":[1,3,5,7,-1,9,11,-1,-1,-1,-1,-1,-1],"loss_changes":[2.7047253E1,4.395859E0,2.7390268E1,4.7282963E0,0E0,2.3128298E1,2.4879417E0,0E0,0E0,0E0,0E0,0E0,0E0],"parents":[2147483647,0,0,1,1,2,2,3,3,5,5,6,6],"right_children":[2,4,6,8,-1,10,12,-1,-1,-1,-1,-1,-1],"split_conditions":[-1.7912908E-1,-1.7311521E-1,-1.6607277E-1,-4.7139344E-1,4.2610917E-2,-1.6483125E-1,-5.226633E-1,3.2203496E-2,-1.4728227E-1,-9.984749E-3,3.6102246E-2,-1.13169355E-2,1.3463049E-1],"split_indices":[1828,934,1198,1937,0,336,1865,0,0,0,0,0,0],"split_type":[0,0,0,0,0,0,0,0,0,0,0,0,0],"sum_hessian":[7.117824E2,1.757611E1,6.942063E2,1.6472311E1,1.1038E0,6.7742804E2,1.677826E1,1.2595924E0,1.5212719E1,5.4223975E2,1.3518831E2,1.0964689E0,1.5681789E1],"tree_param":{"num_deleted":"0","num_feature":"2000","num_nodes":"13","size_leaf_vector":"1"}},{"base_weights":[-1.987052E-2,-5.1316693E-2,1.0993682E0,-1.4077409E-1,3.5001594E-1,1.2048821E0,-3.3187255E-2,3.677625E-3,-4.601028E-2,-4.738252E-2,4.8409335E-2,5.088515E-3,1.3018852E-1],"categories":[],"categories_nodes":[],"categories_segments":[],"categories_sizes":[],"default_left":[0,0,0,0,0,0,0,0,0,0,0,0,0],"id":37,"left_children":[1,3,5,7,9,11,-1,-1,-1,-1,-1,-1,-1],"loss_changes":[2.489406E1,2.472733E1,3.3190231E0,3.1925617E1,1.410022E1,1.9731941E0,0E0,0E0,0E0,0E0,0E0,0E0,0E0],"parents":[2147483647,0,0,1,1,2,2,3,3,4,4,5,5],"right_children":[2,4,6,8,10,12,-1,-1,-1,-1,-1,-1,-1],"split_conditions":[-1.6607277E-1,-7.066193E-2,1.4526948E0,-1.6548887E-1,-6.436739E-1,-1.7709886E-1,-3.3187255E-2,3.677625E-3,-4.601028E-2,-4.738252E-2,4.8409335E-2,5.088515E-3,1.3018852E-1],"split_indices":[1198,155,1792,173,1893,1568,0,0,0,0,0,0,0],"split_type":[0,0,0,0,0,0,0,0,0,0,0,0,0],"sum_hessian":[7.046995E2,6.8636945E2,1.8330112E1,5.6179425E2,1.24575195E2,1.7218859E1,1.1112543E0,3.6161633E2,2.0017792E2,1.7081797E1,1.0749339E2,1.453373E0,1.5765486E1],"tree_param":{"num_deleted":"0","num_feature":"2000","num_nodes":"13","size_leaf_vector":"1"}},{"base_weights":[1.7695403E-2,-9.622659E-1,5.9163887E-2,-1.0705032E0,6.994932E-2,1.0681457E-2,8.074637E-1,-1.22609355E-1,3.7444018E-2,-6.810502E-2,6.7088255E-3,-6.039952E-2,9.468862E-2],"categories":[],"categories_nodes":[],"categories_segments":[],"categories_sizes":[],"default_left":[0,0,0,0,0,0,0,0,0,0,0,0,0],"id":38,"left_children":[1,3,5,7,-1,9,11,-1,-1,-1,-1,-1,-1],"loss_changes":[2.8765902E1,5.917988E0,2.4615124E1,6.613987E0,0E0,2.4956575E1,8.696455E0,0E0,0E0,0E0,0E0,0E0,0E0],"parents":[2147483647,0,0,1,1,2,2,3,3,5,5,6,6],"right_children":[2,4,6,8,-1,10,12,-1,-1,-1,-1,-1,-1],"split_conditions":[-1.8580854E-1,-1.505018E-1,-1.7255202E-1,2.6876897E-2,6.994932E-2,-1.8779357E-1,-1.808006E-1,-1.22609355E-1,3.7444018E-2,-6.810502E-2,6.7088255E-3,-6.039952E-2,9.468862E-2],"split_indices":[122,1905,1246,313,0,1838,763,0,0,0,0,0,0],"split_type":[0,0,0,0,0,0,0,0,0,0,0,0,0],"sum_hessian":[7.054648E2,2.773931E1,6.777255E2,2.6377062E1,1.3622468E0,6.3743994E2,4.028553E1,2.3949644E1,2.4274194E0,4.7225624E1,5.9021436E2,3.3220694E0,3.6963463E1],"tree_param":{"num_deleted":"0","num_feature":"2000","num_nodes":"13","size_leaf_vector":"1"}},{"base_weights":[5.196795E-3,-8.59217E-1,4.506053E-2,-1.0684642E0,1.0384188E-1,-7.186419E-1,9.0279065E-2,-1.12737514E-1,1.7795386E-2,-8.107972E-2,1.08522095E-1,-9.306686E-2,3.6738284E-2,-5.9246644E-4,4.472541E-2],"categories":[],"categories_nodes":[],"categories_segments":[],"categories_sizes":[],"default_left":[0,0,0,0,0,0,0,0,0,0,0,0,0,0,0],"id":39,"left_children":[1,3,5,7,9,11,13,-1,-1,-1,-1,-1,-1,-1,-1],"loss_changes":[2.412399E1,6.330267E0,2.3171139E1,2.0687904E0,6.6426373E0,8.98012E0,2.172702E1,0E0,0E0,0E0,0E0,0E0,0E0,0E0,0E0],"parents":[2147483647,0,0,1,1,2,2,3,3,4,4,5,5,6,6],"right_children":[2,4,6,8,10,12,14,-1,-1,-1,-1,-1,-1,-1,-1],"split_conditions":[-2.0914184E-1,-1.7331259E-1,-1.7640749E-1,-1.6492778E-1,-1.2530677E-1,-1.6775194E-1,-8.754288E-2,-1.12737514E-1,1.7795386E-2,-8.107972E-2,1.08522095E-1,-9.306686E-2,3.6738284E-2,-5.9246644E-4,4.472541E-2],"split_indices":[1615,1033,122,1194,1880,1742,1859,0,0,0,0,0,0,0,0],"split_type":[0,0,0,0,0,0,0,0,0,0,0,0,0,0,0],"sum_hessian":[6.9795935E2,2.9862417E1,6.680969E2,2.4442303E1,5.420114E0,3.6514E1,6.315829E2,2.3430393E1,1.0119097E0,2.8954196E0,2.5246944E0,3.0669403E1,5.8445964E0,4.98281E2,1.3330188E2],"tree_param":{"num_deleted":"0","num_feature":"2000","num_nodes":"15","size_leaf_vector":"1"}},{"base_weights":[1.874896E-2,-1.1655849E0,5.1803734E-2,-1.324601E0,8.2158975E-2,-5.7017845E-1,1.1505969E-1,-1.5412419E-1,9.765364E-3,-8.4932856E-2,1.4179758E-2,-8.770498E-3,3.1564046E-2],"categories":[],"categories_nodes":[],"categories_segments":[],"categories_sizes":[],"default_left":[0,0,0,0,0,0,0,0,0,0,0,0,0],"id":40,"left_children":[1,3,5,7,-1,9,11,-1,-1,-1,-1,-1,-1],"loss_changes":[2.7684715E1,7.156048E0,2.7112225E1,5.7466507E0,0E0,1.2766174E1,2.5439184E1,0E0,0E0,0E0,0E0,0E0,0E0],"parents":[2147483647,0,0,1,1,2,2,3,3,5,5,6,6],"right_children":[2,4,6,8,-1,10,12,-1,-1,-1,-1,-1,-1],"split_conditions":[-1.7677249E-1,-9.505148E-2,-1.8678872E-1,-1.4606225E-1,8.2158975E-2,-7.85703E-2,-1.1530406E-1,-1.5412419E-1,9.765364E-3,-8.4932856E-2,1.4179758E-2,-8.770498E-3,3.1564046E-2],"split_indices":[1190,1884,1617,9,0,1859,1859,0,0,0,0,0,0],"split_type":[0,0,0,0,0,0,0,0,0,0,0,0,0],"sum_hessian":[7.046404E2,1.8202238E1,6.864382E2,1.7162313E1,1.0399241E0,6.2626957E1,6.238112E2,1.4821077E1,2.341237E0,4.4849525E1,1.7777431E1,3.1049664E2,3.1331458E2],"tree_param":{"num_deleted":"0","num_feature":"2000","num_nodes":"13","size_leaf_vector":"1"}},{"base_weights":[-3.574606E-3,5.7462033E-2,-5.9279144E-1,-3.9581433E-2,4.134476E-1,-7.8858274E-1,2.9786876E-1,-1.8192079E-2,3.0160723E-2,-8.64768E-2,4.7867972E-2,-9.113734E-2,3.64459E-2,-2.7097786E-2,1.0785516E-1],"categories":[],"categories_nodes":[],"categories_segments":[],"categories_sizes":[],"default_left":[0,0,0,0,0,0,0,0,0,0,0,0,0,0,0],"id":41,"left_children":[1,3,5,7,9,11,13,-1,-1,-1,-1,-1,-1,-1,-1],"loss_changes":[2.5108505E1,2.187298E1,1.1662762E1,2.4243244E1,1.1721546E1,7.9772415E0,5.8591995E0,0E0,0E0,0E0,0E0,0E0,0E0,0E0,0E0],"parents":[2147483647,0,0,1,1,2,2,3,3,4,4,5,5,6,6],"right_children":[2,4,6,8,10,12,14,-1,-1,-1,-1,-1,-1,-1,-1],"split_conditions":[-7.854135E-2,-1.6720453E-1,-2.8920943E-1,-1.8298048E-1,-1.8046765E-1,-1.6857764E-1,-7.888294E-2,-1.8192079E-2,3.0160723E-2,-8.64768E-2,4.7867972E-2,-9.113734E-2,3.64459E-2,-2.7097786E-2,1.0785516E-1],"split_indices":[1862,336,1866,1647,151,1905,1949,0,0,0,0,0,0,0,0],"split_type":[0,0,0,0,0,0,0,0,0,0,0,0,0,0,0],"sum_hessian":[6.962132E2,6.3168024E2,6.453293E1,4.9706628E2,1.3461398E2,5.2997288E1,1.1535638E1,3.5107095E2,1.4599532E2,5.941149E0,1.2867282E2,4.8086063E1,4.9112263E0,7.0508866E0,4.4847507E0],"tree_param":{"num_deleted":"0","num_feature":"2000","num_nodes":"15","size_leaf_vector":"1"}},{"base_weights":[-2.4594843E-2,-1.0490888E0,1.2277317E-2,-1.3124235E0,2.3404434E-2,-2.5171298E-1,1.5748857E-1,-1.3719825E-1,-1.4462183E-2,8.191179E-2,-9.891631E-2,-5.572008E-2,-6.053123E-3,5.506734E-2,2.9469095E-3],"categories":[],"categories_nodes":[],"categories_segments":[],"categories_sizes":[],"default_left":[0,0,0,0,0,0,0,0,0,0,0,0,0,0,0],"id":42,"left_children":[1,3,5,7,9,11,13,-1,-1,-1,-1,-1,-1,-1,-1],"loss_changes":[2.624077E1,6.8462467E0,2.5768932E1,1.1503906E0,5.4348054E0,1.3899257E1,2.1810047E1,0E0,0E0,0E0,0E0,0E0,0E0,0E0,0E0],"parents":[2147483647,0,0,1,1,2,2,3,3,4,4,5,5,6,6],"right_children":[2,4,6,8,10,12,14,-1,-1,-1,-1,-1,-1,-1,-1],"split_conditions":[-1.818014E-1,-1.7742181E-1,-4.2092612E-1,-1.713299E-1,-2.6787463E-1,-1.7739987E-1,-6.2730426E-1,-1.3719825E-1,-1.4462183E-2,8.191179E-2,-9.891631E-2,-5.572008E-2,-6.053123E-3,5.506734E-2,2.9469095E-3],"split_indices":[1849,1720,1937,1858,1931,159,1878,0,0,0,0,0,0,0,0],"split_type":[0,0,0,0,0,0,0,0,0,0,0,0,0,0,0],"sum_hessian":[6.933131E2,2.3132202E1,6.701809E2,1.8392488E1,4.7397137E0,2.3756339E2,4.3261752E2,1.7333616E1,1.058873E0,2.7610366E0,1.9786772E0,9.070772E1,1.4685567E2,1.0544964E2,3.2716788E2],"tree_param":{"num_deleted":"0","num_feature":"2000","num_nodes":"15","size_leaf_vector":"1"}},{"base_weights":[1.2361597E-2,1.0172143E-1,-4.6824652E-1,-1.122956E-2,4.4473377E-1,-6.5335494E-1,1.8120189E-1,-5.244136E-2,5.373055E-3,-3.3850707E-2,5.7231802E-2,-7.152577E-2,1.15999155E-1,-2.747961E-2,9.088381E-2],"categories":[],"categories_nodes":[],"categories_segments":[],"categories_sizes":[],"default_left":[0,0,0,0,0,0,0,0,0,0,0,0,0,0,0],"id":43,"left_children":[1,3,5,7,9,11,13,-1,-1,-1,-1,-1,-1,-1,-1],"loss_changes":[2.9650564E1,2.2555445E1,1.3131489E1,1.4657407E1,1.4604336E1,1.0309654E1,8.475817E0,0E0,0E0,0E0,0E0,0E0,0E0,0E0,0E0],"parents":[2147483647,0,0,1,1,2,2,3,3,4,4,5,5,6,6],"right_children":[2,4,6,8,10,12,14,-1,-1,-1,-1,-1,-1,-1,-1],"split_conditions":[-6.88903E-2,-4.4405875E-1,-2.7433035E-1,-1.8378572E-1,-2.0369162E-1,-1.4634544E-1,-9.804067E-2,-5.244136E-2,5.373055E-3,-3.3850707E-2,5.7231802E-2,-7.152577E-2,1.15999155E-1,-2.747961E-2,9.088381E-2],"split_indices":[1928,1915,1925,1775,1621,998,1927,0,0,0,0,0,0,0,0],"split_type":[0,0,0,0,0,0,0,0,0,0,0,0,0,0,0],"sum_hessian":[6.8828894E2,5.8104346E2,1.072455E2,4.3783533E2,1.4320811E2,8.3453285E1,2.3792213E1,4.8400352E1,3.89435E2,1.9828373E1,1.2337974E2,8.1284035E1,2.1692543E0,1.5008788E1,8.783424E0],"tree_param":{"num_deleted":"0","num_feature":"2000","num_nodes":"15","size_leaf_vector":"1"}},{"base_weights":[-2.6166776E-2,-2.81582E-1,9.399322E-2,-3.3907154E-1,6.7665875E-1,-1.9117509E-1,2.506258E-1,-1.0058947E-1,-2.4521112E-2,1.13723695E-1,-2.735641E-2,-2.6404142E-2,1.04464374E-1,-1.3965587E-1,2.8020496E-2],"categories":[],"categories_nodes":[],"categories_segments":[],"categories_sizes":[],"default_left":[0,0,0,0,0,0,0,0,0,0,0,0,0,0,0],"id":44,"left_children":[1,3,5,7,9,11,13,-1,-1,-1,-1,-1,-1,-1,-1],"loss_changes":[2.1156294E1,1.2377552E1,2.0994696E1,1.2815752E1,5.9196205E0,1.52986145E1,1.5160528E1,0E0,0E0,0E0,0E0,0E0,0E0,0E0,0E0],"parents":[2147483647,0,0,1,1,2,2,3,3,4,4,5,5,6,6],"right_children":[2,4,6,8,10,12,14,-1,-1,-1,-1,-1,-1,-1,-1],"split_conditions":[-4.3262511E-1,-1.214706E-1,-1.8817458E-1,-1.8313625E-1,-1.4915769E-1,1.2137579E-1,-1.8926015E-1,-1.0058947E-1,-2.4521112E-2,1.13723695E-1,-2.735641E-2,-2.6404142E-2,1.04464374E-1,-1.3965587E-1,2.8020496E-2],"split_indices":[1937,1531,1700,1520,617,74,1688,0,0,0,0,0,0,0,0],"split_type":[0,0,0,0,0,0,0,0,0,0,0,0,0,0,0],"sum_hessian":[6.8747675E2,2.1951869E2,4.6795804E2,2.0770369E2,1.1815008E1,1.6582793E2,3.021301E2,2.4429502E1,1.8327419E2,7.825254E0,3.989754E0,1.5733736E2,8.490579E0,4.5145173E0,2.976156E2],"tree_param":{"num_deleted":"0","num_feature":"2000","num_nodes":"15","size_leaf_vector":"1"}},{"base_weights":[1.8743359E-2,-8.8379884E-1,6.155742E-2,-1.1146402E0,1.5993679E-1,-5.4177057E-2,3.798116E-1,-1.24719396E-1,4.64328E-2,-8.970419E-2,7.629832E-2,1.6092677E-2,-2.434029E-2,-4.2387787E-2,4.7136836E-2],"categories":[],"categories_nodes":[],"categories_segments":[],"categories_sizes":[],"default_left":[0,0,0,0,0,0,0,0,0,0,0,0,0,0,0],"id":45,"left_children":[1,3,5,7,9,11,13,-1,-1,-1,-1,-1,-1,-1,-1],"loss_changes":[2.648115E1,7.6564713E0,2.4104103E1,5.925007E0,4.8249383E0,1.9591541E1,1.3039555E1,0E0,0E0,0E0,0E0,0E0,0E0,0E0,0E0],"parents":[2147483647,0,0,1,1,2,2,3,3,4,4,5,5,6,6],"right_children":[2,4,6,8,10,12,14,-1,-1,-1,-1,-1,-1,-1,-1],"split_conditions":[-1.7918113E-1,-1.6886237E-1,-1.3559982E-1,-1.280351E-1,-1.807053E-1,-1.6877575E-1,-1.7631675E-1,-1.24719396E-1,4.64328E-2,-8.970419E-2,7.629832E-2,1.6092677E-2,-2.434029E-2,-4.2387787E-2,4.7136836E-2],"split_indices":[221,1545,155,1925,63,1623,1789,0,0,0,0,0,0,0,0],"split_type":[0,0,0,0,0,0,0,0,0,0,0,0,0,0,0],"sum_hessian":[6.828955E2,3.003793E1,6.5285754E2,2.4542065E1,5.4958653E0,4.7936444E2,1.7349312E2,2.2835184E1,1.7068814E0,1.81941E0,3.6764553E0,2.2441202E2,2.5495241E2,1.7371914E1,1.5612122E2],"tree_param":{"num_deleted":"0","num_feature":"2000","num_nodes":"15","size_leaf_vector":"1"}},{"base_weights":[7.7628796E-3,-1.2087488E0,3.2431416E-2,-1.3703279E-1,-4.713235E-3,-1.6080406E-1,2.0248207E-1,-7.386467E-2,-6.3727098E-3,-1.260399E-1,2.3438478E-2],"categories":[],"categories_nodes":[],"categories_segments":[],"categories_sizes":[],"default_left":[0,0,0,0,0,0,0,0,0,0,0],"id":46,"left_children":[1,3,5,-1,-1,7,9,-1,-1,-1,-1],"loss_changes":[2.0419865E1,2.4737854E0,2.1937405E1,0E0,0E0,1.7487907E1,1.6864223E1,0E0,0E0,0E0,0E0],"parents":[2147483647,0,0,1,1,2,2,5,5,6,6],"right_children":[2,4,6,-1,-1,8,10,-1,-1,-1,-1],"split_conditions":[-2.201633E-1,-1.3739264E-1,-1.1646077E-1,-1.3703279E-1,-4.713235E-3,-1.7757964E-1,-1.7727266E-1,-7.386467E-2,-6.3727098E-3,-1.260399E-1,2.3438478E-2],"split_indices":[151,1705,1859,0,0,92,1666,0,0,0,0],"split_type":[0,0,0,0,0,0,0,0,0,0,0],"sum_hessian":[6.781389E2,1.2524059E1,6.6561487E2,1.083698E1,1.6870794E0,3.115932E2,3.5402167E2,4.386738E1,2.6772583E2,6.733916E0,3.4728775E2],"tree_param":{"num_deleted":"0","num_feature":"2000","num_nodes":"11","size_leaf_vector":"1"}},{"base_weights":[-2.809844E-3,-3.1032476E-1,9.959282E-2,-4.4621146E-1,3.3617392E-1,4.003754E-2,7.6426864E-1,-5.0518055E-2,9.8190166E-2,-7.258855E-2,5.8510073E-2,-1.0081245E-1,7.3933587E-3,9.357091E-2,-4.4830907E-2],"categories":[],"categories_nodes":[],"categories_segments":[],"categories_sizes":[],"default_left":[0,0,0,0,0,0,0,0,0,0,0,0,0,0,0],"id":47,"left_children":[1,3,5,7,9,11,13,-1,-1,-1,-1,-1,-1,-1,-1],"loss_changes":[2.149278E1,1.5128521E1,2.0238415E1,1.2396952E1,8.404398E0,1.6808033E1,9.161226E0,0E0,0E0,0E0,0E0,0E0,0E0,0E0,0E0],"parents":[2147483647,0,0,1,1,2,2,3,3,4,4,5,5,6,6],"right_children":[2,4,6,8,10,12,14,-1,-1,-1,-1,-1,-1,-1,-1],"split_conditions":[-1.7643327E-1,-1.7322151E-1,-1.7026271E-1,-1.7015827E-1,-1.4424136E-1,-1.7621794E-1,-1.0320527E-1,-5.0518055E-2,9.8190166E-2,-7.258855E-2,5.8510073E-2,-1.0081245E-1,7.3933587E-3,9.357091E-2,-4.4830907E-2],"split_indices":[1617,1731,1646,1655,1977,28,1897,0,0,0,0,0,0,0,0],"split_type":[0,0,0,0,0,0,0,0,0,0,0,0,0,0,0],"sum_hessian":[6.805382E2,1.6949992E2,5.1103827E2,1.4031674E2,2.9183187E1,4.699874E2,4.1050865E1,1.3537323E2,4.9435153E0,5.177415E0,2.4005772E1,1.382226E1,4.5616513E2,3.616588E1,4.8849874E0],"tree_param":{"num_deleted":"0","num_feature":"2000","num_nodes":"15","size_leaf_vector":"1"}},{"base_weights":[1.693612E-2,-9.976774E-1,4.595625E-2,-1.1352025E0,3.4333717E-2,-8.672796E-1,7.414644E-2,-1.3061747E-1,1.4349378E-2,-1.09314464E-1,4.0226683E-2,-4.8806313E-3,2.9865578E-2],"categories":[],"categories_nodes":[],"categories_segments":[],"categories_sizes":[],"default_left":[0,0,0,0,0,0,0,0,0,0,0,0,0],"id":48,"left_children":[1,3,5,7,-1,9,11,-1,-1,-1,-1,-1,-1],"loss_changes":[1.996308E1,3.8668137E0,1.7019133E1,3.9766216E0,0E0,6.1171827E0,1.7675264E1,0E0,0E0,0E0,0E0,0E0,0E0],"parents":[2147483647,0,0,1,1,2,2,3,3,5,5,6,6],"right_children":[2,4,6,8,-1,10,12,-1,-1,-1,-1,-1,-1],"split_conditions":[-1.7454392E-1,-1.7375445E-1,-1.8031093E-1,5.081498E-2,3.4333717E-2,-1.7016338E-1,-1.5556587E-1,-1.3061747E-1,1.4349378E-2,-1.09314464E-1,4.0226683E-2,-4.8806313E-3,2.9865578E-2],"split_indices":[1788,1033,82,1590,0,94,1884,0,0,0,0,0,0],"split_type":[0,0,0,0,0,0,0,0,0,0,0,0,0],"sum_hessian":[6.7543945E2,1.7853662E1,6.575858E2,1.6332218E1,1.5214443E0,1.8799547E1,6.3878625E2,1.4387062E1,1.9451566E0,1.6078049E1,2.7214983E0,4.1325137E2,2.255349E2],"tree_param":{"num_deleted":"0","num_feature":"2000","num_nodes":"13","size_leaf_vector":"1"}},{"base_weights":[-4.1597136E-3,-4.1695062E-2,8.833166E-1,-1.1484976E-1,3.7329733E-1,1.0736887E0,-3.4008247E-1,-1.6154986E-2,7.856815E-2,-1.7002974E-1,4.1289683E-2,-4.9668707E-2,1.19420014E-1,-1.0220851E-1,5.384729E-2],"categories":[],"categories_nodes":[],"categories_segments":[],"categories_sizes":[],"default_left":[0,0,0,0,0,0,0,0,0,0,0,0,0,0,0],"id":49,"left_children":[1,3,5,7,9,11,13,-1,-1,-1,-1,-1,-1,-1,-1],"loss_changes":[2.2605146E1,1.98049E1,6.7783966E0,2.3432236E1,8.731768E0,5.148157E0,3.2271142E0,0E0,0E0,0E0,0E0,0E0,0E0,0E0,0E0],"parents":[2147483647,0,0,1,1,2,2,3,3,4,4,5,5,6,6],"right_children":[2,4,6,8,10,12,14,-1,-1,-1,-1,-1,-1,-1,-1],"split_conditions":[-1.7219092E-1,-2.5952855E-1,-4.4474417E-1,-1.3709417E-1,-1.941315E-1,-1.7732564E-1,-1.6791414E-1,-1.6154986E-2,7.856815E-2,-1.7002974E-1,4.1289683E-2,-4.9668707E-2,1.19420014E-1,-1.0220851E-1,5.384729E-2],"split_indices":[1841,1866,1896,1249,78,1586,1561,0,0,0,0,0,0,0,0],"split_type":[0,0,0,0,0,0,0,0,0,0,0,0,0,0,0],"sum_hessian":[6.7648865E2,6.499523E2,2.6536373E1,5.5316394E2,9.678828E1,2.3068996E1,3.4673758E0,5.266722E2,2.6491762E1,1.027861E0,9.576042E1,1.4216806E0,2.1647316E1,1.8600731E0,1.6073027E0],"tree_param":{"num_deleted":"0","num_feature":"2000","num_nodes":"15","size_leaf_vector":"1"}},{"base_weights":[3.2449175E-2,-4.3264784E-2,4.8730776E-1,3.957408E-2,-4.400092E-1,6.3842565E-1,-2.899499E-1,-1.0762048E-1,7.1769045E-3,-5.3807206E-2,9.5598444E-2,7.515284E-2,-4.0850755E-2,-7.320386E-2,8.15168E-2],"categories":[],"categories_nodes":[],"categories_segments":[],"categories_sizes":[],"default_left":[0,0,0,0,0,0,0,0,0,0,0,0,0,0,0],"id":50,"left_children":[1,3,5,7,9,11,13,-1,-1,-1,-1,-1,-1,-1,-1],"loss_changes":[2.314762E1,1.8968197E1,1.1450333E1,1.7245626E1,1.4160217E1,9.852055E0,8.559978E0,0E0,0E0,0E0,0E0,0E0,0E0,0E0,0E0],"parents":[2147483647,0,0,1,1,2,2,3,3,4,4,5,5,6,6],"right_children":[2,4,6,8,10,12,14,-1,-1,-1,-1,-1,-1,-1,-1],"split_conditions":[-1.7291646E-1,-7.704227E-2,-1.9024102E-1,-1.7454392E-1,-1.2602238E-1,-3.7215582E-1,-1.6994178E-1,-1.0762048E-1,7.1769045E-3,-5.3807206E-2,9.5598444E-2,7.515284E-2,-4.0850755E-2,-7.320386E-2,8.15168E-2],"split_indices":[1731,1928,1894,1788,1543,1860,1471,0,0,0,0,0,0,0,0],"split_type":[0,0,0,0,0,0,0,0,0,0,0,0,0,0,0],"sum_hessian":[6.705189E2,5.7561005E2,9.490888E1,4.7692914E2,9.86809E1,7.9609474E1,1.5299413E1,1.2466055E1,4.6446307E2,9.2778175E1,5.902728E0,7.210225E1,7.5072203E0,1.1168989E1,4.1304235E0],"tree_param":{"num_deleted":"0","num_feature":"2000","num_nodes":"15","size_leaf_vector":"1"}},{"base_weights":[-2.0439243E-2,-6.796145E-2,7.110195E-1,-5.1506627E-1,1.14497775E-2,-6.710597E-2,9.257253E-1,-8.889931E-2,-2.5298277E-2,-4.803924E-2,8.000097E-3,-8.1652306E-2,8.615217E-2,-3.9677046E-2,1.0827637E-1],"categories":[],"categories_nodes":[],"categories_segments":[],"categories_sizes":[],"default_left":[0,0,0,0,0,0,0,0,0,0,0,0,0,0,0],"id":51,"left_children":[1,3,5,7,9,11,13,-1,-1,-1,-1,-1,-1,-1,-1],"loss_changes":[2.3202093E1,2.2245285E1,6.8655815E0,9.035467E0,1.8005127E1,7.4810653E0,7.072075E0,0E0,0E0,0E0,0E0,0E0,0E0,0E0,0E0],"parents":[2147483647,0,0,1,1,2,2,3,3,4,4,5,5,6,6],"right_children":[2,4,6,8,10,12,14,-1,-1,-1,-1,-1,-1,-1,-1],"split_conditions":[-1.678648E-1,-1.7636384E-1,-1.80308E-1,-1.7859893E-1,-2.055616E-1,-1.6888827E-1,-1.9058576E-1,-8.889931E-2,-2.5298277E-2,-4.803924E-2,8.000097E-3,-8.1652306E-2,8.615217E-2,-3.9677046E-2,1.0827637E-1],"split_indices":[1246,1520,1177,85,1621,1646,61,0,0,0,0,0,0,0,0],"split_type":[0,0,0,0,0,0,0,0,0,0,0,0,0,0,0],"sum_hessian":[6.650937E2,6.25371E2,3.972269E1,9.349349E1,5.318775E2,8.738936E0,3.0983753E1,3.7540573E1,5.5952915E1,6.432802E1,4.6754947E2,4.902922E0,3.8360145E0,3.1265974E0,2.7857157E1],"tree_param":{"num_deleted":"0","num_feature":"2000","num_nodes":"15","size_leaf_vector":"1"}},{"base_weights":[2.6056863E-2,-4.398099E-1,1.0101196E-1,-5.629631E-1,4.2885932E-1,-1.0328496E-2,3.8539022E-1,-6.239262E-2,1.0996526E-1,-8.483484E-2,7.6598585E-2,2.8474713E-2,-1.4914294E-2,-6.2165935E-2,4.6052326E-2],"categories":[],"categories_nodes":[],"categories_segments":[],"categories_sizes":[],"default_left":[0,0,0,0,0,0,0,0,0,0,0,0,0,0,0],"id":52,"left_children":[1,3,5,7,9,11,13,-1,-1,-1,-1,-1,-1,-1,-1],"loss_changes":[2.3288645E1,1.0131008E1,1.8185257E1,8.936401E0,5.8366876E0,1.6984932E1,1.2512543E1,0E0,0E0,0E0,0E0,0E0,0E0,0E0,0E0],"parents":[2147483647,0,0,1,1,2,2,3,3,4,4,5,5,6,6],"right_children":[2,4,6,8,10,12,14,-1,-1,-1,-1,-1,-1,-1,-1],"split_conditions":[-1.8299735E-1,-1.6192718E-1,-1.0011358E-1,-1.7290786E-1,-1.81825E-1,-5.0267655E-1,-2.6059812E-1,-6.239262E-2,1.0996526E-1,-8.483484E-2,7.6598585E-2,2.8474713E-2,-1.4914294E-2,-6.2165935E-2,4.6052326E-2],"split_indices":[1210,1553,1859,1191,588,1935,1207,0,0,0,0,0,0,0,0],"split_type":[0,0,0,0,0,0,0,0,0,0,0,0,0,0,0],"sum_hessian":[6.6465936E2,9.14437E1,5.732157E2,8.039749E1,1.1046212E1,4.1262674E2,1.6058894E2,7.815646E1,2.2410278E0,1.9901388E0,9.056073E0,1.3167534E2,2.8095142E2,1.0644237E1,1.499447E2],"tree_param":{"num_deleted":"0","num_feature":"2000","num_nodes":"15","size_leaf_vector":"1"}},{"base_weights":[-1.5951749E-2,-8.641804E-2,4.1302472E-1,-2.0022914E-1,1.7486612E-1,-5.0578815E-1,5.418843E-1,-7.087911E-2,-1.0841413E-2,-6.1392434E-2,2.6783032E-2,-1.1424805E-1,3.0743131E-2,6.3592084E-2,-9.29678E-2],"categories":[],"categories_nodes":[],"categories_segments":[],"categories_sizes":[],"default_left":[0,0,0,0,0,0,0,0,0,0,0,0,0,0,0],"id":53,"left_children":[1,3,5,7,9,11,13,-1,-1,-1,-1,-1,-1,-1,-1],"loss_changes":[2.005704E1,1.6976625E1,1.1358711E1,1.8475378E1,1.2879433E1,6.5812316E0,1.2019991E1,0E0,0E0,0E0,0E0,0E0,0E0,0E0,0E0],"parents":[2147483647,0,0,1,1,2,2,3,3,4,4,5,5,6,6],"right_children":[2,4,6,8,10,12,14,-1,-1,-1,-1,-1,-1,-1,-1],"split_conditions":[-1.7291646E-1,-3.248362E-1,-2.058384E-1,1.0038354E0,-1.8040986E-1,-1.6721925E-1,-1.2781318E-1,-7.087911E-2,-1.0841413E-2,-6.1392434E-2,2.6783032E-2,-1.1424805E-1,3.0743131E-2,6.3592084E-2,-9.29678E-2],"split_indices":[1731,1925,1621,1737,1180,129,1894,0,0,0,0,0,0,0,0],"split_type":[0,0,0,0,0,0,0,0,0,0,0,0,0,0,0],"sum_hessian":[6.613361E2,5.687142E2,9.262191E1,3.9631818E2,1.7239603E2,1.1032351E1,8.1589554E1,5.958086E1,3.367373E2,1.7585049E1,1.5481097E2,5.960681E0,5.07167E0,7.7222694E1,4.3668633E0],"tree_param":{"num_deleted":"0","num_feature":"2000","num_nodes":"15","size_leaf_vector":"1"}},{"base_weights":[8.970615E-3,-9.6327454E-1,3.443901E-2,-1.1738297E0,1.0624897E-1,-2.586106E-2,5.098285E-1,-1.425444E-1,2.0826596E-4,-3.7262507E-2,5.7868185E-3,7.830716E-3,8.220342E-2],"categories":[],"categories_nodes":[],"categories_segments":[],"categories_sizes":[],"default_left":[0,0,0,0,0,0,0,0,0,0,0,0,0],"id":54,"left_children":[1,3,5,7,-1,9,11,-1,-1,-1,-1,-1,-1],"loss_changes":[1.628144E1,8.40654E0,1.8371054E1,4.6422195E0,0E0,1.6549898E1,9.6539955E0,0E0,0E0,0E0,0E0,0E0,0E0],"parents":[2147483647,0,0,1,1,2,2,3,3,5,5,6,6],"right_children":[2,4,6,8,-1,10,12,-1,-1,-1,-1,-1,-1],"split_conditions":[-1.7707728E-1,-1.4790525E-1,-9.249147E-2,-1.4123063E-1,1.0624897E-1,-1.8091229E-1,-1.7935947E-1,-1.425444E-1,2.0826596E-4,-3.7262507E-2,5.7868185E-3,7.830716E-3,8.220342E-2],"split_indices":[1190,54,1815,1884,0,1529,1720,0,0,0,0,0,0],"split_type":[0,0,0,0,0,0,0,0,0,0,0,0,0],"sum_hessian":[6.551902E2,1.5784926E1,6.394052E2,1.4679689E1,1.1052369E0,5.6826953E2,7.11357E1,1.1917463E1,2.7622263E0,1.0985511E2,4.5841443E2,3.0386795E1,4.07489E1],"tree_param":{"num_deleted":"0","num_feature":"2000","num_nodes":"13","size_leaf_vector":"1"}},{"base_weights":[-1.252502E-2,-9.134016E-2,3.1700167E-1,-5.734759E-1,-2.2546588E-2,-3.4720045E-1,4.275722E-1,-7.649745E-2,3.072348E-3,-6.4994404E-3,6.9391504E-2,9.414139E-2,-5.5428144E-2,-1.1052443E-2,5.911093E-2],"categories":[],"categories_nodes":[],"categories_segments":[],"categories_sizes":[],"default_left":[0,0,0,0,0,0,0,0,0,0,0,0,0,0,0],"id":55,"left_children":[1,3,5,7,9,11,13,-1,-1,-1,-1,-1,-1,-1,-1],"loss_changes":[1.722755E1,1.7737427E1,9.551694E0,7.7506943E0,1.432009E1,5.5451E0,9.76395E0,0E0,0E0,0E0,0E0,0E0,0E0,0E0,0E0],"parents":[2147483647,0,0,1,1,2,2,3,3,4,4,5,5,6,6],"right_children":[2,4,6,8,10,12,14,-1,-1,-1,-1,-1,-1,-1,-1],"split_conditions":[-8.416575E-2,-1.7765327E-1,-2.1669789E-1,-1.452519E-1,-1.7383736E-1,-1.7240998E-1,-1.7796986E-1,-7.649745E-2,3.072348E-3,-6.4994404E-3,6.9391504E-2,9.414139E-2,-5.5428144E-2,-1.1052443E-2,5.911093E-2],"split_indices":[1859,1774,1252,1818,1639,80,1648,0,0,0,0,0,0,0,0],"split_type":[0,0,0,0,0,0,0,0,0,0,0,0,0,0,0],"sum_hessian":[6.6120544E2,5.341677E2,1.2703772E2,6.578453E1,4.6838318E2,1.7824581E1,1.09213135E2,4.9750282E1,1.603425E1,4.430437E2,2.5339489E1,1.9768724E0,1.5847708E1,2.5531E1,8.368214E1],"tree_param":{"num_deleted":"0","num_feature":"2000","num_nodes":"15","size_leaf_vector":"1"}},{"base_weights":[6.9959677E-4,-3.2841828E-1,8.3396465E-2,-5.106933E-1,9.92741E-2,-1.4457161E0,1.0363357E-1,1.0479173E-2,-6.4321294E-2,6.1576217E-2,-2.9533952E-2,-1.7748387E-1,2.3786109E-2,2.9143589E-3,4.999261E-2],"categories":[],"categories_nodes":[],"categories_segments":[],"categories_sizes":[],"default_left":[0,0,0,0,0,0,0,0,0,0,0,0,0,0,0],"id":56,"left_children":[1,3,5,7,9,11,13,-1,-1,-1,-1,-1,-1,-1,-1],"loss_changes":[1.8159452E1,1.0495723E1,1.665021E1,7.743231E0,8.512755E0,4.3184137E0,1.5547932E1,0E0,0E0,0E0,0E0,0E0,0E0,0E0,0E0],"parents":[2147483647,0,0,1,1,2,2,3,3,4,4,5,5,6,6],"right_children":[2,4,6,8,10,12,14,-1,-1,-1,-1,-1,-1,-1,-1],"split_conditions":[-1.8917501E-1,-3.1276006E-1,-1.8926015E-1,-3.87767E-1,-1.7060181E-1,-1.5157865E-1,-1.7029674E-1,1.0479173E-2,-6.4321294E-2,6.1576217E-2,-2.9533952E-2,-1.7748387E-1,2.3786109E-2,2.9143589E-3,4.999261E-2],"split_indices":[159,1925,1688,1927,1653,336,1875,0,0,0,0,0,0,0,0],"split_type":[0,0,0,0,0,0,0,0,0,0,0,0,0,0,0],"sum_hessian":[6.652031E2,1.3298332E2,5.3221985E2,9.310818E1,3.987515E1,6.031632E0,5.261882E2,1.6532501E1,7.6575676E1,1.7027878E1,2.2847271E1,4.999979E0,1.031653E0,4.4383527E2,8.235291E1],"tree_param":{"num_deleted":"0","num_feature":"2000","num_nodes":"15","size_leaf_vector":"1"}},{"base_weights":[-2.753439E-2,-6.723926E-2,7.2525316E-1,-1.1454613E-1,4.7461927E-1,-9.7126685E-2,8.3683974E-1,-6.1807968E-2,-4.5737918E-3,6.4608626E-2,-7.5038016E-2,-6.081319E-2,9.4427876E-2],"categories":[],"categories_nodes":[],"categories_segments":[],"categories_sizes":[],"default_left":[0,0,0,0,0,0,0,0,0,0,0,0,0],"id":57,"left_children":[1,3,5,7,9,-1,11,-1,-1,-1,-1,-1,-1],"loss_changes":[1.9333754E1,1.57883415E1,6.948452E0,1.95586E1,1.0877828E1,0E0,5.3787766E0,0E0,0E0,0E0,0E0,0E0,0E0],"parents":[2147483647,0,0,1,1,2,2,3,3,4,4,6,6],"right_children":[2,4,6,8,10,-1,12,-1,-1,-1,-1,-1,-1],"split_conditions":[-1.5640718E-1,-4.11291E-2,-1.9731309E-1,-1.7515157E-1,2.7013686E-1,-9.7126685E-2,-3.9793193E-1,-6.1807968E-2,-4.5737918E-3,6.4608626E-2,-7.5038016E-2,-6.081319E-2,9.4427876E-2],"split_indices":[1246,1815,116,163,1530,0,289,0,0,0,0,0,0],"split_type":[0,0,0,0,0,0,0,0,0,0,0,0,0],"sum_hessian":[6.44213E2,6.128022E2,3.1410833E1,5.643227E2,4.847949E1,1.4630477E0,2.9947786E1,6.688445E1,4.9743823E2,4.2941425E1,5.5380635E0,1.7500962E0,2.819769E1],"tree_param":{"num_deleted":"0","num_feature":"2000","num_nodes":"13","size_leaf_vector":"1"}},{"base_weights":[1.9489556E-3,-3.7129764E-2,7.009368E-1,-6.605146E-2,9.2144585E-1,-7.169956E-1,8.7382555E-1,-8.367792E-3,1.3787928E-1,1.0595542E-1,-7.225012E-2,-1.2087537E-1,4.231442E-2,-4.6501875E-2,1.01386964E-1],"categories":[],"categories_nodes":[],"categories_segments":[],"categories_sizes":[],"default_left":[0,0,0,0,0,0,0,0,0,0,0,0,0,0,0],"id":58,"left_children":[1,3,5,7,9,11,13,-1,-1,-1,-1,-1,-1,-1,-1],"loss_changes":[1.79329E1,1.7299301E1,9.147827E0,1.5510924E1,4.915413E0,2.937512E0,6.3651276E0,0E0,0E0,0E0,0E0,0E0,0E0,0E0,0E0],"parents":[2147483647,0,0,1,1,2,2,3,3,4,4,5,5,6,6],"right_children":[2,4,6,8,10,12,14,-1,-1,-1,-1,-1,-1,-1,-1],"split_conditions":[-1.6723967E-1,-1.6641743E-1,-1.7616418E-1,-1.4980978E-1,6.609604E-1,3.3131838E-2,-1.7682442E-1,-8.367792E-3,1.3787928E-1,1.0595542E-1,-7.225012E-2,-1.2087537E-1,4.231442E-2,-4.6501875E-2,1.01386964E-1],"split_indices":[1533,1567,711,134,1919,1900,221,0,0,0,0,0,0,0,0],"split_type":[0,0,0,0,0,0,0,0,0,0,0,0,0,0,0],"sum_hessian":[6.545561E2,6.207958E2,3.3760307E1,6.035178E2,1.7277966E1,3.327005E0,3.0433302E1,5.971746E2,6.34318E0,1.6266863E1,1.0111021E0,2.2823956E0,1.0446092E0,2.6621552E0,2.7771147E1],"tree_param":{"num_deleted":"0","num_feature":"2000","num_nodes":"15","size_leaf_vector":"1"}},{"base_weights":[1.3350482E-2,-1.627938E-1,1.7152402E-1,-6.41442E-1,-7.114685E-2,-2.8988922E-1,2.7974313E-1,-1.782291E-1,-4.5487203E-2,-1.14615625E-2,1.0385082E-1,-5.0575472E-2,2.7435018E-2,1.913908E-2,8.175602E-2],"categories":[],"categories_nodes":[],"categories_segments":[],"categories_sizes":[],"default_left":[0,0,0,0,0,0,0,0,0,0,0,0,0,0,0],"id":59,"left_children":[1,3,5,7,9,11,13,-1,-1,-1,-1,-1,-1,-1,-1],"loss_changes":[1.837754E1,1.3645762E1,1.743258E1,9.838564E0,1.2808874E1,8.239356E0,1.3242611E1,0E0,0E0,0E0,0E0,0E0,0E0,0E0,0E0],"parents":[2147483647,0,0,1,1,2,2,3,3,4,4,5,5,6,6],"right_children":[2,4,6,8,10,12,14,-1,-1,-1,-1,-1,-1,-1,-1],"split_conditions":[-1.1667151E-1,-1.7494887E-1,-2.2080845E-1,-1.3798535E-1,-1.4023127E-1,-1.7407829E-1,-1.6117832E-1,-1.782291E-1,-4.5487203E-2,-1.14615625E-2,1.0385082E-1,-5.0575472E-2,2.7435018E-2,1.913908E-2,8.175602E-2],"split_indices":[1859,1489,1784,1718,1521,1031,14,0,0,0,0,0,0,0,0],"split_type":[0,0,0,0,0,0,0,0,0,0,0,0,0,0,0],"sum_hessian":[6.5760443E2,3.1111414E2,3.464903E2,4.9032265E1,2.6208185E2,6.5507515E1,2.8098276E2,5.6894083E0,4.3342857E1,2.5306519E2,9.01667E0,4.745568E1,1.8051838E1,2.4250072E2,3.8482048E1],"tree_param":{"num_deleted":"0","num_feature":"2000","num_nodes":"15","size_leaf_vector":"1"}},{"base_weights":[-1.8852483E-2,-5.5130728E-2,7.6168054E-1,-8.529066E-1,-2.0769197E-2,-1.08036116E-1,1.108254E0,-9.924882E-2,4.439644E-2,-5.5168103E-2,3.07111E-3,7.482836E-2,-7.804453E-2,6.2368717E-3,1.4208539E-1],"categories":[],"categories_nodes":[],"categories_segments":[],"categories_sizes":[],"default_left":[0,0,0,0,0,0,0,0,0,0,0,0,0,0,0],"id":60,"left_children":[1,3,5,7,9,11,13,-1,-1,-1,-1,-1,-1,-1,-1],"loss_changes":[1.8332787E1,1.6928535E1,8.787617E0,5.056967E0,1.6243258E1,5.826754E0,6.663273E0,0E0,0E0,0E0,0E0,0E0,0E0,0E0,0E0],"parents":[2147483647,0,0,1,1,2,2,3,3,4,4,5,5,6,6],"right_children":[2,4,6,8,10,12,14,-1,-1,-1,-1,-1,-1,-1,-1],"split_conditions":[-1.6434236E-1,-1.8440314E-1,-2.0777348E-1,-1.503927E-1,-2.0926423E-1,-3.99354E-1,-2.1027283E-1,-9.924882E-2,4.439644E-2,-5.5168103E-2,3.07111E-3,7.482836E-2,-7.804453E-2,6.2368717E-3,1.4208539E-1],"split_indices":[100,122,1578,231,159,1935,1939,0,0,0,0,0,0,0,0],"split_type":[0,0,0,0,0,0,0,0,0,0,0,0,0,0,0],"sum_hessian":[6.449442E2,6.1718744E2,2.775677E1,2.4501915E1,5.9268555E2,8.105219E0,1.9651552E1,2.2332937E1,2.1689775E0,5.1531303E1,5.4115424E2,3.5154364E0,4.589782E0,4.7980204E0,1.4853531E1],"tree_param":{"num_deleted":"0","num_feature":"2000","num_nodes":"15","size_leaf_vector":"1"}},{"base_weights":[-5.977764E-3,-8.805995E-2,3.0633128E-1,1.5408729E-1,-2.3059547E-1,-5.542612E-1,3.9761513E-1,-1.621798E-1,1.943291E-2,-2.5213966E-2,1.7111973E-1,-8.126798E-2,9.858883E-2,-6.3361675E-2,4.8308454E-2],"categories":[],"categories_nodes":[],"categories_segments":[],"categories_sizes":[],"default_left":[0,0,0,0,0,0,0,0,0,0,0,0,0,0,0],"id":61,"left_children":[1,3,5,7,9,11,13,-1,-1,-1,-1,-1,-1,-1,-1],"loss_changes":[1.647745E1,1.7601341E1,1.0729917E1,1.3834536E1,1.3850391E1,6.073596E0,1.1017874E1,0E0,0E0,0E0,0E0,0E0,0E0,0E0,0E0],"parents":[2147483647,0,0,1,1,2,2,3,3,4,4,5,5,6,6],"right_children":[2,4,6,8,10,12,14,-1,-1,-1,-1,-1,-1,-1,-1],"split_conditions":[-8.790954E-2,-5.4892206E-1,-1.8671286E-1,-1.7695722E-1,-1.7073607E-1,1.3236117E0,-2.1840052E-1,-1.621798E-1,1.943291E-2,-2.5213966E-2,1.7111973E-1,-8.126798E-2,9.858883E-2,-6.3361675E-2,4.8308454E-2],"split_indices":[1859,1907,92,1808,23,1893,159,0,0,0,0,0,0,0,0],"split_type":[0,0,0,0,0,0,0,0,0,0,0,0,0,0,0],"sum_hessian":[6.40719E2,5.0793875E2,1.3278024E2,1.8817522E2,3.1976352E2,1.2247089E1,1.2053316E2,3.2987528E0,1.8487646E2,3.171153E2,2.6482422E0,1.0891897E1,1.3551923E0,8.734429E0,1.1179873E2],"tree_param":{"num_deleted":"0","num_feature":"2000","num_nodes":"15","size_leaf_vector":"1"}},{"base_weights":[7.749333E-5,-1.087757E0,2.507774E-2,1.8324539E-2,-1.2438351E-1,-9.7336255E-2,2.2813794E-1,-1.3737748E-2,8.839912E-2,-3.355239E-2,3.6693603E-2],"categories":[],"categories_nodes":[],"categories_segments":[],"categories_sizes":[],"default_left":[0,0,0,0,0,0,0,0,0,0,0],"id":62,"left_children":[1,3,5,-1,-1,7,9,-1,-1,-1,-1],"loss_changes":[1.747054E1,3.0907936E0,1.5631566E1,0E0,0E0,1.5543245E1,1.8624126E1,0E0,0E0,0E0,0E0],"parents":[2147483647,0,0,1,1,2,2,5,5,6,6],"right_children":[2,4,6,-1,-1,8,10,-1,-1,-1,-1],"split_conditions":[-1.8737274E-1,-1.5614185E-1,-4.5808893E-1,1.8324539E-2,-1.2438351E-1,-1.6739987E-1,-1.7755906E-1,-1.3737748E-2,8.839912E-2,-3.355239E-2,3.6693603E-2],"split_indices":[1762,1530,1915,0,0,1524,105,0,0,0,0],"split_type":[0,0,0,0,0,0,0,0,0,0,0],"sum_hessian":[6.4038763E2,1.3431546E1,6.2695605E2,1.4499551E0,1.1981591E1,3.9147665E2,2.3547942E2,3.769557E2,1.4520965E1,4.624801E1,1.8923141E2],"tree_param":{"num_deleted":"0","num_feature":"2000","num_nodes":"11","size_leaf_vector":"1"}},{"base_weights":[8.084496E-3,-1.1170685E-1,2.0576645E-1,3.7983473E-2,-4.2135206E-1,3.9365032E-1,-1.3719574E-1,-5.197035E-2,1.2321274E-2,-5.2152116E-2,4.306909E-2,6.989579E-3,6.0485203E-2,-4.8905935E-2,3.1631667E-2],"categories":[],"categories_nodes":[],"categories_segments":[],"categories_sizes":[],"default_left":[0,0,0,0,0,0,0,0,0,0,0,0,0,0,0],"id":63,"left_children":[1,3,5,7,9,11,13,-1,-1,-1,-1,-1,-1,-1,-1],"loss_changes":[1.5148489E1,1.8480711E1,1.5606675E1,1.287196E1,1.1311764E1,1.063792E1,1.39048395E1,0E0,0E0,0E0,0E0,0E0,0E0,0E0,0E0],"parents":[2147483647,0,0,1,1,2,2,3,3,4,4,5,5,6,6],"right_children":[2,4,6,8,10,12,14,-1,-1,-1,-1,-1,-1,-1,-1],"split_conditions":[-1.5249446E-1,-1.09618515E-1,-1.6475137E-1,-2.2416328E-1,-1.6642918E-1,-1.7506781E-1,-1.4044599E-1,-5.197035E-2,1.2321274E-2,-5.2152116E-2,4.306909E-2,6.989579E-3,6.0485203E-2,-4.8905935E-2,3.1631667E-2],"split_indices":[313,1928,51,83,1552,73,1716,0,0,0,0,0,0,0,0],"split_type":[0,0,0,0,0,0,0,0,0,0,0,0,0,0,0],"sum_hessian":[6.3773004E2,3.973679E2,2.4036214E2,2.684633E2,1.2890462E2,1.551946E2,8.516755E1,3.4913498E1,2.3354979E2,1.15691444E2,1.321317E1,6.1796574E1,9.3398026E1,4.7914257E1,3.7253292E1],"tree_param":{"num_deleted":"0","num_feature":"2000","num_nodes":"15","size_leaf_vector":"1"}},{"base_weights":[-2.0505005E-2,-9.300853E-1,9.080033E-3,-1.313442E0,2.1858922E-1,-7.49346E-1,4.4255342E-2,-1.5398623E-1,-1.6200682E-2,7.680729E-2,-8.400981E-2,-9.289781E-2,2.765741E-2,-8.063099E-2,7.3315403E-3],"categories":[],"categories_nodes":[],"categories_segments":[],"categories_sizes":[],"default_left":[0,0,0,0,0,0,0,0,0,0,0,0,0,0,0],"id":64,"left_children":[1,3,5,7,9,11,13,-1,-1,-1,-1,-1,-1,-1,-1],"loss_changes":[1.6989475E1,9.0448475E0,1.6363842E1,3.6752834E0,4.038997E0,5.267393E0,1.4542446E1,0E0,0E0,0E0,0E0,0E0,0E0,0E0,0E0],"parents":[2147483647,0,0,1,1,2,2,3,3,4,4,5,5,6,6],"right_children":[2,4,6,8,10,12,14,-1,-1,-1,-1,-1,-1,-1,-1],"split_conditions":[-1.7588055E-1,-1.3261763E-2,-1.7640679E-1,-1.4227158E-1,-3.3863923E-1,-1.7481369E-1,-1.7552929E-1,-1.5398623E-1,-1.6200682E-2,7.680729E-2,-8.400981E-2,-9.289781E-2,2.765741E-2,-8.063099E-2,7.3315403E-3],"split_indices":[28,313,151,1649,1907,35,1656,0,0,0,0,0,0,0,0],"split_type":[0,0,0,0,0,0,0,0,0,0,0,0,0,0,0],"sum_hessian":[6.3003125E2,1.8888046E1,6.1114325E2,1.4054186E1,4.833861E0,2.6188189E1,5.84955E2,1.1462781E1,2.5914047E0,3.362927E0,1.470934E0,2.2366457E1,3.8217323E0,1.8441465E1,5.6651355E2],"tree_param":{"num_deleted":"0","num_feature":"2000","num_nodes":"15","size_leaf_vector":"1"}},{"base_weights":[3.389768E-2,1.0406125E-1,-3.285734E-1,-3.40673E-1,1.6326371E-1,-3.9236054E-1,9.513944E-1,-5.3055894E-2,5.6302126E-2,1.0617381E-2,6.4310625E-2,-4.5360714E-2,7.321609E-2,1.1913109E-1,5.6934793E-4],"categories":[],"categories_nodes":[],"categories_segments":[],"categories_sizes":[],"default_left":[0,0,0,0,0,0,0,0,0,0,0,0,0,0,0],"id":65,"left_children":[1,3,5,7,9,11,13,-1,-1,-1,-1,-1,-1,-1,-1],"loss_changes":[1.6424805E1,1.4292435E1,8.926534E0,1.1254915E1,1.3022634E1,7.253579E0,1.1877685E0,0E0,0E0,0E0,0E0,0E0,0E0,0E0,0E0],"parents":[2147483647,0,0,1,1,2,2,3,3,4,4,5,5,6,6],"right_children":[2,4,6,8,10,12,14,-1,-1,-1,-1,-1,-1,-1,-1],"split_conditions":[-7.364934E-2,-1.797917E-1,-1.514226E-1,-1.7554538E-1,-1.5068908E-1,1.0763785E-1,-1.7431681E-1,-5.3055894E-2,5.6302126E-2,1.0617381E-2,6.4310625E-2,-4.5360714E-2,7.321609E-2,1.1913109E-1,5.6934793E-4],"split_indices":[1928,1819,535,1905,1680,189,94,0,0,0,0,0,0,0,0],"split_type":[0,0,0,0,0,0,0,0,0,0,0,0,0,0,0],"sum_hessian":[6.43481E2,5.397202E2,1.037608E2,6.284775E1,4.768725E2,9.9495895E1,4.264911E0,5.2276264E1,1.0571486E1,4.2725995E2,4.961255E1,9.492259E1,4.573299E0,3.1947246E0,1.0701869E0],"tree_param":{"num_deleted":"0","num_feature":"2000","num_nodes":"15","size_leaf_vector":"1"}},{"base_weights":[-5.4246406E-3,-1.2801771E0,1.3227979E-2,-1.6572623E0,3.7220143E-2,-7.720887E-2,2.9759425E-1,-1.9145485E-2,-1.9918692E-1,-3.818444E-2,4.4511827E-3,-4.5988046E-2,3.9214335E-2],"categories":[],"categories_nodes":[],"categories_segments":[],"categories_sizes":[],"default_left":[0,0,0,0,0,0,0,0,0,0,0,0,0],"id":66,"left_children":[1,3,5,7,-1,9,11,-1,-1,-1,-1,-1,-1],"loss_changes":[1.51619625E1,6.346669E0,1.619273E1,3.3808556E0,0E0,1.7735294E1,1.1060541E1,0E0,0E0,0E0,0E0,0E0,0E0],"parents":[2147483647,0,0,1,1,2,2,3,3,5,5,6,6],"right_children":[2,4,6,8,-1,10,12,-1,-1,-1,-1,-1,-1],"split_conditions":[-1.7454392E-1,-1.7563821E-1,-1.7313583E-1,-1.3081868E-1,3.7220143E-2,-1.7614867E-1,-1.809074E-1,-1.9145485E-2,-1.9918692E-1,-3.818444E-2,4.4511827E-3,-4.5988046E-2,3.9214335E-2],"split_indices":[65,1905,1197,1956,0,1812,109,0,0,0,0,0,0],"split_type":[0,0,0,0,0,0,0,0,0,0,0,0,0],"sum_hessian":[6.359486E2,8.195872E0,6.2775275E2,6.670629E0,1.5252434E0,4.7683398E2,1.5091876E2,1.5319254E0,5.138704E0,1.3552151E2,3.4131247E2,1.6318676E1,1.3460008E2],"tree_param":{"num_deleted":"0","num_feature":"2000","num_nodes":"13","size_leaf_vector":"1"}},{"base_weights":[8.132792E-3,-4.065917E-2,5.0792176E-1,-5.3504044E-1,1.5704198E-2,-5.3269815E-1,6.947009E-1,-6.64066E-2,5.033675E-2,-4.8895217E-3,4.224014E-2,-9.327112E-2,8.295725E-2,-9.410665E-2,8.203427E-2],"categories":[],"categories_nodes":[],"categories_segments":[],"categories_sizes":[],"default_left":[0,0,0,0,0,0,0,0,0,0,0,0,0,0,0],"id":67,"left_children":[1,3,5,7,9,11,13,-1,-1,-1,-1,-1,-1,-1,-1],"loss_changes":[1.545953E1,1.6106785E1,1.1329303E1,8.25971E0,1.3671124E1,5.7578034E0,1.0685947E1,0E0,0E0,0E0,0E0,0E0,0E0,0E0,0E0],"parents":[2147483647,0,0,1,1,2,2,3,3,4,4,5,5,6,6],"right_children":[2,4,6,8,10,12,14,-1,-1,-1,-1,-1,-1,-1,-1],"split_conditions":[-1.7343315E-1,-1.7789668E-1,-2.0413171E-1,-3.8034763E-2,-1.7291646E-1,3.1941943E-2,-4.124209E-1,-6.64066E-2,5.033675E-2,-4.8895217E-3,4.224014E-2,-9.327112E-2,8.295725E-2,-9.410665E-2,8.203427E-2],"split_indices":[26,1780,86,486,1731,1689,1934,0,0,0,0,0,0,0,0],"split_type":[0,0,0,0,0,0,0,0,0,0,0,0,0,0,0],"sum_hessian":[6.321124E2,5.767279E2,5.5384495E1,5.8153362E1,5.185745E2,8.146291E0,4.72382E1,5.2046864E1,6.1064982E0,4.4825406E2,7.0320496E1,6.5409517E0,1.6053394E0,2.9065745E0,4.4331627E1],"tree_param":{"num_deleted":"0","num_feature":"2000","num_nodes":"15","size_leaf_vector":"1"}},{"base_weights":[-9.569237E-3,-5.3873334E-2,6.579668E-1,-4.570433E-1,2.0492224E-2,-6.2508714E-1,7.984922E-1,-6.8584554E-2,5.440835E-3,-8.487471E-2,5.7289777E-3,2.4697728E-2,-1.0819389E-1,9.623389E-2,-1.3378777E-2],"categories":[],"categories_nodes":[],"categories_segments":[],"categories_sizes":[],"default_left":[0,0,0,0,0,0,0,0,0,0,0,0,0,0,0],"id":68,"left_children":[1,3,5,7,9,11,13,-1,-1,-1,-1,-1,-1,-1,-1],"loss_changes":[1.862428E1,1.7709084E1,7.5661087E0,1.0800482E1,1.6021395E1,2.0321374E0,5.591942E0,0E0,0E0,0E0,0E0,0E0,0E0,0E0,0E0],"parents":[2147483647,0,0,1,1,2,2,3,3,4,4,5,5,6,6],"right_children":[2,4,6,8,10,12,14,-1,-1,-1,-1,-1,-1,-1,-1],"split_conditions":[-1.5725413E-1,-1.7623958E-1,-3.232689E-1,-3.2951003E-1,-1.7454392E-1,-1.663781E-1,3.0584925E-1,-6.8584554E-2,5.440835E-3,-8.487471E-2,5.7289777E-3,2.4697728E-2,-1.0819389E-1,9.623389E-2,-1.3378777E-2],"split_indices":[1646,1662,1784,1925,1587,313,1836,0,0,0,0,0,0,0,0],"split_type":[0,0,0,0,0,0,0,0,0,0,0,0,0,0,0],"sum_hessian":[6.2754095E2,5.893456E2,3.819533E1,9.097614E1,4.9836948E2,3.4299817E0,3.476535E1,6.2621086E1,2.8355057E1,1.9344496E1,4.7902496E2,1.3370802E0,2.0929015E0,2.9541277E1,5.224075E0],"tree_param":{"num_deleted":"0","num_feature":"2000","num_nodes":"15","size_leaf_vector":"1"}},{"base_weights":[-1.1736071E-2,-3.1744495E-2,1.1445056E0,-8.647383E-2,3.8582322E-1,1.3413481E-1,8.164933E-3,-1.0029677E-2,1.5405111E-1,-1.4786898E-1,4.3910943E-2],"categories":[],"categories_nodes":[],"categories_segments":[],"categories_sizes":[],"default_left":[0,0,0,0,0,0,0,0,0,0,0],"id":69,"left_children":[1,3,5,7,9,-1,-1,-1,-1,-1,-1],"loss_changes":[1.474947E1,1.434256E1,2.1594696E0,1.2622723E1,7.876136E0,0E0,0E0,0E0,0E0,0E0,0E0],"parents":[2147483647,0,0,1,1,2,2,3,3,4,4],"right_children":[2,4,6,8,10,-1,-1,-1,-1,-1,-1],"split_conditions":[1.550068E0,-2.083691E-1,5.7598716E-1,-1.7073607E-1,-1.7454392E-1,1.3413481E-1,8.164933E-3,-1.0029677E-2,1.5405111E-1,-1.4786898E-1,4.3910943E-2],"split_indices":[1998,1866,1916,23,1572,0,0,0,0,0,0],"split_type":[0,0,0,0,0,0,0,0,0,0,0],"sum_hessian":[6.3498047E2,6.2513525E2,9.845239E0,5.533962E2,7.173905E1,8.085729E0,1.7595103E0,5.4966455E2,3.731623E0,1.2500257E0,7.048903E1],"tree_param":{"num_deleted":"0","num_feature":"2000","num_nodes":"11","size_leaf_vector":"1"}},{"base_weights":[1.35087995E-2,8.332468E-2,-3.629398E-1,-7.453153E-1,1.1341483E-1,-5.704106E-1,4.8008797E-1,-9.0205826E-2,8.295684E-2,1.3674269E-2,-9.2450015E-2,-8.701897E-2,-9.548261E-3,-4.9834352E-2,8.317358E-2],"categories":[],"categories_nodes":[],"categories_segments":[],"categories_sizes":[],"default_left":[0,0,0,0,0,0,0,0,0,0,0,0,0,0,0],"id":70,"left_children":[1,3,5,7,9,11,13,-1,-1,-1,-1,-1,-1,-1,-1],"loss_changes":[1.6505898E1,1.329E1,1.745964E1,5.3620005E0,1.2521416E1,1.1208523E1,7.278148E0,0E0,0E0,0E0,0E0,0E0,0E0,0E0,0E0],"parents":[2147483647,0,0,1,1,2,2,3,3,4,4,5,5,6,6],"right_children":[2,4,6,8,10,12,14,-1,-1,-1,-1,-1,-1,-1,-1],"split_conditions":[-2.3273216E-1,-1.8658459E-1,-5.164955E-1,-4.7570232E-2,6.206156E-1,-1.7376144E-1,-6.621015E-1,-9.0205826E-2,8.295684E-2,1.3674269E-2,-9.2450015E-2,-8.701897E-2,-9.548261E-3,-4.9834352E-2,8.317358E-2],"split_indices":[1933,107,1903,1154,1827,1521,1932,0,0,0,0,0,0,0,0],"split_type":[0,0,0,0,0,0,0,0,0,0,0,0,0,0,0],"sum_hessian":[6.258777E2,5.28619E2,9.725864E1,1.7690079E1,5.1092896E2,7.8309814E1,1.894882E1,1.6477364E1,1.2127149E0,5.0054706E2,1.0381892E1,4.7497E1,3.0812813E1,4.8994193E0,1.4049401E1],"tree_param":{"num_deleted":"0","num_feature":"2000","num_nodes":"15","size_leaf_vector":"1"}},{"base_weights":[-1.3893862E-2,-1.2058051E0,5.8476357E-3,-1.4446564E0,4.019578E-2,-7.497707E-2,2.9103613E-1,-1.637827E-1,-1.3243395E-2,-6.124687E-2,-2.8916341E-3,-9.891274E-3,4.961815E-2],"categories":[],"categories_nodes":[],"categories_segments":[],"categories_sizes":[],"default_left":[0,0,0,0,0,0,0,0,0,0,0,0,0],"id":71,"left_children":[1,3,5,7,-1,9,11,-1,-1,-1,-1,-1,-1],"loss_changes":[1.4769658E1,4.508006E0,1.42706995E1,2.095316E0,0E0,1.1926533E1,1.0985433E1,0E0,0E0,0E0,0E0,0E0,0E0],"parents":[2147483647,0,0,1,1,2,2,3,3,5,5,6,6],"right_children":[2,4,6,8,-1,10,12,-1,-1,-1,-1,-1,-1],"split_conditions":[-1.7642877E-1,-1.7398788E-1,-1.6873157E-1,1.7471932E-1,4.019578E-2,-1.7708898E-1,-4.1928574E-1,-1.637827E-1,-1.3243395E-2,-6.124687E-2,-2.8916341E-3,-9.891274E-3,4.961815E-2],"split_indices":[1704,43,164,1522,0,1204,1937,0,0,0,0,0,0],"split_type":[0,0,0,0,0,0,0,0,0,0,0,0,0],"sum_hessian":[6.2639215E2,9.226947E0,6.171652E2,8.12181E0,1.1051369E0,4.8145428E2,1.357109E2,6.8633347E0,1.2584757E0,3.7031345E1,4.4442294E2,4.6961803E1,8.874911E1],"tree_param":{"num_deleted":"0","num_feature":"2000","num_nodes":"13","size_leaf_vector":"1"}},{"base_weights":[-2.0465652E-2,1.6528435E-2,-7.5008327E-1,-1.3685776E0,3.570992E-2,-8.6306864E-1,7.671056E-2,-1.5087187E-1,-2.0639263E-2,7.422472E-4,9.999934E-2,-1.0324172E-1,1.997474E-2],"categories":[],"categories_nodes":[],"categories_segments":[],"categories_sizes":[],"default_left":[0,0,0,0,0,0,0,0,0,0,0,0,0],"id":72,"left_children":[1,3,5,7,9,11,-1,-1,-1,-1,-1,-1,-1],"loss_changes":[1.674995E1,1.5754994E1,5.7953568E0,1.0078897E0,1.5923997E1,5.307169E0,0E0,0E0,0E0,0E0,0E0,0E0,0E0],"parents":[2147483647,0,0,1,1,2,2,3,3,4,4,5,5],"right_children":[2,4,6,8,10,12,-1,-1,-1,-1,-1,-1,-1],"split_conditions":[2.6368959E-2,-1.8154466E-1,-1.7416564E-1,2.151585E-3,-1.7378235E-1,-1.515827E-1,7.671056E-2,-1.5087187E-1,-2.0639263E-2,7.422472E-4,9.999934E-2,-1.0324172E-1,1.997474E-2],"split_indices":[1914,1321,1709,1979,1691,1925,0,0,0,0,0,0,0],"split_type":[0,0,0,0,0,0,0,0,0,0,0,0,0],"sum_hessian":[6.1910376E2,5.901581E2,2.894567E1,7.1001945E0,5.830579E2,2.7340738E1,1.6049308E0,6.070066E0,1.0301284E0,5.674202E2,1.563769E1,2.36077E1,3.733038E0],"tree_param":{"num_deleted":"0","num_feature":"2000","num_nodes":"13","size_leaf_vector":"1"}},{"base_weights":[-9.083738E-3,-1.1534838E-1,2.022132E-1,-5.5004716E-1,-3.8156457E-2,-1.1069411E-1,4.0605348E-1,-9.7068965E-2,-1.728905E-2,8.017849E-2,-7.79403E-3,-3.4399673E-2,3.8587503E-2,-1.0460007E-1,4.674239E-2],"categories":[],"categories_nodes":[],"categories_segments":[],"categories_sizes":[],"default_left":[0,0,0,0,0,0,0,0,0,0,0,0,0,0,0],"id":73,"left_children":[1,3,5,7,9,11,13,-1,-1,-1,-1,-1,-1,-1,-1],"loss_changes":[1.394659E1,1.3845116E1,1.3303166E1,9.706419E0,1.1824698E1,9.723046E0,1.1724552E1,0E0,0E0,0E0,0E0,0E0,0E0,0E0,0E0],"parents":[2147483647,0,0,1,1,2,2,3,3,4,4,5,5,6,6],"right_children":[2,4,6,8,10,12,14,-1,-1,-1,-1,-1,-1,-1,-1],"split_conditions":[-1.7606668E-1,-1.7703195E-1,-1.6989113E-1,-2.2915371E-1,-8.1765926E-1,-1.7183442E-1,-1.767438E-1,-9.7068965E-2,-1.728905E-2,8.017849E-2,-7.79403E-3,-3.4399673E-2,3.8587503E-2,-1.0460007E-1,4.674239E-2],"split_indices":[1720,1814,1559,1970,1877,1675,1169,0,0,0,0,0,0,0,0],"split_type":[0,0,0,0,0,0,0,0,0,0,0,0,0,0,0],"sum_hessian":[6.1909625E2,4.1223215E2,2.068641E2,6.12399E1,3.5099225E2,8.178148E1,1.2508263E2,2.820698E1,3.303292E1,1.5006755E1,3.359855E2,5.5849167E1,2.593231E1,4.421591E0,1.2066103E2],"tree_param":{"num_deleted":"0","num_feature":"2000","num_nodes":"15","size_leaf_vector":"1"}},{"base_weights":[1.3646249E-2,-1.012962E0,3.7048545E-2,6.4434886E-2,-1.1942643E0,-1.0959975E-2,5.027097E-1,1.5948739E-2,-1.3295725E-1,-3.810492E-2,5.062089E-3,-5.7199348E-2,6.545976E-2],"categories":[],"categories_nodes":[],"categories_segments":[],"categories_sizes":[],"default_left":[0,0,0,0,0,0,0,0,0,0,0,0,0],"id":74,"left_children":[1,3,5,-1,7,9,11,-1,-1,-1,-1,-1,-1],"loss_changes":[1.4967729E1,4.941864E0,1.3610269E1,0E0,2.5689507E0,1.2614649E1,9.662193E0,0E0,0E0,0E0,0E0,0E0,0E0],"parents":[2147483647,0,0,1,1,2,2,4,4,5,5,6,6],"right_children":[2,4,6,-1,8,10,12,-1,-1,-1,-1,-1,-1],"split_conditions":[-1.8857339E-1,-2.1937066E-1,-1.6053665E-1,6.4434886E-2,-1.8394853E-1,-9.6522737E-1,-1.7339458E-1,1.5948739E-2,-1.3295725E-1,-3.810492E-2,5.062089E-3,-5.7199348E-2,6.545976E-2],"split_indices":[1849,1945,14,0,1706,1998,1703,0,0,0,0,0,0],"split_type":[0,0,0,0,0,0,0,0,0,0,0,0,0],"sum_hessian":[6.204446E2,1.2885841E1,6.075588E2,1.0188042E0,1.1867037E1,5.516604E2,5.589837E1,1.0620978E0,1.0804939E1,7.795827E1,4.7370212E2,6.5793567E0,4.9319016E1],"tree_param":{"num_deleted":"0","num_feature":"2000","num_nodes":"13","size_leaf_vector":"1"}},{"base_weights":[1.9193394E-3,-1.3276719E-2,1.3622334E0,-4.879009E-2,5.7001704E-1,1.7418572E-1,4.7165766E-1,-4.436941E-2,1.4171527E-3,9.178724E-2,-4.754951E-3,-1.3259642E-2,7.7879086E-2],"categories":[],"categories_nodes":[],"categories_segments":[],"categories_sizes":[],"default_left":[0,0,0,0,0,0,0,0,0,0,0,0,0],"id":75,"left_children":[1,3,5,7,9,-1,11,-1,-1,-1,-1,-1,-1],"loss_changes":[1.2877325E1,1.2792151E1,1.5051708E0,1.44709E1,7.6575155E0,0E0,7.3948836E-1,0E0,0E0,0E0,0E0,0E0,0E0],"parents":[2147483647,0,0,1,1,2,2,3,3,4,4,6,6],"right_children":[2,4,6,8,10,-1,12,-1,-1,-1,-1,-1,-1],"split_conditions":[-1.6988355E-1,-8.184105E-2,-1.5922819E-1,-1.8115439E-1,-1.4209111E-1,1.7418572E-1,-3.243369E-1,-4.436941E-2,1.4171527E-3,9.178724E-2,-4.754951E-3,-1.3259642E-2,7.7879086E-2],"split_indices":[125,106,173,1210,1919,0,1925,0,0,0,0,0,0],"split_type":[0,0,0,0,0,0,0,0,0,0,0,0,0],"sum_hessian":[6.210785E2,6.1519635E2,5.882114E0,5.8075397E2,3.4442383E1,3.4539347E0,2.428179E0,7.9028595E1,5.0172537E2,2.1721237E1,1.2721147E1,1.0097914E0,1.4183875E0],"tree_param":{"num_deleted":"0","num_feature":"2000","num_nodes":"13","size_leaf_vector":"1"}},{"base_weights":[6.8998244E-3,-2.9495895E-2,5.810377E-1,-6.305582E-2,5.729894E-1,-2.7468818E-1,7.6974046E-1,-1.3600911E-2,2.5790513E-2,8.721656E-2,-8.3770774E-2,-8.5729696E-2,4.6214033E-2,-8.278308E-2,8.531731E-2],"categories":[],"categories_nodes":[],"categories_segments":[],"categories_sizes":[],"default_left":[0,0,0,0,0,0,0,0,0,0,0,0,0,0,0],"id":76,"left_children":[1,3,5,7,9,11,13,-1,-1,-1,-1,-1,-1,-1,-1],"loss_changes":[1.3048097E1,1.191262E1,6.2221737E0,1.30841255E1,1.3852662E1,3.5996432E0,4.8063984E0,0E0,0E0,0E0,0E0,0E0,0E0,0E0,0E0],"parents":[2147483647,0,0,1,1,2,2,3,3,4,4,5,5,6,6],"right_children":[2,4,6,8,10,12,14,-1,-1,-1,-1,-1,-1,-1,-1],"split_conditions":[-1.6915622E-1,-1.3671385E-1,-1.7913358E-1,-1.6447818E-1,-1.6993263E-1,-1.5233634E-1,-1.7655373E-1,-1.3600911E-2,2.5790513E-2,8.721656E-2,-8.3770774E-2,-8.5729696E-2,4.6214033E-2,-8.278308E-2,8.531731E-2],"split_indices":[146,1249,1665,336,1560,1722,142,0,0,0,0,0,0,0,0],"split_type":[0,0,0,0,0,0,0,0,0,0,0,0,0,0,0],"sum_hessian":[6.2260535E2,5.863821E2,3.6223278E1,5.5629065E2,3.0091425E1,6.462334E0,2.9760942E1,4.5373462E2,1.0255604E2,2.5141289E1,4.9501367E0,3.5175323E0,2.9448016E0,1.0342844E0,2.8726658E1],"tree_param":{"num_deleted":"0","num_feature":"2000","num_nodes":"15","size_leaf_vector":"1"}},{"base_weights":[1.2469282E-2,-4.1965714E-1,7.1782455E-2,-5.342224E-1,7.351879E-1,-8.4850395E-1,9.8822325E-2,-6.775023E-2,3.5817914E-2,-6.050327E-2,1.2692253E-1,-2.4045872E-2,-1.7404404E-1,-3.5894927E-2,1.50086E-2],"categories":[],"categories_nodes":[],"categories_segments":[],"categories_sizes":[],"default_left":[0,0,0,0,0,0,0,0,0,0,0,0,0,0,0],"id":77,"left_children":[1,3,5,7,9,11,13,-1,-1,-1,-1,-1,-1,-1,-1],"loss_changes":[1.5747026E1,1.0203885E1,1.3522652E1,8.94272E0,5.859195E0,7.9980984E0,1.2386503E1,0E0,0E0,0E0,0E0,0E0,0E0,0E0,0E0],"parents":[2147483647,0,0,1,1,2,2,3,3,4,4,5,5,6,6],"right_children":[2,4,6,8,10,12,14,-1,-1,-1,-1,-1,-1,-1,-1],"split_conditions":[-1.7587684E-1,-1.18799135E-1,-1.3107449E0,-1.5818414E-1,-1.8295753E-1,-1.640026E-1,-1.8323936E-1,-6.775023E-2,3.5817914E-2,-6.050327E-2,1.2692253E-1,-2.4045872E-2,-1.7404404E-1,-3.5894927E-2,1.50086E-2],"split_indices":[63,104,1998,1676,159,762,1087,0,0,0,0,0,0,0,0],"split_type":[0,0,0,0,0,0,0,0,0,0,0,0,0,0,0],"sum_hessian":[6.1220404E2,7.315532E1,5.390487E2,6.70419E1,6.1134195E0,1.4519117E1,5.245296E2,5.797458E1,9.06732E0,1.7040339E0,4.4093857E0,9.388464E0,5.130653E0,5.221962E1,4.7230997E2],"tree_param":{"num_deleted":"0","num_feature":"2000","num_nodes":"15","size_leaf_vector":"1"}},{"base_weights":[3.110498E-3,-1.27758095E-2,1.285841E0,4.6166494E-2,-3.6344647E-1,-1.6688814E-2,1.5548818E-1,-9.803909E-2,7.0879846E-3,-4.397187E-2,1.1360021E-1],"categories":[],"categories_nodes":[],"categories_segments":[],"categories_sizes":[],"default_left":[0,0,0,0,0,0,0,0,0,0,0],"id":78,"left_children":[1,3,5,7,9,-1,-1,-1,-1,-1,-1],"loss_changes":[1.2524101E1,1.256863E1,3.1980295E0,1.3281305E1,1.0506259E1,0E0,0E0,0E0,0E0,0E0,0E0],"parents":[2147483647,0,0,1,1,2,2,3,3,4,4],"right_children":[2,4,6,8,10,-1,-1,-1,-1,-1,-1],"split_conditions":[-1.7046548E-1,-6.327378E-2,-1.7775324E-1,-1.7454392E-1,2.6115575E-1,-1.6688814E-2,1.5548818E-1,-9.803909E-2,7.0879846E-3,-4.397187E-2,1.1360021E-1],"split_indices":[125,1928,148,1788,1863,0,0,0,0,0,0],"split_type":[0,0,0,0,0,0,0,0,0,0,0],"sum_hessian":[6.1278766E2,6.0626917E2,6.518458E0,5.197719E2,8.649726E1,1.0778925E0,5.440565E0,1.1309769E1,5.0846216E2,8.2982925E1,3.514335E0],"tree_param":{"num_deleted":"0","num_feature":"2000","num_nodes":"11","size_leaf_vector":"1"}},{"base_weights":[1.6848488E-2,-1.3078831E0,3.5448093E-2,-1.5144669E-1,6.450537E-3,-1.673297E-2,4.7072056E-1,-5.1197237E-3,7.1722485E-2,-7.749026E-2,5.9268545E-2],"categories":[],"categories_nodes":[],"categories_segments":[],"categories_sizes":[],"default_left":[0,0,0,0,0,0,0,0,0,0,0],"id":79,"left_children":[1,3,5,-1,-1,7,9,-1,-1,-1,-1],"loss_changes":[1.4906935E1,2.4727135E0,1.353898E1,0E0,0E0,1.3517494E1,1.0153074E1,0E0,0E0,0E0,0E0],"parents":[2147483647,0,0,1,1,2,2,5,5,6,6],"right_children":[2,4,6,-1,-1,8,10,-1,-1,-1,-1],"split_conditions":[-1.8113579E-1,-4.8882786E-2,-8.6683854E-2,-1.5144669E-1,6.450537E-3,3.0919456E-1,-3.8634643E-1,-5.1197237E-3,7.1722485E-2,-7.749026E-2,5.9268545E-2],"split_indices":[1721,1880,1815,0,0,227,1953,0,0,0,0],"split_type":[0,0,0,0,0,0,0,0,0,0,0],"sum_hessian":[6.021203E2,7.3771205E0,