{"learner":{"attributes":{"scikit_learn":"{\"_estimator_type\": \"regressor\"}"},"feature_names":[],"feature_types":[],"gradient_booster":{"model":{"gbtree_model_param":{"num_parallel_tree":"1","num_trees":"350"},"iteration_indptr":[0,1,2,3,4,5,6,7,8,9,10,11,12,13,14,15,16,17,18,19,20,21,22,23,24,25,26,27,28,29,30,31,32,33,34,35,36,37,38,39,40,41,42,43,44,45,46,47,48,49,50,51,52,53,54,55,56,57,58,59,60,61,62,63,64,65,66,67,68,69,70,71,72,73,74,75,76,77,78,79,80,81,82,83,84,85,86,87,88,89,90,91,92,93,94,95,96,97,98,99,100,101,102,103,104,105,106,107,108,109,110,111,112,113,114,115,116,117,118,119,120,121,122,123,124,125,126,127,128,129,130,131,132,133,134,135,136,137,138,139,140,141,142,143,144,145,146,147,148,149,150,151,152,153,154,155,156,157,158,159,160,161,162,163,164,165,166,167,168,169,170,171,172,173,174,175,176,177,178,179,180,181,182,183,184,185,186,187,188,189,190,191,192,193,194,195,196,197,198,199,200,201,202,203,204,205,206,207,208,209,210,211,212,213,214,215,216,217,218,219,220,221,222,223,224,225,226,227,228,229,230,231,232,233,234,235,236,237,238,239,240,241,242,243,244,245,246,247,248,249,250,251,252,253,254,255,256,257,258,259,260,261,262,263,264,265,266,267,268,269,270,271,272,273,274,275,276,277,278,279,280,281,282,283,284,285,286,287,288,289,290,291,292,293,294,295,296,297,298,299,300,301,302,303,304,305,306,307,308,309,310,311,312,313,314,315,316,317,318,319,320,321,322,323,324,325,326,327,328,329,330,331,332,333,334,335,336,337,338,339,340,341,342,343,344,345,346,347,348,349,350],"tree_info":[0,0,0,0,0,0,0,0,0,0,0,0,0,0,0,0,0,0,0,0,0,0,0,0,0,0,0,0,0,0,0,0,0,0,0,0,0,0,0,0,0,0,0,0,0,0,0,0,0,0,0,0,0,0,0,0,0,0,0,0,0,0,0,0,0,0,0,0,0,0,0,0,0,0,0,0,0,0,0,0,0,0,0,0,0,0,0,0,0,0,0,0,0,0,0,0,0,0,0,0,0,0,0,0,0,0,0,0,0,0,0,0,0,0,0,0,0,0,0,0,0,0,0,0,0,0,0,0,0,0,0,0,0,0,0,0,0,0,0,0,0,0,0,0,0,0,0,0,0,0,0,0,0,0,0,0,0,0,0,0,0,0,0,0,0,0,0,0,0,0,0,0,0,0,0,0,0,0,0,0,0,0,0,0,0,0,0,0,0,0,0,0,0,0,0,0,0,0,0,0,0,0,0,0,0,0,0,0,0,0,0,0,0,0,0,0,0,0,0,0,0,0,0,0,0,0,0,0,0,0,0,0,0,0,0,0,0,0,0,0,0,0,0,0,0,0,0,0,0,0,0,0,0,0,0,0,0,0,0,0,0,0,0,0,0,0,0,0,0,0,0,0,0,0,0,0,0,0,0,0,0,0,0,0,0,0,0,0,0,0,0,0,0,0,0,0,0,0,0,0,0,0,0,0,0,0,0,0,0,0,0,0,0,0,0,0,0,0,0,0,0,0,0,0,0,0,0,0,0,0,0,0,0,0,0,0,0,0,0,0,0,0,0,0,0,0,0,0,0,0],"trees":[{"base_weights":[1.3122211E-2,-1.3002771E0,4.7790918E-1,-1.395794E0,5.036762E-1,3.596221E-2,1.2768751E0,-4.851554E-2,-1.5385829E-1,-4.7236174E-2,1.3459462E-1,4.58052E-2,-6.293467E-2,1.3943976E-1,4.5875873E-2],"categories":[],"categories_nodes":[],"categories_segments":[],"categories_sizes":[],"default_left":[0,0,0,0,0,0,0,0,0,0,0,0,0,0,0],"id":0,"left_children":[1,3,5,7,9,11,13,-1,-1,-1,-1,-1,-1,-1,-1],"loss_changes":[7.405492E2,5.5340332E1,3.1633563E2,3.8445618E1,1.43482685E1,1.6258202E2,3.0039062E1,0E0,0E0,0E0,0E0,0E0,0E0,0E0,0E0],"parents":[2147483647,0,0,1,1,2,2,3,3,4,4,5,5,6,6],"right_children":[2,4,6,8,10,12,14,-1,-1,-1,-1,-1,-1,-1,-1],"split_conditions":[-1.8687609E-1,-1.339875E-2,-3.1867063E-1,-1.6469489E-1,-2.2008756E-1,-3.6482963E-1,-1.7183156E-1,-4.851554E-2,-1.5385829E-1,-4.7236174E-2,1.3459462E-1,4.58052E-2,-6.293467E-2,1.3943976E-1,4.5875873E-2],"split_indices":[1489,1906,1848,1333,1984,1919,1919,0,0,0,0,0,0,0,0],"split_type":[0,0,0,0,0,0,0,0,0,0,0,0,0,0,0],"sum_hessian":[1.2111003E3,3.1609073E2,8.9500964E2,3.0041064E2,1.5680092E1,5.769278E2,3.1808185E2,4.1315796E1,2.5909485E2,7.46671E0,8.213381E0,3.5317538E2,2.2375241E2,2.7751273E2,4.0569126E1],"tree_param":{"num_deleted":"0","num_feature":"2000","num_nodes":"15","size_leaf_vector":"1"}},{"base_weights":[-1.38127245E-2,-1.328286E0,8.4731394E-1,-1.6017625E0,-7.552401E-1,6.79146E-2,1.1307375E0,-3.7163354E-2,-1.669939E-1,-1.2163146E-1,-3.4008093E-2,8.186528E-2,-2.4143431E-2,7.42344E-2,1.3201754E-1],"categories":[],"categories_nodes":[],"categories_segments":[],"categories_sizes":[],"default_left":[0,0,0,0,0,0,0,0,0,0,0,0,0,0,0],"id":1,"left_children":[1,3,5,7,9,11,13,-1,-1,-1,-1,-1,-1,-1,-1],"loss_changes":[1.3830455E3,7.458014E1,1.63E2,2.6760498E1,2.98553E1,4.6164963E1,3.8847534E1,0E0,0E0,0E0,0E0,0E0,0E0,0E0,0E0],"parents":[2147483647,0,0,1,1,2,2,3,3,4,4,5,5,6,6],"right_children":[2,4,6,8,10,12,14,-1,-1,-1,-1,-1,-1,-1,-1],"split_conditions":[-2.3957646E-1,-7.430622E-1,3.0464014E-1,-1.2503757E0,-2.897288E-1,-1.7191172E-1,-1.3215226E-1,-3.7163354E-2,-1.669939E-1,-1.2163146E-1,-3.4008093E-2,8.186528E-2,-2.4143431E-2,7.42344E-2,1.3201754E-1],"split_indices":[1999,1999,1999,1996,1911,1370,1408,0,0,0,0,0,0,0,0],"split_type":[0,0,0,0,0,0,0,0,0,0,0,0,0,0,0],"sum_hessian":[1.2198551E3,4.8261746E2,7.372376E2,3.2548843E2,1.5712903E2,1.9693019E2,5.4030743E2,1.743073E1,3.080577E2,7.353336E1,8.3595665E1,5.6986668E1,1.3994353E2,1.7874832E2,3.6155908E2],"tree_param":{"num_deleted":"0","num_feature":"2000","num_nodes":"15","size_leaf_vector":"1"}},{"base_weights":[1.47302095E-2,-1.1070064E0,8.6819017E-1,-1.444209E0,-5.7237965E-1,3.7023115E-1,1.1610901E0,-9.457513E-2,-1.5953526E-1,-1.5955487E-2,-1.0856593E-1,-1.692658E-2,7.043263E-2,4.494841E-2,1.2585708E-1],"categories":[],"categories_nodes":[],"categories_segments":[],"categories_sizes":[],"default_left":[0,0,0,0,0,0,0,0,0,0,0,0,0,0,0],"id":2,"left_children":[1,3,5,7,9,11,13,-1,-1,-1,-1,-1,-1,-1,-1],"loss_changes":[1.1619519E3,9.3717224E1,1.001015E2,2.267035E1,4.315824E1,4.639552E1,2.9506958E1,0E0,0E0,0E0,0E0,0E0,0E0,0E0,0E0],"parents":[2147483647,0,0,1,1,2,2,3,3,4,4,5,5,6,6],"right_children":[2,4,6,8,10,12,14,-1,-1,-1,-1,-1,-1,-1,-1],"split_conditions":[-1.0403389E-1,-7.430622E-1,5.611356E-1,-1.1925315E-1,-1.6877514E-1,-1.1003365E-1,-4.6515518E-1,-9.457513E-2,-1.5953526E-1,-1.5955487E-2,-1.0856593E-1,-1.692658E-2,7.043263E-2,4.494841E-2,1.2585708E-1],"split_indices":[1999,1999,1999,1408,1823,1839,1938,0,0,0,0,0,0,0,0],"split_type":[0,0,0,0,0,0,0,0,0,0,0,0,0,0,0],"sum_hessian":[1.2117039E3,5.234351E2,6.882688E2,3.199397E2,2.0349539E2,2.5574347E2,4.3252533E2,7.612934E1,2.4381036E2,1.13510826E2,8.9984566E1,9.7994804E1,1.5774866E2,5.2787697E1,3.7973764E2],"tree_param":{"num_deleted":"0","num_feature":"2000","num_nodes":"15","size_leaf_vector":"1"}},{"base_weights":[3.68535E-3,-1.0863535E0,7.2005713E-1,-1.2652552E0,-5.64613E-1,4.03428E-2,9.688011E-1,7.1873637E-3,-1.3051157E-1,-1.4216018E-2,-1.0934814E-1,-4.3664403E-2,4.747335E-2,6.952428E-2,1.2473279E-1],"categories":[],"categories_nodes":[],"categories_segments":[],"categories_sizes":[],"default_left":[0,0,0,0,0,0,0,0,0,0,0,0,0,0,0],"id":3,"left_children":[1,3,5,7,9,11,13,-1,-1,-1,-1,-1,-1,-1,-1],"loss_changes":[9.417681E2,4.3928894E1,1.2300659E2,1.903357E1,2.753344E1,4.0821888E1,3.972406E1,0E0,0E0,0E0,0E0,0E0,0E0,0E0,0E0],"parents":[2147483647,0,0,1,1,2,2,3,3,4,4,5,5,6,6],"right_children":[2,4,6,8,10,12,14,-1,-1,-1,-1,-1,-1,-1,-1],"split_conditions":[-2.3957646E-1,-6.3883513E-1,3.0464014E-1,-1.4422274E0,-1.6877514E-1,-8.082409E-1,8.7393767E-1,7.1873637E-3,-1.3051157E-1,-1.4216018E-2,-1.0934814E-1,-4.3664403E-2,4.747335E-2,6.952428E-2,1.2473279E-1],"split_indices":[1999,1999,1999,1996,1823,1886,1999,0,0,0,0,0,0,0,0],"split_type":[0,0,0,0,0,0,0,0,0,0,0,0,0,0,0],"sum_hessian":[1.2040433E3,4.77285E2,7.2675836E2,3.5435406E2,1.2293094E2,1.9501772E2,5.317406E2,1.0234407E1,3.4411966E2,6.904642E1,5.3884525E1,9.2949E1,1.0206872E2,2.7002682E2,2.6171378E2],"tree_param":{"num_deleted":"0","num_feature":"2000","num_nodes":"15","size_leaf_vector":"1"}},{"base_weights":[-2.1637196E-2,4.2878285E-1,-5.687919E-1,6.860352E-2,9.154447E-1,-8.2411385E-1,7.486909E-1,-7.946763E-3,1.0365134E-1,-8.569798E-3,9.731711E-2,-9.634943E-2,4.623219E-3,-1.8353825E-2,9.785763E-2],"categories":[],"categories_nodes":[],"categories_segments":[],"categories_sizes":[],"default_left":[0,0,0,0,0,0,0,0,0,0,0,0,0,0,0],"id":4,"left_children":[1,3,5,7,9,11,13,-1,-1,-1,-1,-1,-1,-1,-1],"loss_changes":[2.894076E2,1.12841705E2,1.7896716E2,5.328858E1,1.5911316E1,5.39794E1,1.8737286E1,0E0,0E0,0E0,0E0,0E0,0E0,0E0,0E0],"parents":[2147483647,0,0,1,1,2,2,3,3,4,4,5,5,6,6],"right_children":[2,4,6,8,10,12,14,-1,-1,-1,-1,-1,-1,-1,-1],"split_conditions":[-3.4562278E-1,-3.292189E-1,-2.3082322E-1,-1.2171973E-1,-1.8324938E-1,-2.886824E-1,-1.7334169E-1,-7.946763E-3,1.0365134E-1,-8.569798E-3,9.731711E-2,-9.634943E-2,4.623219E-3,-1.8353825E-2,9.785763E-2],"split_indices":[1919,1848,1906,1906,1503,1848,1613,0,0,0,0,0,0,0,0],"split_type":[0,0,0,0,0,0,0,0,0,0,0,0,0,0,0],"sum_hessian":[1.1723186E3,6.431177E2,5.2920087E2,3.7024194E2,2.7287576E2,4.4360648E2,8.559435E1,3.2191342E2,4.8328526E1,1.4849948E1,2.5802582E2,3.8227975E2,6.1326733E1,1.6971857E1,6.86225E1],"tree_param":{"num_deleted":"0","num_feature":"2000","num_nodes":"15","size_leaf_vector":"1"}},{"base_weights":[2.0912085E-3,-8.9013433E-1,3.1283826E-1,-6.973977E-2,-1.0362498E0,-1.2132217E0,4.0351152E-1,-4.941243E-2,9.415611E-2,-1.0980709E-1,1.7385786E-2,-1.3801005E-1,4.0688884E-2,2.3686714E-2,1.063015E-1],"categories":[],"categories_nodes":[],"categories_segments":[],"categories_sizes":[],"default_left":[0,0,0,0,0,0,0,0,0,0,0,0,0,0,0],"id":5,"left_children":[1,3,5,7,9,11,13,-1,-1,-1,-1,-1,-1,-1,-1],"loss_changes":[3.250373E2,3.6229065E1,1.2080433E2,2.0574083E1,1.9415558E1,1.3813263E1,9.003119E1,0E0,0E0,0E0,0E0,0E0,0E0,0E0,0E0],"parents":[2147483647,0,0,1,1,2,2,3,3,4,4,5,5,6,6],"right_children":[2,4,6,8,10,12,14,-1,-1,-1,-1,-1,-1,-1,-1],"split_conditions":[-1.79118E-1,-1.5849473E-1,-1.8432307E-1,-9.834299E-2,-1.5715635E-1,-9.118309E-2,-1.6368389E-1,-4.941243E-2,9.415611E-2,-1.0980709E-1,1.7385786E-2,-1.3801005E-1,4.0688884E-2,2.3686714E-2,1.063015E-1],"split_indices":[984,1833,1569,1357,847,1383,1611,0,0,0,0,0,0,0,0],"split_type":[0,0,0,0,0,0,0,0,0,0,0,0,0,0,0],"sum_hessian":[1.1703302E3,3.0183337E2,8.684968E2,4.5854034E1,2.5597934E2,4.801467E1,8.204822E2,3.265994E1,1.3194093E1,2.4362575E2,1.2353579E1,4.3665108E1,4.3495626E0,6.560656E2,1.6441655E2],"tree_param":{"num_deleted":"0","num_feature":"2000","num_nodes":"15","size_leaf_vector":"1"}},{"base_weights":[1.5994133E-2,-8.1716627E-1,3.1715688E-1,-1.0001742E0,-3.2241398E-1,6.261221E-2,8.841721E-1,-3.237606E-2,-1.0979289E-1,2.4588345E-2,-7.309243E-2,-1.1046826E-2,1.0102426E-1,9.639513E-2,-1.3301854E-2],"categories":[],"categories_nodes":[],"categories_segments":[],"categories_sizes":[],"default_left":[0,0,0,0,0,0,0,0,0,0,0,0,0,0,0],"id":6,"left_children":[1,3,5,7,9,11,13,-1,-1,-1,-1,-1,-1,-1,-1],"loss_changes":[2.877918E2,2.7250168E1,1.2152946E2,1.431189E1,1.9611752E1,9.564745E1,2.1302612E1,0E0,0E0,0E0,0E0,0E0,0E0,0E0,0E0],"parents":[2147483647,0,0,1,1,2,2,3,3,4,4,5,5,6,6],"right_children":[2,4,6,8,10,12,14,-1,-1,-1,-1,-1,-1,-1,-1],"split_conditions":[-1.7626204E-1,-3.2541832E-1,-3.1248057E-1,-1.6962777E-1,-2.394928E-1,-1.5453045E-1,4.3088447E-2,-3.237606E-2,-1.0979289E-1,2.4588345E-2,-7.309243E-2,-1.1046826E-2,1.0102426E-1,9.639513E-2,-1.3301854E-2],"split_indices":[984,1848,1848,922,1919,1906,1880,0,0,0,0,0,0,0,0],"split_type":[0,0,0,0,0,0,0,0,0,0,0,0,0,0,0],"sum_hessian":[1.144928E3,3.035234E2,8.4140454E2,2.2082072E2,8.270269E1,5.814778E2,2.5992676E2,2.8427645E1,1.9239308E2,3.4753544E1,4.794915E1,4.9242242E2,8.905534E1,2.4107162E2,1.885514E1],"tree_param":{"num_deleted":"0","num_feature":"2000","num_nodes":"15","size_leaf_vector":"1"}},{"base_weights":[-9.248489E-3,-7.4016815E-1,7.0516723E-1,-1.0782279E0,-2.6043463E-1,2.8234658E-1,8.869856E-1,3.4643594E-2,-1.1164713E-1,-5.6837913E-2,2.8860403E-2,-2.947004E-2,7.166213E-2,6.805178E-2,1.2266856E-1],"categories":[],"categories_nodes":[],"categories_segments":[],"categories_sizes":[],"default_left":[0,0,0,0,0,0,0,0,0,0,0,0,0,0,0],"id":7,"left_children":[1,3,5,7,9,11,13,-1,-1,-1,-1,-1,-1,-1,-1],"loss_changes":[5.9360675E2,9.084665E1,4.394507E1,1.83284E1,3.9658768E1,4.3900105E1,2.7328766E1,0E0,0E0,0E0,0E0,0E0,0E0,0E0,0E0],"parents":[2147483647,0,0,1,1,2,2,3,3,4,4,5,5,6,6],"right_children":[2,4,6,8,10,12,14,-1,-1,-1,-1,-1,-1,-1,-1],"split_conditions":[8.136472E-2,-6.3883513E-1,-1.6866201E-1,-1.5952995E-1,-1.672997E-1,7.7818775E-1,-2.846615E-1,3.4643594E-2,-1.1164713E-1,-5.6837913E-2,2.8860403E-2,-2.947004E-2,7.166213E-2,6.805178E-2,1.2266856E-1],"split_indices":[1999,1999,1582,1651,1710,1999,1906,0,0,0,0,0,0,0,0],"split_type":[0,0,0,0,0,0,0,0,0,0,0,0,0,0,0],"sum_hessian":[1.134785E3,5.6089575E2,5.738893E2,3.283006E2,2.3259517E2,1.7333939E2,4.0054987E2,8.371787E0,3.199288E2,1.4899289E2,8.360227E1,7.4572205E1,9.876717E1,2.5099796E2,1.4955191E2],"tree_param":{"num_deleted":"0","num_feature":"2000","num_nodes":"15","size_leaf_vector":"1"}},{"base_weights":[9.922992E-3,-7.401914E-1,2.5537613E-1,-2.4504225E-1,-8.966368E-1,-1.0601052E0,3.4726775E-1,-4.5402184E-2,7.67313E-2,-9.382421E-2,9.398704E-2,-1.2899026E-1,-2.8485477E-3,-6.055478E-2,4.3767396E-2],"categories":[],"categories_nodes":[],"categories_segments":[],"categories_sizes":[],"default_left":[0,0,0,0,0,0,0,0,0,0,0,0,0,0,0],"id":8,"left_children":[1,3,5,7,9,11,13,-1,-1,-1,-1,-1,-1,-1,-1],"loss_changes":[2.0677827E2,2.1229462E1,1.0265284E2,1.4704319E1,1.6930344E1,1.3119045E1,6.8459015E1,0E0,0E0,0E0,0E0,0E0,0E0,0E0,0E0],"parents":[2147483647,0,0,1,1,2,2,3,3,4,4,5,5,6,6],"right_children":[2,4,6,8,10,12,14,-1,-1,-1,-1,-1,-1,-1,-1],"split_conditions":[-1.9791709E-1,-1.6879573E-1,-1.8398821E-1,-7.960482E-2,-1.5427652E-1,-1.6374274E-1,-2.8096974E-1,-4.5402184E-2,7.67313E-2,-9.382421E-2,9.398704E-2,-1.2899026E-1,-2.8485477E-3,-6.055478E-2,4.3767396E-2],"split_indices":[1489,1582,1817,799,377,1591,1630,0,0,0,0,0,0,0,0],"split_type":[0,0,0,0,0,0,0,0,0,0,0,0,0,0,0],"sum_hessian":[1.1210483E3,2.75893E2,8.451554E2,6.685703E1,2.0903598E2,5.4494774E1,7.906606E2,5.5874443E1,1.0982592E1,2.0488354E2,4.1524377E0,4.4362488E1,1.0132286E1,6.8025314E1,7.226353E2],"tree_param":{"num_deleted":"0","num_feature":"2000","num_nodes":"15","size_leaf_vector":"1"}},{"base_weights":[-1.616445E-2,-8.1157744E-1,4.9278027E-1,-1.0147567E0,-5.0255877E-1,7.064688E-2,7.75003E-1,-5.1802903E-2,-1.1854658E-1,-8.7337136E-2,4.6663915E-4,-1.8979251E-2,7.324108E-2,2.3996538E-2,9.023254E-2],"categories":[],"categories_nodes":[],"categories_segments":[],"categories_sizes":[],"default_left":[0,0,0,0,0,0,0,0,0,0,0,0,0,0,0],"id":9,"left_children":[1,3,5,7,9,11,13,-1,-1,-1,-1,-1,-1,-1,-1],"loss_changes":[4.4034818E2,2.6137909E1,7.897368E1,2.1015808E1,3.204289E1,4.6137688E1,2.6859146E1,0E0,0E0,0E0,0E0,0E0,0E0,0E0,0E0],"parents":[2147483647,0,0,1,1,2,2,3,3,4,4,5,5,6,6],"right_children":[2,4,6,8,10,12,14,-1,-1,-1,-1,-1,-1,-1,-1],"split_conditions":[-2.3957646E-1,-8.1980103E-1,4.9488226E-1,-1.644739E-1,1.312973E-1,-8.3355874E-2,-4.93216E-1,-5.1802903E-2,-1.1854658E-1,-8.7337136E-2,4.6663915E-4,-1.8979251E-2,7.324108E-2,2.3996538E-2,9.023254E-2],"split_indices":[1999,1999,1999,1578,1902,1839,1939,0,0,0,0,0,0,0,0],"split_type":[0,0,0,0,0,0,0,0,0,0,0,0,0,0,0],"sum_hessian":[1.0857717E3,4.2342307E2,6.6234863E2,2.5408128E2,1.6934177E2,2.6589206E2,3.9645657E2,6.601787E1,1.8806342E2,9.740842E1,7.193336E1,1.9131328E2,7.457879E1,7.6763565E1,3.19693E2],"tree_param":{"num_deleted":"0","num_feature":"2000","num_nodes":"15","size_leaf_vector":"1"}},{"base_weights":[3.0213352E-3,-7.2827464E-1,4.7906187E-1,-9.12657E-1,-3.7275365E-1,2.3223162E-1,8.3377767E-1,-4.739743E-2,-1.07798554E-1,-2.6104741E-3,-8.513858E-2,-2.4700884E-2,5.372991E-2,-4.2931303E-2,9.025156E-2],"categories":[],"categories_nodes":[],"categories_segments":[],"categories_sizes":[],"default_left":[0,0,0,0,0,0,0,0,0,0,0,0,0,0,0],"id":10,"left_children":[1,3,5,7,9,11,13,-1,-1,-1,-1,-1,-1,-1,-1],"loss_changes":[3.7334998E2,2.7379028E1,5.6681213E1,1.9634003E1,2.4218493E1,5.6337196E1,2.3495972E1,0E0,0E0,0E0,0E0,0E0,0E0,0E0,0E0],"parents":[2147483647,0,0,1,1,2,2,3,3,4,4,5,5,6,6],"right_children":[2,4,6,8,10,12,14,-1,-1,-1,-1,-1,-1,-1,-1],"split_conditions":[-2.3957646E-1,-7.430622E-1,7.861372E-1,-1.644739E-1,-1.6877514E-1,-1.106623E-1,-4.9107978E-1,-4.739743E-2,-1.07798554E-1,-2.6104741E-3,-8.513858E-2,-2.4700884E-2,5.372991E-2,-4.2931303E-2,9.025156E-2],"split_indices":[1999,1999,1999,1578,1823,1839,1921,0,0,0,0,0,0,0,0],"split_type":[0,0,0,0,0,0,0,0,0,0,0,0,0,0,0],"sum_hessian":[1.0704526E3,4.2185968E2,6.4859296E2,2.7675848E2,1.4510121E2,3.834338E2,2.6515912E2,7.6812096E1,1.9994638E2,8.476487E1,6.0336338E1,1.4921594E2,2.3421788E2,1.3414559E1,2.5174455E2],"tree_param":{"num_deleted":"0","num_feature":"2000","num_nodes":"15","size_leaf_vector":"1"}},{"base_weights":[-4.062554E-3,2.8641292E-1,-5.195409E-1,3.1134604E-2,6.8148875E-1,-5.768853E-1,7.217574E-1,-2.1182861E-2,3.9935376E-2,4.245184E-3,7.761148E-2,-6.463043E-2,2.9826034E-2,-9.050343E-2,9.738088E-2],"categories":[],"categories_nodes":[],"categories_segments":[],"categories_sizes":[],"default_left":[0,0,0,0,0,0,0,0,0,0,0,0,0,0,0],"id":11,"left_children":[1,3,5,7,9,11,13,-1,-1,-1,-1,-1,-1,-1,-1],"loss_changes":[1.584792E2,6.8252396E1,2.7569214E1,3.6968853E1,1.6032051E1,2.2377548E1,7.9701767E0,0E0,0E0,0E0,0E0,0E0,0E0,0E0,0E0],"parents":[2147483647,0,0,1,1,2,2,3,3,4,4,5,5,6,6],"right_children":[2,4,6,8,10,12,14,-1,-1,-1,-1,-1,-1,-1,-1],"split_conditions":[-4.5850247E-1,-3.292189E-1,-1.174658E-1,-1.8151297E-1,-2.1159297E-1,-1.557775E-1,-1.7860529E-1,-2.1182861E-2,3.9935376E-2,4.245184E-3,7.761148E-2,-6.463043E-2,2.9826034E-2,-9.050343E-2,9.738088E-2],"split_indices":[1879,1848,847,1593,1749,1363,1790,0,0,0,0,0,0,0,0],"split_type":[0,0,0,0,0,0,0,0,0,0,0,0,0,0,0],"sum_hessian":[1.0564125E3,6.759529E2,3.804596E2,4.1128183E2,2.6467105E2,3.641712E2,1.628839E1,2.4804092E2,1.632409E2,3.4323467E1,2.3034758E2,3.3764938E2,2.65218E1,1.8375821E0,1.4450808E1],"tree_param":{"num_deleted":"0","num_feature":"2000","num_nodes":"15","size_leaf_vector":"1"}},{"base_weights":[2.5830881E-3,-6.603283E-1,4.158892E-1,-3.491423E-1,-8.8083965E-1,-3.4361236E-2,6.064547E-1,-5.2649148E-2,3.6420118E-2,-9.1347985E-2,7.129782E-2,-4.5313533E-2,4.3487255E-2,3.843889E-2,9.429469E-2],"categories":[],"categories_nodes":[],"categories_segments":[],"categories_sizes":[],"default_left":[0,0,0,0,0,0,0,0,0,0,0,0,0,0,0],"id":12,"left_children":[1,3,5,7,9,11,13,-1,-1,-1,-1,-1,-1,-1,-1],"loss_changes":[2.8408533E2,2.7016556E1,5.4819824E1,2.129377E1,1.2740997E1,3.7704105E1,3.317296E1,0E0,0E0,0E0,0E0,0E0,0E0,0E0,0E0],"parents":[2147483647,0,0,1,1,2,2,3,3,4,4,5,5,6,6],"right_children":[2,4,6,8,10,12,14,-1,-1,-1,-1,-1,-1,-1,-1],"split_conditions":[-2.551259E-1,-3.666836E-1,-1.6866201E-1,-2.0813337E-1,-1.6308612E-1,7.7818775E-1,7.456277E-1,-5.2649148E-2,3.6420118E-2,-9.1347985E-2,7.129782E-2,-4.5313533E-2,4.3487255E-2,3.843889E-2,9.429469E-2],"split_indices":[1999,1905,1582,1593,1472,1999,1999,0,0,0,0,0,0,0,0],"split_type":[0,0,0,0,0,0,0,0,0,0,0,0,0,0,0],"sum_hessian":[1.0348608E3,3.9719412E2,6.376667E2,1.6580008E2,2.3139404E2,1.898727E2,4.4779398E2,1.329968E2,3.280329E1,2.2716867E2,4.225377E0,1.0034909E2,8.952361E1,2.7105527E2,1.7673871E2],"tree_param":{"num_deleted":"0","num_feature":"2000","num_nodes":"15","size_leaf_vector":"1"}},{"base_weights":[-3.6089616E-3,-1.5466587E-1,7.2788566E-1,7.693381E-2,-5.298501E-1,-1.3865581E-1,8.6656386E-1,-2.6494889E-2,2.8954295E-2,-1.0939731E-1,-4.046706E-2,-1.1526328E-1,2.2342771E-2,-1.02623455E-1,9.0253964E-2],"categories":[],"categories_nodes":[],"categories_segments":[],"categories_sizes":[],"default_left":[0,0,0,0,0,0,0,0,0,0,0,0,0,0,0],"id":13,"left_children":[1,3,5,7,9,11,13,-1,-1,-1,-1,-1,-1,-1,-1],"loss_changes":[1.1191138E2,7.298079E1,2.095176E1,3.786724E1,2.2191551E1,9.354331E0,1.1111389E1,0E0,0E0,0E0,0E0,0E0,0E0,0E0,0E0],"parents":[2147483647,0,0,1,1,2,2,3,3,4,4,5,5,6,6],"right_children":[2,4,6,8,10,12,14,-1,-1,-1,-1,-1,-1,-1,-1],"split_conditions":[-2.0791125E-1,-4.558416E-1,-5.5425674E-1,-4.544147E-1,-2.2492358E-1,-1.0083506E0,-1.7454205E-1,-2.6494889E-2,2.8954295E-2,-1.0939731E-1,-4.046706E-2,-1.1526328E-1,2.2342771E-2,-1.02623455E-1,9.0253964E-2],"split_indices":[1906,1879,1876,1920,1561,1885,1293,0,0,0,0,0,0,0,0],"split_type":[0,0,0,0,0,0,0,0,0,0,0,0,0,0,0],"sum_hessian":[1.0107784E3,8.3842786E2,1.7235054E2,5.189049E2,3.1952292E2,2.3777178E1,1.4857336E2,1.9886964E2,3.2003528E2,5.662091E1,2.62902E2,5.681999E0,1.8095179E1,2.2577953E0,1.4631557E2],"tree_param":{"num_deleted":"0","num_feature":"2000","num_nodes":"15","size_leaf_vector":"1"}},{"base_weights":[6.958444E-3,-4.6400636E-1,5.06594E-1,-7.4702543E-1,-1.3557576E-1,2.283344E-1,7.773857E-1,-3.5657294E-2,-9.0640955E-2,-9.096545E-2,3.875541E-3,-4.2743916E-3,5.8679856E-2,-4.6613302E-2,8.370592E-2],"categories":[],"categories_nodes":[],"categories_segments":[],"categories_sizes":[],"default_left":[0,0,0,0,0,0,0,0,0,0,0,0,0,0,0],"id":14,"left_children":[1,3,5,7,9,11,13,-1,-1,-1,-1,-1,-1,-1,-1],"loss_changes":[2.3686913E2,4.806524E1,3.6626427E1,1.6984375E1,3.2567024E1,2.3571064E1,1.8728073E1,0E0,0E0,0E0,0E0,0E0,0E0,0E0,0E0],"parents":[2147483647,0,0,1,1,2,2,3,3,4,4,5,5,6,6],"right_children":[2,4,6,8,10,12,14,-1,-1,-1,-1,-1,-1,-1,-1],"split_conditions":[1.366913E-1,-6.3883513E-1,-3.7921846E-1,-4.40111E-1,-1.714442E-1,8.8318366E-1,-2.2078814E-1,-3.5657294E-2,-9.0640955E-2,-9.096545E-2,3.875541E-3,-4.2743916E-3,5.8679856E-2,-4.6613302E-2,8.370592E-2],"split_indices":[1999,1999,1876,1852,1029,1999,1354,0,0,0,0,0,0,0,0],"split_type":[0,0,0,0,0,0,0,0,0,0,0,0,0,0,0],"sum_hessian":[1.0046236E3,5.171864E2,4.8743723E2,2.7711398E2,2.4007242E2,2.4131276E2,2.4612445E2,8.126692E1,1.9584706E2,4.335339E1,1.9671902E2,1.3790602E2,1.03406746E2,1.0958186E1,2.3516626E2],"tree_param":{"num_deleted":"0","num_feature":"2000","num_nodes":"15","size_leaf_vector":"1"}},{"base_weights":[1.9766822E-2,-3.6263576E-1,5.319889E-1,-7.449631E-1,-1.2193271E-1,6.28023E-1,-3.931117E-2,-4.5563694E-2,-9.4775744E-2,-2.1706436E-2,8.419021E-2,3.235933E-2,8.1201404E-2,-6.2086135E-2,5.674761E-2],"categories":[],"categories_nodes":[],"categories_segments":[],"categories_sizes":[],"default_left":[0,0,0,0,0,0,0,0,0,0,0,0,0,0,0],"id":15,"left_children":[1,3,5,7,9,11,13,-1,-1,-1,-1,-1,-1,-1,-1],"loss_changes":[1.9015646E2,5.106443E1,2.2790604E1,1.2157219E1,3.1569525E1,1.9638107E1,2.1756195E1,0E0,0E0,0E0,0E0,0E0,0E0,0E0,0E0],"parents":[2147483647,0,0,1,1,2,2,3,3,4,4,5,5,6,6],"right_children":[2,4,6,8,10,12,14,-1,-1,-1,-1,-1,-1,-1,-1],"split_conditions":[3.0464014E-1,-8.045151E-1,9.5958054E-2,8.147125E-2,-1.6555755E-1,-1.0809086E-1,8.3742505E-1,-4.5563694E-2,-9.4775744E-2,-2.1706436E-2,8.419021E-2,3.235933E-2,8.1201404E-2,-6.2086135E-2,5.674761E-2],"split_indices":[1999,1999,1900,1408,1337,1408,1999,0,0,0,0,0,0,0,0],"split_type":[0,0,0,0,0,0,0,0,0,0,0,0,0,0,0],"sum_hessian":[9.6881995E2,5.548702E2,4.1394974E2,2.1356052E2,3.4130966E2,3.5429446E2,5.965529E1,8.934254E1,1.2421798E2,3.1135352E2,2.9956167E1,1.3450409E2,2.1979037E2,3.044926E1,2.9206028E1],"tree_param":{"num_deleted":"0","num_feature":"2000","num_nodes":"15","size_leaf_vector":"1"}},{"base_weights":[-1.1445642E-3,2.1166335E-1,-3.905766E-1,3.976053E-2,7.0179164E-1,-5.032686E-1,2.9292557E-1,-4.4546362E-2,2.0578653E-2,9.690329E-2,2.9009435E-2,-5.529952E-2,7.2068594E-2,7.142591E-2,-3.4403574E-2],"categories":[],"categories_nodes":[],"categories_segments":[],"categories_sizes":[],"default_left":[0,0,0,0,0,0,0,0,0,0,0,0,0,0,0],"id":16,"left_children":[1,3,5,7,9,11,13,-1,-1,-1,-1,-1,-1,-1,-1],"loss_changes":[7.9014496E1,5.1917202E1,2.6097412E1,3.6947754E1,1.732547E1,1.8023613E1,1.3212639E1,0E0,0E0,0E0,0E0,0E0,0E0,0E0,0E0],"parents":[2147483647,0,0,1,1,2,2,3,3,4,4,5,5,6,6],"right_children":[2,4,6,8,10,12,14,-1,-1,-1,-1,-1,-1,-1,-1],"split_conditions":[-4.5850247E-1,-2.904572E-1,-1.6393743E-1,-1.7799056E-1,-1.4268425E-1,4.002207E-1,-3.3733684E-1,-4.4546362E-2,2.0578653E-2,9.690329E-2,2.9009435E-2,-5.529952E-2,7.2068594E-2,7.142591E-2,-3.4403574E-2],"split_indices":[1879,1906,1611,1354,1998,1536,1879,0,0,0,0,0,0,0,0],"split_type":[0,0,0,0,0,0,0,0,0,0,0,0,0,0,0],"sum_hessian":[9.5142914E2,6.155267E2,3.3590247E2,4.5649957E2,1.590271E2,2.8858575E2,4.7316715E1,1.1594832E2,3.4055127E2,9.561056E1,6.3416542E1,2.778457E2,1.074007E1,2.8405714E1,1.8911001E1],"tree_param":{"num_deleted":"0","num_feature":"2000","num_nodes":"15","size_leaf_vector":"1"}},{"base_weights":[-4.14829E-3,-1.8329556E-1,3.923251E-1,-4.2513782E-1,6.833348E-2,-2.2314554E-1,5.3896374E-1,-5.052529E-2,5.2847452E-2,1.999309E-2,-4.1681845E-2,-5.477884E-2,2.8002819E-2,-2.1659116E-1,5.6759086E-2],"categories":[],"categories_nodes":[],"categories_segments":[],"categories_sizes":[],"default_left":[0,0,0,0,0,0,0,0,0,0,0,0,0,0,0],"id":17,"left_children":[1,3,5,7,9,11,13,-1,-1,-1,-1,-1,-1,-1,-1],"loss_changes":[6.696482E1,3.9545918E1,2.6602642E1,2.5574913E1,2.0456524E1,9.491577E0,1.9601189E1,0E0,0E0,0E0,0E0,0E0,0E0,0E0,0E0],"parents":[2147483647,0,0,1,1,2,2,3,3,4,4,5,5,6,6],"right_children":[2,4,6,8,10,12,14,-1,-1,-1,-1,-1,-1,-1,-1],"split_conditions":[-3.2234675E-1,-2.5005993E-1,-1.8088934E-1,-1.4512064E-1,-2.376607E-1,-1.3426502E-1,-1.6970731E-1,-5.052529E-2,5.2847452E-2,1.999309E-2,-4.1681845E-2,-5.477884E-2,2.8002819E-2,-2.1659116E-1,5.6759086E-2],"split_indices":[1848,1593,984,277,1898,1381,1542,0,0,0,0,0,0,0,0],"split_type":[0,0,0,0,0,0,0,0,0,0,0,0,0,0,0],"sum_hessian":[9.4079376E2,6.48366E2,2.9242773E2,3.3026077E2,3.1810522E2,5.616609E1,2.3626166E2,3.050989E2,2.5161875E1,2.5069275E2,6.741248E1,3.408567E1,2.2080414E1,1.6924096E0,2.3456924E2],"tree_param":{"num_deleted":"0","num_feature":"2000","num_nodes":"15","size_leaf_vector":"1"}},{"base_weights":[1.285919E-2,1.9092153E-1,-3.186218E-1,5.503202E-2,6.465585E-1,-8.7253815E-1,-2.112312E-1,-8.076913E-2,1.2805779E-2,-7.613203E-2,7.052889E-2,-9.6360825E-2,8.160526E-2,-3.44902E-2,3.375287E-2],"categories":[],"categories_nodes":[],"categories_segments":[],"categories_sizes":[],"default_left":[0,0,0,0,0,0,0,0,0,0,0,0,0,0,0],"id":18,"left_children":[1,3,5,7,9,11,13,-1,-1,-1,-1,-1,-1,-1,-1],"loss_changes":[5.5114048E1,3.757254E1,1.9226883E1,2.9648342E1,1.2066875E1,8.886257E0,2.0262619E1,0E0,0E0,0E0,0E0,0E0,0E0,0E0,0E0],"parents":[2147483647,0,0,1,1,2,2,3,3,4,4,5,5,6,6],"right_children":[2,4,6,8,10,12,14,-1,-1,-1,-1,-1,-1,-1,-1],"split_conditions":[-4.571651E-1,-8.174793E-2,-1.7755806E-1,-1.8384263E-1,-2.1074265E-1,-1.3208605E-1,-1.5983357E-1,-8.076913E-2,1.2805779E-2,-7.613203E-2,7.052889E-2,-9.6360825E-2,8.160526E-2,-3.44902E-2,3.375287E-2],"split_indices":[1879,1839,1606,1572,1569,630,1383,0,0,0,0,0,0,0,0],"split_type":[0,0,0,0,0,0,0,0,0,0,0,0,0,0,0],"sum_hessian":[9.3172144E2,6.0640283E2,3.253186E2,4.679591E2,1.384437E2,5.1671944E1,2.7364667E2,3.573438E1,4.3222473E2,5.0649137E0,1.3337877E2,4.943512E1,2.2368228E0,2.2034499E2,5.330169E1],"tree_param":{"num_deleted":"0","num_feature":"2000","num_nodes":"15","size_leaf_vector":"1"}},{"base_weights":[-1.2788297E-2,-9.2345697E-1,5.577622E-2,-1.04827E0,2.0582974E-1,-3.561897E-2,6.5171844E-1,-1.0946363E-1,8.007591E-2,-8.6485736E-2,7.203925E-2,5.1658927E-3,-6.4102195E-2,-1.0820159E-2,8.195142E-2],"categories":[],"categories_nodes":[],"categories_segments":[],"categories_sizes":[],"default_left":[0,0,0,0,0,0,0,0,0,0,0,0,0,0,0],"id":19,"left_children":[1,3,5,7,9,11,13,-1,-1,-1,-1,-1,-1,-1,-1],"loss_changes":[5.7882267E1,9.364429E0,4.6988407E1,5.9014816E0,4.6425023E0,3.9586353E1,1.4715389E1,0E0,0E0,0E0,0E0,0E0,0E0,0E0,0E0],"parents":[2147483647,0,0,1,1,2,2,3,3,4,4,5,5,6,6],"right_children":[2,4,6,8,10,12,14,-1,-1,-1,-1,-1,-1,-1,-1],"split_conditions":[-1.8620448E-1,-1.5863344E-1,-1.1400721E-1,-1.6935255E-1,-2.530226E-1,-3.1859684E-1,-5.3356946E-1,-1.0946363E-1,8.007591E-2,-8.6485736E-2,7.203925E-2,5.1658927E-3,-6.4102195E-2,-1.0820159E-2,8.195142E-2],"split_indices":[1569,1619,1906,34,1569,1895,1876,0,0,0,0,0,0,0,0],"split_type":[0,0,0,0,0,0,0,0,0,0,0,0,0,0,0],"sum_hessian":[9.251879E2,6.3907322E1,8.612806E2,5.7611614E1,6.295708E0,7.475714E2,1.1370919E2,5.6600296E1,1.0113178E0,1.8225784E0,4.4731297E0,6.541767E2,9.3394684E1,2.0630787E1,9.30784E1],"tree_param":{"num_deleted":"0","num_feature":"2000","num_nodes":"15","size_leaf_vector":"1"}},{"base_weights":[1.169165E-2,-3.462112E-1,4.1909948E-1,-6.4871407E-1,-1.2053335E-1,3.1432286E-1,9.7153264E-1,-1.372543E-2,-8.2790986E-2,-4.6616003E-2,2.1553887E-2,-2.0518556E-2,4.1279305E-2,1.0348838E-1,-7.961079E-2],"categories":[],"categories_nodes":[],"categories_segments":[],"categories_sizes":[],"default_left":[0,0,0,0,0,0,0,0,0,0,0,0,0,0,0],"id":20,"left_children":[1,3,5,7,9,11,13,-1,-1,-1,-1,-1,-1,-1,-1],"loss_changes":[1.342678E2,3.338777E1,2.4619667E1,1.9062302E1,3.2854706E1,1.8677067E1,8.458084E0,0E0,0E0,0E0,0E0,0E0,0E0,0E0,0E0],"parents":[2147483647,0,0,1,1,2,2,3,3,4,4,5,5,6,6],"right_children":[2,4,6,8,10,12,14,-1,-1,-1,-1,-1,-1,-1,-1],"split_conditions":[1.7723669E-1,-7.6277006E-1,-1.6673546E-1,-1.6805546E-1,-2.7389166E-1,-3.0418313E-1,-1.6522066E-1,-1.372543E-2,-8.2790986E-2,-4.6616003E-2,2.1553887E-2,-2.0518556E-2,4.1279305E-2,1.0348838E-1,-7.961079E-2],"split_indices":[1999,1999,1803,1578,1911,1995,1519,0,0,0,0,0,0,0,0],"split_type":[0,0,0,0,0,0,0,0,0,0,0,0,0,0,0],"sum_hessian":[9.188305E2,4.89213E2,4.296175E2,2.0822702E2,2.80986E2,3.6244394E2,6.7173546E1,5.448425E1,1.5374278E2,1.3833305E2,1.4265292E2,5.758E1,3.0486395E2,6.524959E1,1.9239612E0],"tree_param":{"num_deleted":"0","num_feature":"2000","num_nodes":"15","size_leaf_vector":"1"}},{"base_weights":[-3.106914E-3,-4.714388E-1,2.7640957E-1,5.3209733E-2,-5.818353E-1,-6.744122E-2,4.6504223E-1,-1.3722402E-2,1.4915165E-1,-6.0454696E-2,1.5159056E-1,-3.1135742E-2,3.2128148E-2,1.0488123E-2,6.604727E-2],"categories":[],"categories_nodes":[],"categories_segments":[],"categories_sizes":[],"default_left":[0,0,0,0,0,0,0,0,0,0,0,0,0,0,0],"id":21,"left_children":[1,3,5,7,9,11,13,-1,-1,-1,-1,-1,-1,-1,-1],"loss_changes":[1.1619682E2,1.9246284E1,3.6086376E1,1.6252459E1,1.39787445E1,1.8853947E1,2.5205368E1,0E0,0E0,0E0,0E0,0E0,0E0,0E0,0E0],"parents":[2147483647,0,0,1,1,2,2,3,3,4,4,5,5,6,6],"right_children":[2,4,6,8,10,12,14,-1,-1,-1,-1,-1,-1,-1,-1],"split_conditions":[-2.3957646E-1,-1.2746301E-1,-4.433738E-1,-5.0882023E-2,-1.5582435E-1,7.7818775E-1,-1.6520798E-1,-1.3722402E-2,1.4915165E-1,-6.0454696E-2,1.5159056E-1,-3.1135742E-2,3.2128148E-2,1.0488123E-2,6.604727E-2],"split_indices":[1999,1651,1920,1357,1436,1999,1582,0,0,0,0,0,0,0,0],"split_type":[0,0,0,0,0,0,0,0,0,0,0,0,0,0,0],"sum_hessian":[8.8563684E2,3.3075977E2,5.54877E2,5.758948E1,2.731703E2,1.9679321E2,3.5808383E2,5.1654896E1,5.934585E0,2.7094864E2,2.2216697E0,1.21041176E2,7.5752045E1,1.2649725E2,2.3158656E2],"tree_param":{"num_deleted":"0","num_feature":"2000","num_nodes":"15","size_leaf_vector":"1"}},{"base_weights":[-1.1119517E-2,-7.8845173E-1,5.069277E-2,-9.079481E-1,4.3846548E-1,-5.961578E-1,1.17845275E-1,-9.9092714E-2,1.2850995E-1,-6.319233E-2,1.2407744E-1,-6.954004E-2,8.05746E-2,-1.1811098E-2,3.2335944E-2],"categories":[],"categories_nodes":[],"categories_segments":[],"categories_sizes":[],"default_left":[0,0,0,0,0,0,0,0,0,0,0,0,0,0,0],"id":22,"left_children":[1,3,5,7,9,11,13,-1,-1,-1,-1,-1,-1,-1,-1],"loss_changes":[4.1857803E1,9.806099E0,3.5131065E1,1.1973652E1,6.254064E0,1.1144978E1,3.5538204E1,0E0,0E0,0E0,0E0,0E0,0E0,0E0,0E0],"parents":[2147483647,0,0,1,1,2,2,3,3,4,4,5,5,6,6],"right_children":[2,4,6,8,10,12,14,-1,-1,-1,-1,-1,-1,-1,-1],"split_conditions":[-1.9370835E-1,-1.6754103E-1,-2.2253497E-1,-1.6781294E-1,-2.005624E-1,-9.9356644E-2,-1.10397495E-1,-9.9092714E-2,1.2850995E-1,-6.319233E-2,1.2407744E-1,-6.954004E-2,8.05746E-2,-1.1811098E-2,3.2335944E-2],"split_indices":[1817,1752,1576,81,1120,847,1839,0,0,0,0,0,0,0,0],"split_type":[0,0,0,0,0,0,0,0,0,0,0,0,0,0,0],"sum_hessian":[8.6932214E2,6.3169277E1,8.0615283E2,5.7799805E1,5.3694715E0,7.5078354E1,7.3107446E2,5.6220715E1,1.5790905E0,2.3913953E0,2.9780762E0,7.058548E1,4.4928746E0,3.4052917E2,3.905453E2],"tree_param":{"num_deleted":"0","num_feature":"2000","num_nodes":"15","size_leaf_vector":"1"}},{"base_weights":[-1.5951877E-2,-1.4443606E-1,4.337726E-1,-2.5612447E-1,3.3797505E-1,2.8253585E-1,9.503562E-1,-4.60135E-2,1.174873E-2,-3.308169E-2,5.0481208E-2,3.0157387E-3,5.9587535E-2,-9.123617E-2,1.03149906E-1],"categories":[],"categories_nodes":[],"categories_segments":[],"categories_sizes":[],"default_left":[0,0,0,0,0,0,0,0,0,0,0,0,0,0,0],"id":23,"left_children":[1,3,5,7,9,11,13,-1,-1,-1,-1,-1,-1,-1,-1],"loss_changes":[5.0679565E1,3.6837185E1,1.4958668E1,4.2312786E1,1.4522862E1,1.2017135E1,7.5485497E0,0E0,0E0,0E0,0E0,0E0,0E0,0E0,0E0],"parents":[2147483647,0,0,1,1,2,2,3,3,4,4,5,5,6,6],"right_children":[2,4,6,8,10,12,14,-1,-1,-1,-1,-1,-1,-1,-1],"split_conditions":[-2.846615E-1,-2.886824E-1,-1.4578404E-1,-1.7203803E-1,-2.1817641E-1,-2.4435996E-1,-1.7206122E-1,-4.60135E-2,1.174873E-2,-3.308169E-2,5.0481208E-2,3.0157387E-3,5.9587535E-2,-9.123617E-2,1.03149906E-1],"split_indices":[1906,1848,1710,1653,1489,1941,1013,0,0,0,0,0,0,0,0],"split_type":[0,0,0,0,0,0,0,0,0,0,0,0,0,0,0],"sum_hessian":[8.749906E2,6.810863E2,1.9390433E2,5.534256E2,1.27660675E2,1.5118874E2,4.2715595E1,3.578113E2,1.9561429E2,2.529178E1,1.023689E2,8.43475E1,6.684124E1,1.355471E0,4.1360126E1],"tree_param":{"num_deleted":"0","num_feature":"2000","num_nodes":"15","size_leaf_vector":"1"}},{"base_weights":[-4.93039E-3,-4.3918267E-1,1.8333861E-1,-1.022918E-1,-6.585617E-1,-1.7666109E-1,3.1130272E-1,-1.7221242E-2,1.3189904E-1,-6.999963E-2,1.3944887E-1,-4.111604E-2,2.1601476E-2,4.3664854E-2,-6.0234736E-3],"categories":[],"categories_nodes":[],"categories_segments":[],"categories_sizes":[],"default_left":[0,0,0,0,0,0,0,0,0,0,0,0,0,0,0],"id":24,"left_children":[1,3,5,7,9,11,13,-1,-1,-1,-1,-1,-1,-1,-1],"loss_changes":[7.079915E1,1.9288414E1,2.788406E1,1.06089115E1,1.4452972E1,1.4735188E1,2.0798756E1,0E0,0E0,0E0,0E0,0E0,0E0,0E0,0E0],"parents":[2147483647,0,0,1,1,2,2,3,3,4,4,5,5,6,6],"right_children":[2,4,6,8,10,12,14,-1,-1,-1,-1,-1,-1,-1,-1],"split_conditions":[-4.648249E-1,-1.6868803E-1,-4.4399822E-1,-1.3802887E-1,4.9957666E-1,-1.106623E-1,-9.5453516E-2,-1.7221242E-2,1.3189904E-1,-6.999963E-2,1.3944887E-1,-4.111604E-2,2.1601476E-2,4.3664854E-2,-6.0234736E-3],"split_indices":[1999,1594,1962,841,830,1839,1909,0,0,0,0,0,0,0,0],"split_type":[0,0,0,0,0,0,0,0,0,0,0,0,0,0,0],"sum_hessian":[8.6399365E2,2.608944E2,6.0309924E2,1.0346854E2,1.5742586E2,1.5805754E2,4.4504172E2,9.945465E1,4.0138836E0,1.5495757E2,2.4682958E0,9.893073E1,5.9126812E1,3.3264264E2,1.1239909E2],"tree_param":{"num_deleted":"0","num_feature":"2000","num_nodes":"15","size_leaf_vector":"1"}},{"base_weights":[2.9455782E-3,-2.079622E-1,4.073052E-1,-2.9017964E-1,4.6606472E-1,-4.313327E-1,4.9132973E-1,-4.0455437E-3,-4.6945985E-2,-8.015287E-2,6.3622706E-2,-1.2146683E-1,1.7119033E-2,-1.4877996E-1,5.141548E-2],"categories":[],"categories_nodes":[],"categories_segments":[],"categories_sizes":[],"default_left":[0,0,0,0,0,0,0,0,0,0,0,0,0,0,0],"id":25,"left_children":[1,3,5,7,9,11,13,-1,-1,-1,-1,-1,-1,-1,-1],"loss_changes":[7.259101E1,3.1136171E1,2.0772156E1,2.2331036E1,1.3711058E1,1.3000277E1,1.2766304E1,0E0,0E0,0E0,0E0,0E0,0E0,0E0,0E0],"parents":[2147483647,0,0,1,1,2,2,3,3,4,4,5,5,6,6],"right_children":[2,4,6,8,10,12,14,-1,-1,-1,-1,-1,-1,-1,-1],"split_conditions":[5.0361073E-1,-1.5573944E-1,-3.682371E-1,-4.2565668E-1,-1.7629638E-1,-1.6550499E-1,-1.6970731E-1,-4.0455437E-3,-4.6945985E-2,-8.015287E-2,6.3622706E-2,-1.2146683E-1,1.7119033E-2,-1.4877996E-1,5.141548E-2],"split_indices":[1999,277,1943,1852,1338,1305,1136,0,0,0,0,0,0,0,0],"split_type":[0,0,0,0,0,0,0,0,0,0,0,0,0,0,0],"sum_hessian":[8.4918884E2,5.5841425E2,2.907746E2,4.982121E2,6.0202156E1,2.6103683E1,2.646709E2,2.0871419E2,2.8949792E2,6.685958E0,5.3516197E1,1.0907264E1,1.519642E1,2.285842E0,2.6238507E2],"tree_param":{"num_deleted":"0","num_feature":"2000","num_nodes":"15","size_leaf_vector":"1"}},{"base_weights":[-7.5049425E-4,-2.3103738E-1,3.2242146E-1,-5.7204837E-1,-6.7607895E-2,4.2529413E-1,-2.9678363E-1,-6.384682E-2,1.014475E-1,-1.0154452E-3,-1.0281227E-1,-6.2869065E-2,4.8893604E-2,-9.350425E-2,2.4542406E-2],"categories":[],"categories_nodes":[],"categories_segments":[],"categories_sizes":[],"default_left":[0,0,0,0,0,0,0,0,0,0,0,0,0,0,0],"id":26,"left_children":[1,3,5,7,9,11,13,-1,-1,-1,-1,-1,-1,-1,-1],"loss_changes":[6.2814026E1,2.7427565E1,2.2496597E1,1.7458977E1,1.843779E1,2.053569E1,1.7748108E1,0E0,0E0,0E0,0E0,0E0,0E0,0E0,0E0],"parents":[2147483647,0,0,1,1,2,2,3,3,4,4,5,5,6,6],"right_children":[2,4,6,8,10,12,14,-1,-1,-1,-1,-1,-1,-1,-1],"split_conditions":[3.0464014E-1,-1.7391819E-1,9.5958054E-2,-1.64968E-1,1.3923076E-1,-4.662107E-1,-1.5985547E-1,-6.384682E-2,1.014475E-1,-1.0154452E-3,-1.0281227E-1,-6.2869065E-2,4.8893604E-2,-9.350425E-2,2.4542406E-2],"split_indices":[1999,1315,1900,1538,1895,1946,1381,0,0,0,0,0,0,0,0],"split_type":[0,0,0,0,0,0,0,0,0,0,0,0,0,0,0],"sum_hessian":[8.4202106E2,4.918337E2,3.5018732E2,1.5853508E2,3.332986E2,3.0056552E2,4.962179E1,1.5273827E2,5.7968235E0,3.15441E2,1.7857615E1,1.6609766E1,2.8395575E2,2.2459326E1,2.7162466E1],"tree_param":{"num_deleted":"0","num_feature":"2000","num_nodes":"15","size_leaf_vector":"1"}},{"base_weights":[-9.464952E-3,-1.1688998E-1,3.5672864E-1,2.9418904E-3,-5.1865786E-1,5.035947E-1,-2.2229789E-1,-9.44892E-2,5.95344E-3,-5.98063E-2,6.61122E-2,-1.704776E-1,5.4382544E-2,-4.0274225E-2,9.940978E-2],"categories":[],"categories_nodes":[],"categories_segments":[],"categories_sizes":[],"default_left":[0,0,0,0,0,0,0,0,0,0,0,0,0,0,0],"id":27,"left_children":[1,3,5,7,9,11,13,-1,-1,-1,-1,-1,-1,-1,-1],"loss_changes":[3.2711502E1,3.0952114E1,1.6151619E1,2.6670954E1,1.4231773E1,1.4321236E1,8.928757E0,0E0,0E0,0E0,0E0,0E0,0E0,0E0,0E0],"parents":[2147483647,0,0,1,1,2,2,3,3,4,4,5,5,6,6],"right_children":[2,4,6,8,10,12,14,-1,-1,-1,-1,-1,-1,-1,-1],"split_conditions":[-8.174793E-2,-1.6584428E-1,-4.0488568E-1,-2.0525007E-1,1.8682687E-1,-1.7342594E-1,-1.66881E-1,-9.44892E-2,5.95344E-3,-5.98063E-2,6.61122E-2,-1.704776E-1,5.4382544E-2,-4.0274225E-2,9.940978E-2],"split_indices":[1839,1905,1879,1817,1906,1096,1712,0,0,0,0,0,0,0,0],"split_type":[0,0,0,0,0,0,0,0,0,0,0,0,0,0,0],"sum_hessian":[8.2948206E2,6.418673E2,1.8761473E2,4.9516992E2,1.4669742E2,1.4975954E2,3.785519E1,2.7015028E1,4.6815488E2,1.3790855E2,8.788869E0,1.9391574E0,1.4782039E2,3.354754E1,4.307652E0],"tree_param":{"num_deleted":"0","num_feature":"2000","num_nodes":"15","size_leaf_vector":"1"}},{"base_weights":[2.0361675E-2,-3.2221124E-1,1.9091026E-1,-2.2624098E-2,-5.965773E-1,-5.120766E-2,3.919912E-1,-1.4372865E-2,8.6807825E-2,-6.539775E-2,1.2723185E-1,-2.6651187E-2,3.9883718E-2,-1.2345945E-1,4.4073816E-2],"categories":[],"categories_nodes":[],"categories_segments":[],"categories_sizes":[],"default_left":[0,0,0,0,0,0,0,0,0,0,0,0,0,0,0],"id":28,"left_children":[1,3,5,7,9,11,13,-1,-1,-1,-1,-1,-1,-1,-1],"loss_changes":[4.8154747E1,2.2505781E1,2.6806168E1,1.4363818E1,1.616856E1,2.4379557E1,2.4385487E1,0E0,0E0,0E0,0E0,0E0,0E0,0E0,0E0],"parents":[2147483647,0,0,1,1,2,2,3,3,4,4,5,5,6,6],"right_children":[2,4,6,8,10,12,14,-1,-1,-1,-1,-1,-1,-1,-1],"split_conditions":[-3.467228E-1,-1.6745867E-1,-1.10397495E-1,1.0332541E0,-1.6412222E-1,8.7393767E-1,-1.7176989E-1,-1.4372865E-2,8.6807825E-2,-6.539775E-2,1.2723185E-1,-2.6651187E-2,3.9883718E-2,-1.2345945E-1,4.4073816E-2],"split_indices":[1999,1402,1839,1986,1633,1999,1325,0,0,0,0,0,0,0,0],"split_type":[0,0,0,0,0,0,0,0,0,0,0,0,0,0,0],"sum_hessian":[8.221572E2,2.7296866E2,5.4918854E2,1.3100426E2,1.4196439E2,2.49507E2,2.9968155E2,1.1606244E2,1.4941821E1,1.383648E2,3.5995843E0,1.6904343E2,8.046359E1,8.011966E0,2.916696E2],"tree_param":{"num_deleted":"0","num_feature":"2000","num_nodes":"15","size_leaf_vector":"1"}},{"base_weights":[-1.2069802E-2,-4.54124E-1,7.0679165E-2,-7.2193724E-1,8.82432E-2,5.994223E-3,6.841437E-1,-9.841089E-2,-2.4711818E-2,-3.7596878E-2,5.3021967E-2,-6.565309E-2,5.695961E-3,7.882534E-2,-6.769808E-2],"categories":[],"categories_nodes":[],"categories_segments":[],"categories_sizes":[],"default_left":[0,0,0,0,0,0,0,0,0,0,0,0,0,0,0],"id":29,"left_children":[1,3,5,7,9,11,13,-1,-1,-1,-1,-1,-1,-1,-1],"loss_changes":[2.9862991E1,1.8760809E1,2.728861E1,1.04972725E1,9.112179E0,2.107999E1,9.828897E0,0E0,0E0,0E0,0E0,0E0,0E0,0E0,0E0],"parents":[2147483647,0,0,1,1,2,2,3,3,4,4,5,5,6,6],"right_children":[2,4,6,8,10,12,14,-1,-1,-1,-1,-1,-1,-1,-1],"split_conditions":[-1.9116619E-1,-3.210514E-1,-1.5315405E-1,-1.500891E-1,-2.9781088E-1,-1.8364842E-1,-6.8221346E-2,-9.841089E-2,-2.4711818E-2,-3.7596878E-2,5.3021967E-2,-6.565309E-2,5.695961E-3,7.882534E-2,-6.769808E-2],"split_indices":[1354,1906,277,1737,1941,1817,1844,0,0,0,0,0,0,0,0],"split_type":[0,0,0,0,0,0,0,0,0,0,0,0,0,0,0],"sum_hessian":[8.145079E2,1.27720856E2,6.86787E2,8.527981E1,4.2441048E1,6.2219165E2,6.459537E1,5.4251957E1,3.1027847E1,2.0772669E1,2.1668379E1,4.3595074E1,5.7859656E2,6.0396637E1,4.198735E0],"tree_param":{"num_deleted":"0","num_feature":"2000","num_nodes":"15","size_leaf_vector":"1"}},{"base_weights":[-1.4722713E-2,-4.0312037E-1,1.10943995E-1,1.634347E-2,-6.311995E-1,-1.9901841E0,1.3205487E-1,-5.0553747E-2,3.5080235E-2,-6.934157E-2,4.1219648E-2,-4.065561E-2,-2.2441868E-1,9.120597E-3,1.1648432E-1],"categories":[],"categories_nodes":[],"categories_segments":[],"categories_sizes":[],"default_left":[0,0,0,0,0,0,0,0,0,0,0,0,0,0,0],"id":30,"left_children":[1,3,5,7,9,11,13,-1,-1,-1,-1,-1,-1,-1,-1],"loss_changes":[3.966595E1,1.9016106E1,2.7502604E1,1.2560898E1,8.641277E0,1.5698891E0,2.558377E1,0E0,0E0,0E0,0E0,0E0,0E0,0E0,0E0],"parents":[2147483647,0,0,1,1,2,2,3,3,4,4,5,5,6,6],"right_children":[2,4,6,8,10,12,14,-1,-1,-1,-1,-1,-1,-1,-1],"split_conditions":[-6.2250274E-1,-7.5749226E-2,-1.6970731E-1,-1.7153457E-1,-1.6842012E-1,-3.3323455E-1,-1.6428822E-1,-5.0553747E-2,3.5080235E-2,-6.934157E-2,4.1219648E-2,-4.065561E-2,-2.2441868E-1,9.120597E-3,1.1648432E-1],"split_indices":[1999,1408,1605,1547,1409,1976,1472,0,0,0,0,0,0,0,0],"split_type":[0,0,0,0,0,0,0,0,0,0,0,0,0,0,0],"sum_hessian":[8.107664E2,1.9765791E2,6.131085E2,6.9946526E1,1.27711395E2,5.1710386E0,6.0793744E2,2.7119091E1,4.282743E1,1.20841225E2,6.870167E0,1.0742185E0,4.0968204E0,5.85854E2,2.2083422E1],"tree_param":{"num_deleted":"0","num_feature":"2000","num_nodes":"15","size_leaf_vector":"1"}},{"base_weights":[4.1858437E-3,-1.8343511E-1,2.6479983E-1,-4.7163457E-1,8.230318E-3,-4.5379475E-1,3.453931E-1,-5.150805E-2,9.21806E-2,1.0036769E-2,-7.508766E-2,-1.3334177E-1,-7.236317E-3,-1.1760285E-1,3.7967455E-2],"categories":[],"categories_nodes":[],"categories_segments":[],"categories_sizes":[],"default_left":[0,0,0,0,0,0,0,0,0,0,0,0,0,0,0],"id":31,"left_children":[1,3,5,7,9,11,13,-1,-1,-1,-1,-1,-1,-1,-1],"loss_changes":[3.947557E1,2.593317E1,1.9727114E1,1.1826374E1,1.9862276E1,1.1482023E1,1.6323608E1,0E0,0E0,0E0,0E0,0E0,0E0,0E0,0E0],"parents":[2147483647,0,0,1,1,2,2,3,3,4,4,5,5,6,6],"right_children":[2,4,6,8,10,12,14,-1,-1,-1,-1,-1,-1,-1,-1],"split_conditions":[3.0464014E-1,-1.7030987E-1,-1.5973945E-1,-1.6308612E-1,-7.81606E-2,-1.3455105E-1,-1.6970731E-1,-5.150805E-2,9.21806E-2,1.0036769E-2,-7.508766E-2,-1.3334177E-1,-7.236317E-3,-1.1760285E-1,3.7967455E-2],"split_indices":[1999,1572,1305,1472,1844,1612,642,0,0,0,0,0,0,0,0],"split_type":[0,0,0,0,0,0,0,0,0,0,0,0,0,0,0],"sum_hessian":[8.0533344E2,4.6841138E2,3.369221E2,1.8650728E2,2.8190408E2,3.350957E1,3.034125E2,1.8147931E2,5.027971E0,2.5216507E2,2.9739012E1,9.380738E0,2.4128834E1,5.952083E0,2.9746042E2],"tree_param":{"num_deleted":"0","num_feature":"2000","num_nodes":"15","size_leaf_vector":"1"}},{"base_weights":[-7.93607E-3,-1.2118871E-1,3.9667103E-1,-1.5387002E-1,9.74633E-1,-2.2573128E-1,4.25915E-1,-5.725155E-2,-6.5380554E-3,-5.0270587E-2,1.11573495E-1,-1.521799E-2,5.5643257E-2],"categories":[],"categories_nodes":[],"categories_segments":[],"categories_sizes":[],"default_left":[0,0,0,0,0,0,0,0,0,0,0,0,0],"id":32,"left_children":[1,3,5,7,9,-1,11,-1,-1,-1,-1,-1,-1],"loss_changes":[3.6917534E1,2.269103E1,1.4636608E1,2.263633E1,4.3889713E0,0E0,1.3297585E1,0E0,0E0,0E0,0E0,0E0,0E0],"parents":[2147483647,0,0,1,1,2,2,3,3,4,4,6,6],"right_children":[2,4,6,8,10,-1,12,-1,-1,-1,-1,-1,-1],"split_conditions":[7.861372E-1,-1.6396171E-1,-1.6970731E-1,-1.7619652E-1,-7.537799E-1,-2.2573128E-1,-4.1290656E-1,-5.725155E-2,-6.5380554E-3,-5.0270587E-2,1.11573495E-1,-1.521799E-2,5.5643257E-2],"split_indices":[1999,1472,1542,1479,1849,0,1961,0,0,0,0,0,0],"split_type":[0,0,0,0,0,0,0,0,0,0,0,0,0],"sum_hessian":[8.0360913E2,6.284122E2,1.7519693E2,6.1104816E2,1.7364048E1,1.0790691E0,1.7411786E2,1.0566674E2,5.053814E2,1.2904373E0,1.607361E1,3.2039753E1,1.4207811E2],"tree_param":{"num_deleted":"0","num_feature":"2000","num_nodes":"13","size_leaf_vector":"1"}},{"base_weights":[1.1857436E-2,-8.8841796E-2,3.7662023E-1,-1.2345852E-1,8.8617957E-1,-2.2208093E-1,4.108938E-1,-1.5950106E-2,8.19109E-2,-8.395831E-2,1.0184121E-1,-3.1392608E-2,5.0252285E-2],"categories":[],"categories_nodes":[],"categories_segments":[],"categories_sizes":[],"default_left":[0,0,0,0,0,0,0,0,0,0,0,0,0],"id":33,"left_children":[1,3,5,7,9,-1,11,-1,-1,-1,-1,-1,-1],"loss_changes":[2.897836E1,2.0979788E1,1.6106306E1,2.0446941E1,5.720995E0,0E0,1.1401306E1,0E0,0E0,0E0,0E0,0E0,0E0],"parents":[2147483647,0,0,1,1,2,2,3,3,4,4,6,6],"right_children":[2,4,6,8,10,-1,12,-1,-1,-1,-1,-1,-1],"split_conditions":[7.7818775E-1,-1.6856293E-1,-1.7783234E-1,-1.6854358E-1,-1.7583841E-1,-2.2208093E-1,-1.5973945E-1,-1.5950106E-2,8.19109E-2,-8.395831E-2,1.0184121E-1,-3.1392608E-2,5.0252285E-2],"split_indices":[1999,1392,1584,824,471,0,1305,0,0,0,0,0,0],"split_type":[0,0,0,0,0,0,0,0,0,0,0,0,0],"sum_hessian":[7.870166E2,6.1734424E2,1.6967236E2,5.9702124E2,2.0322996E1,1.3788555E0,1.6829352E2,5.758329E2,2.1188314E1,1.0656707E0,1.9257324E1,1.8615093E1,1.4967842E2],"tree_param":{"num_deleted":"0","num_feature":"2000","num_nodes":"13","size_leaf_vector":"1"}},{"base_weights":[2.1787563E-3,-4.8301987E-2,7.6760316E-1,3.2700054E-2,-5.017565E-1,-9.154445E-2,8.4566355E-1,8.39958E-3,-7.1685694E-2,-5.820933E-2,8.015578E-2,-9.529933E-2,9.1969475E-2],"categories":[],"categories_nodes":[],"categories_segments":[],"categories_sizes":[],"default_left":[0,0,0,0,0,0,0,0,0,0,0,0,0],"id":34,"left_children":[1,3,5,7,9,-1,11,-1,-1,-1,-1,-1,-1],"loss_changes":[3.061587E1,2.7320929E1,7.214813E0,2.4346334E1,1.2269468E1,0E0,7.184124E0,0E0,0E0,0E0,0E0,0E0,0E0],"parents":[2147483647,0,0,1,1,2,2,3,3,4,4,6,6],"right_children":[2,4,6,8,10,-1,12,-1,-1,-1,-1,-1,-1],"split_conditions":[-5.6102667E-2,-8.443076E-2,-3.9911187E-1,-1.1839911E-1,-1.3645838E-1,-9.154445E-2,-1.7783654E-1,8.39958E-3,-7.1685694E-2,-5.820933E-2,8.015578E-2,-9.529933E-2,9.1969475E-2],"split_indices":[1619,1844,1960,1895,1396,0,1261,0,0,0,0,0,0],"split_type":[0,0,0,0,0,0,0,0,0,0,0,0,0],"sum_hessian":[7.903931E2,7.4236975E2,4.802336E1,6.3064374E2,1.11726036E2,1.653129E0,4.637023E1,5.910812E2,3.9562557E1,1.057603E2,5.9657364E0,1.3637506E0,4.500648E1],"tree_param":{"num_deleted":"0","num_feature":"2000","num_nodes":"13","size_leaf_vector":"1"}},{"base_weights":[3.7662103E-3,-4.1078426E-2,7.816718E-1,-7.945245E-2,7.718718E-1,1.0338233E0,-7.91363E-2,-5.4148383E-2,-1.0646228E-3,8.8037446E-2,-9.9193856E-2,-8.658691E-2,1.1360303E-1,-7.104755E-2,9.407807E-2],"categories":[],"categories_nodes":[],"categories_segments":[],"categories_sizes":[],"default_left":[0,0,0,0,0,0,0,0,0,0,0,0,0,0,0],"id":35,"left_children":[1,3,5,7,9,11,13,-1,-1,-1,-1,-1,-1,-1,-1],"loss_changes":[2.72528E1,2.3106546E1,9.324146E0,2.2448845E1,7.2637005E0,7.3919296E0,7.4784136E0,0E0,0E0,0E0,0E0,0E0,0E0,0E0,0E0],"parents":[2147483647,0,0,1,1,2,2,3,3,4,4,5,5,6,6],"right_children":[2,4,6,8,10,12,14,-1,-1,-1,-1,-1,-1,-1,-1],"split_conditions":[-1.526197E-1,-1.6642833E-1,-4.1824782E-1,-1.7627093E-1,-9.1908135E-2,-1.8282367E-1,1.2187945E0,-5.4148383E-2,-1.0646228E-3,8.8037446E-2,-9.9193856E-2,-8.658691E-2,1.1360303E-1,-7.104755E-2,9.407807E-2],"split_indices":[1486,1438,1879,1503,1441,1540,400,0,0,0,0,0,0,0,0],"split_type":[0,0,0,0,0,0,0,0,0,0,0,0,0,0,0],"sum_hessian":[7.7930023E2,7.377194E2,4.158079E1,7.053278E2,3.2391613E1,3.2004818E1,9.5759735E0,9.05329E1,6.147949E2,3.0986326E1,1.4052881E0,1.2525387E0,3.0752281E1,6.1021056E0,3.473868E0],"tree_param":{"num_deleted":"0","num_feature":"2000","num_nodes":"15","size_leaf_vector":"1"}},{"base_weights":[1.4986953E-2,-8.57551E-2,3.8510016E-1,-4.273461E-1,4.0694825E-2,-1.5753984E-1,5.4428524E-1,-4.824138E-2,7.569163E-2,-1.55973E-1,6.5987646E-3,-5.819834E-2,4.1914105E-2,-1.4034748E-1,5.7574578E-2],"categories":[],"categories_nodes":[],"categories_segments":[],"categories_sizes":[],"default_left":[0,0,0,0,0,0,0,0,0,0,0,0,0,0,0],"id":36,"left_children":[1,3,5,7,9,11,13,-1,-1,-1,-1,-1,-1,-1,-1],"loss_changes":[2.8914173E1,2.6351843E1,1.4416986E1,1.1112659E1,1.8151571E1,9.644584E0,8.682358E0,0E0,0E0,0E0,0E0,0E0,0E0,0E0,0E0],"parents":[2147483647,0,0,1,1,2,2,3,3,4,4,5,5,6,6],"right_children":[2,4,6,8,10,12,14,-1,-1,-1,-1,-1,-1,-1,-1],"split_conditions":[-2.846615E-1,-1.788681E-1,-5.263637E-1,5.3952926E-1,-1.7145923E-1,-4.8851517E-1,-1.7455971E-1,-4.824138E-2,7.569163E-2,-1.55973E-1,6.5987646E-3,-5.819834E-2,4.1914105E-2,-1.4034748E-1,5.7574578E-2],"split_indices":[1906,1354,1876,1570,1325,1893,719,0,0,0,0,0,0,0,0],"split_type":[0,0,0,0,0,0,0,0,0,0,0,0,0,0,0],"sum_hessian":[7.735851E2,6.086763E2,1.6490884E2,1.6380228E2,4.4487396E2,3.7406296E1,1.2750254E2,1.570903E2,6.711983E0,5.977472E0,4.3889648E2,2.1541971E1,1.5864325E1,1.3334937E0,1.2616905E2],"tree_param":{"num_deleted":"0","num_feature":"2000","num_nodes":"15","size_leaf_vector":"1"}},{"base_weights":[1.2622452E-2,-4.564114E-1,8.037695E-2,6.375966E-1,-5.933509E-1,-5.150316E-2,3.494667E-1,1.0259195E-1,-9.039862E-2,-6.6660084E-2,1.07571006E-1,-9.361758E-3,8.015526E-2,6.0265856E-3,5.9837528E-2],"categories":[],"categories_nodes":[],"categories_segments":[],"categories_sizes":[],"default_left":[0,0,0,0,0,0,0,0,0,0,0,0,0,0,0],"id":37,"left_children":[1,3,5,7,9,11,13,-1,-1,-1,-1,-1,-1,-1,-1],"loss_changes":[2.4438955E1,1.4920937E1,2.3858505E1,7.680585E0,1.1327999E1,1.630328E1,1.58786335E1,0E0,0E0,0E0,0E0,0E0,0E0,0E0,0E0],"parents":[2147483647,0,0,1,1,2,2,3,3,4,4,5,5,6,6],"right_children":[2,4,6,8,10,12,14,-1,-1,-1,-1,-1,-1,-1,-1],"split_conditions":[-1.108514E0,-1.688438E-1,-1.6952449E-1,-3.4100848E-1,-1.6415869E-1,-1.6720666E-1,-1.6950175E-1,1.0259195E-1,-9.039862E-2,-6.6660084E-2,1.07571006E-1,-9.361758E-3,8.015526E-2,6.0265856E-3,5.9837528E-2],"split_indices":[1999,1722,1487,1892,1545,1820,1816,0,0,0,0,0,0,0,0],"split_type":[0,0,0,0,0,0,0,0,0,0,0,0,0,0,0],"sum_hessian":[7.6687036E2,9.607188E1,6.7079846E2,1.0281004E1,8.579087E1,4.5071365E2,2.2008484E2,8.479525E0,1.8014795E0,8.275943E1,3.0314434E0,4.3035764E2,2.0356024E1,1.0237727E2,1.17707565E2],"tree_param":{"num_deleted":"0","num_feature":"2000","num_nodes":"15","size_leaf_vector":"1"}},{"base_weights":[-8.472029E-3,-5.912126E-2,6.290007E-1,-4.0147766E-1,3.1428214E-2,-2.9402268E-1,7.9983896E-1,-1.663318E-2,-7.3241636E-2,-5.082627E-2,1.0791313E-2,-7.7226855E-2,7.8003936E-2,-1.0811879E-1,8.6511485E-2],"categories":[],"categories_nodes":[],"categories_segments":[],"categories_sizes":[],"default_left":[0,0,0,0,0,0,0,0,0,0,0,0,0,0,0],"id":38,"left_children":[1,3,5,7,9,11,13,-1,-1,-1,-1,-1,-1,-1,-1],"loss_changes":[2.4860947E1,2.2120678E1,9.172283E0,1.1491989E1,2.337362E1,5.524762E0,6.840502E0,0E0,0E0,0E0,0E0,0E0,0E0,0E0,0E0],"parents":[2147483647,0,0,1,1,2,2,3,3,4,4,5,5,6,6],"right_children":[2,4,6,8,10,12,14,-1,-1,-1,-1,-1,-1,-1,-1],"split_conditions":[-1.6555755E-1,-4.555065E-1,-1.882033E-1,-4.027458E-1,-1.108514E0,-8.9465626E-2,-1.8682991E-1,-1.663318E-2,-7.3241636E-2,-5.082627E-2,1.0791313E-2,-7.7226855E-2,7.8003936E-2,-1.0811879E-1,8.6511485E-2],"split_indices":[1337,1940,1315,1852,1999,1474,1196,0,0,0,0,0,0,0,0],"split_type":[0,0,0,0,0,0,0,0,0,0,0,0,0,0,0],"sum_hessian":[7.6783484E2,7.121588E2,5.5676018E1,1.4824164E2,5.639172E2,8.582812E0,4.7093204E1,8.7541985E1,6.0699657E1,6.92974E1,4.9461978E2,6.132975E0,2.449837E0,1.0574598E0,4.6035748E1],"tree_param":{"num_deleted":"0","num_feature":"2000","num_nodes":"15","size_leaf_vector":"1"}},{"base_weights":[-2.701375E-2,-6.788291E-2,6.5578836E-1,3.155471E-2,-3.869811E-1,-7.5041056E-2,9.122961E-1,-2.3188E-2,1.7518662E-2,-4.573904E-2,8.385592E-2,-1.9652443E-1,3.423304E-2,-2.9431773E-2,1.04633585E-1],"categories":[],"categories_nodes":[],"categories_segments":[],"categories_sizes":[],"default_left":[0,0,0,0,0,0,0,0,0,0,0,0,0,0,0],"id":39,"left_children":[1,3,5,7,9,11,13,-1,-1,-1,-1,-1,-1,-1,-1],"loss_changes":[2.1368917E1,2.2918797E1,8.176207E0,2.0901373E1,1.5190029E1,1.0266131E1,5.4979343E0,0E0,0E0,0E0,0E0,0E0,0E0,0E0,0E0],"parents":[2147483647,0,0,1,1,2,2,3,3,4,4,5,5,6,6],"right_children":[2,4,6,8,10,12,14,-1,-1,-1,-1,-1,-1,-1,-1],"split_conditions":[-4.9520787E-2,-9.178361E-2,-2.7619222E-2,-4.4303593E-1,1.0875931E0,-1.7617062E-1,-1.8210877E-1,-2.3188E-2,1.7518662E-2,-4.573904E-2,8.385592E-2,-1.9652443E-1,3.423304E-2,-2.9431773E-2,1.04633585E-1],"split_indices":[1619,1909,1651,1939,1999,1572,152,0,0,0,0,0,0,0,0],"split_type":[0,0,0,0,0,0,0,0,0,0,0,0,0,0,0],"sum_hessian":[7.6316345E2,7.209137E2,4.224975E1,5.503228E2,1.705909E2,1.1160176E1,3.1089573E1,1.9396252E2,3.563603E2,1.6191537E2,8.675517E0,1.347764E0,9.812412E0,2.9888096E0,2.8100763E1],"tree_param":{"num_deleted":"0","num_feature":"2000","num_nodes":"15","size_leaf_vector":"1"}},{"base_weights":[7.6618763E-3,-7.837369E-1,4.5327682E-2,-9.301637E-1,1.4626782E-1,-1.7122376E0,6.229517E-2,-1.01433195E-1,8.57954E-2,-2.1284056E-1,-3.153911E-2,-9.773787E-2,9.025486E-3],"categories":[],"categories_nodes":[],"categories_segments":[],"categories_sizes":[],"default_left":[0,0,0,0,0,0,0,0,0,0,0,0,0],"id":40,"left_children":[1,3,5,7,-1,9,11,-1,-1,-1,-1,-1,-1],"loss_changes":[2.2928366E1,1.2855465E1,2.1997017E1,5.8998585E0,0E0,3.4292622E0,2.125021E1,0E0,0E0,0E0,0E0,0E0,0E0],"parents":[2147483647,0,0,1,1,2,2,3,3,5,5,6,6],"right_children":[2,4,6,8,-1,10,12,-1,-1,-1,-1,-1,-1],"split_conditions":[-1.7822021E-1,3.5950646E0,-1.6970731E-1,-1.6706473E-1,1.4626782E-1,-3.057838E-1,-1.7026722E-1,-1.01433195E-1,8.57954E-2,-2.1284056E-1,-3.153911E-2,-9.773787E-2,9.025486E-3],"split_indices":[1300,409,1584,1290,0,1919,1608,0,0,0,0,0,0],"split_type":[0,0,0,0,0,0,0,0,0,0,0,0,0],"sum_hessian":[7.669927E2,3.394588E1,7.3304675E2,3.2418686E1,1.5271949E0,6.053814E0,7.26993E2,3.1374594E1,1.0440929E0,4.2606883E0,1.7931256E0,1.8149557E1,7.088434E2],"tree_param":{"num_deleted":"0","num_feature":"2000","num_nodes":"13","size_leaf_vector":"1"}},{"base_weights":[9.155839E-3,-9.350368E-2,3.6921626E-1,-7.47564E-1,-4.222339E-2,-2.3847112E-1,5.216892E-1,-8.424579E-2,7.995495E-2,-8.742209E-3,9.39061E-2,7.09567E-2,-5.1601596E-2,-1.1653882E-1,5.649376E-2],"categories":[],"categories_nodes":[],"categories_segments":[],"categories_sizes":[],"default_left":[0,0,0,0,0,0,0,0,0,0,0,0,0,0,0],"id":41,"left_children":[1,3,5,7,9,11,13,-1,-1,-1,-1,-1,-1,-1,-1],"loss_changes":[2.8099056E1,1.981086E1,1.5750769E1,6.9792976E0,2.4460453E1,9.447572E0,1.0518318E1,0E0,0E0,0E0,0E0,0E0,0E0,0E0,0E0],"parents":[2147483647,0,0,1,1,2,2,3,3,4,4,5,5,6,6],"right_children":[2,4,6,8,10,12,14,-1,-1,-1,-1,-1,-1,-1,-1],"split_conditions":[-8.174793E-2,-1.9106501E-1,-2.2823107E-1,-1.5184797E-1,-1.3001029E-1,-4.1311955E-1,-1.6970731E-1,-8.424579E-2,7.995495E-2,-8.742209E-3,9.39061E-2,7.09567E-2,-5.1601596E-2,-1.1653882E-1,5.649376E-2],"split_indices":[1839,1617,1547,1398,1560,1852,1186,0,0,0,0,0,0,0,0],"split_type":[0,0,0,0,0,0,0,0,0,0,0,0,0,0,0],"sum_hessian":[7.582472E2,5.905978E2,1.6764943E2,4.1950993E1,5.486468E2,3.351398E1,1.3413544E2,3.9955727E1,1.9952657E0,5.2535925E2,2.3287529E1,7.237055E0,2.6276928E1,2.7041183E0,1.3143132E2],"tree_param":{"num_deleted":"0","num_feature":"2000","num_nodes":"15","size_leaf_vector":"1"}},{"base_weights":[-1.1649163E-2,-7.5781085E-2,3.9734387E-1,-1.0533998E0,-4.228343E-2,-1.0416423E0,4.7923273E-1,2.4981467E-2,-1.4539294E-1,2.4566215E-3,-4.5972105E-2,-1.3233703E-1,7.345771E-3,-9.273648E-2,5.3991556E-2],"categories":[],"categories_nodes":[],"categories_segments":[],"categories_sizes":[],"default_left":[0,0,0,0,0,0,0,0,0,0,0,0,0,0,0],"id":42,"left_children":[1,3,5,7,9,11,13,-1,-1,-1,-1,-1,-1,-1,-1],"loss_changes":[1.9797771E1,2.1317785E1,1.2555805E1,1.1621889E1,1.7640816E1,1.9268918E0,8.822252E0,0E0,0E0,0E0,0E0,0E0,0E0,0E0,0E0],"parents":[2147483647,0,0,1,1,2,2,3,3,4,4,5,5,6,6],"right_children":[2,4,6,8,10,12,14,-1,-1,-1,-1,-1,-1,-1,-1],"split_conditions":[-1.64374E-1,-1.7671861E-1,-1.7142396E-1,-1.0150282E-1,-8.443076E-2,-1.2927468E-1,-2.384137E-1,2.4981467E-2,-1.4539294E-1,2.4566215E-3,-4.5972105E-2,-1.3233703E-1,7.345771E-3,-9.273648E-2,5.3991556E-2],"split_indices":[1857,1364,1727,409,1844,1946,1817,0,0,0,0,0,0,0,0],"split_type":[0,0,0,0,0,0,0,0,0,0,0,0,0,0,0],"sum_hessian":[7.526421E2,6.51326E2,1.0131609E2,2.0569336E1,6.3075665E2,4.8241343E0,9.649196E1,4.9240627E0,1.5645272E1,5.445E2,8.625662E1,3.7020464E0,1.122088E0,3.3999805E0,9.309198E1],"tree_param":{"num_deleted":"0","num_feature":"2000","num_nodes":"15","size_leaf_vector":"1"}},{"base_weights":[1.7396744E-3,-1.030617E0,3.0088603E-2,-1.1763005E0,6.735497E-2,-2.0937225E-2,5.710608E-1,-1.282209E-1,5.023528E-3,5.641633E-3,-3.774481E-2,-1.0169857E-1,6.786141E-2],"categories":[],"categories_nodes":[],"categories_segments":[],"categories_sizes":[],"default_left":[0,0,0,0,0,0,0,0,0,0,0,0,0],"id":43,"left_children":[1,3,5,7,-1,9,11,-1,-1,-1,-1,-1,-1],"loss_changes":[2.1956022E1,5.770273E0,2.0165514E1,2.5111866E0,0E0,1.8446905E1,1.1444576E1,0E0,0E0,0E0,0E0,0E0,0E0],"parents":[2147483647,0,0,1,1,2,2,3,3,5,5,6,6],"right_children":[2,4,6,8,-1,10,12,-1,-1,-1,-1,-1,-1],"split_conditions":[-1.6970731E-1,4.2515323E-1,-1.8261408E-2,-5.824643E-2,6.735497E-2,-3.0121917E-1,-2.1925731E-1,-1.282209E-1,5.023528E-3,5.641633E-3,-3.774481E-2,-1.0169857E-1,6.786141E-2],"split_indices":[1759,1999,1839,1577,0,1898,1354,0,0,0,0,0,0],"split_type":[0,0,0,0,0,0,0,0,0,0,0,0,0],"sum_hessian":[7.481581E2,1.9050728E1,7.2910736E2,1.7835758E1,1.2149693E0,6.6714215E2,6.1965195E1,1.6376312E1,1.459446E0,5.488893E2,1.182529E2,3.3941567E0,5.8571037E1],"tree_param":{"num_deleted":"0","num_feature":"2000","num_nodes":"13","size_leaf_vector":"1"}},{"base_weights":[-6.3340697E-3,-5.0561745E-2,6.813833E-1,-8.657542E-1,-6.8563786E-3,8.9128E-1,2.3811443E-2,-9.550623E-2,8.0890805E-2,-7.274317E-3,4.190556E-2,-6.5220684E-2,9.957451E-2,-9.2537016E-2,6.6796206E-2],"categories":[],"categories_nodes":[],"categories_segments":[],"categories_sizes":[],"default_left":[0,0,0,0,0,0,0,0,0,0,0,0,0,0,0],"id":44,"left_children":[1,3,5,7,9,11,13,-1,-1,-1,-1,-1,-1,-1,-1],"loss_changes":[2.2811886E1,2.5095655E1,6.233778E0,6.133251E0,1.8823538E1,6.184145E0,7.9508247E0,0E0,0E0,0E0,0E0,0E0,0E0,0E0,0E0],"parents":[2147483647,0,0,1,1,2,2,3,3,4,4,5,5,6,6],"right_children":[2,4,6,8,10,12,14,-1,-1,-1,-1,-1,-1,-1,-1],"split_conditions":[-1.6759898E-1,-1.7138882E-1,-4.1824782E-1,-1.6331768E-1,9.5013106E-1,-1.7234974E-1,-3.7223384E-1,-9.550623E-2,8.0890805E-2,-7.274317E-3,4.190556E-2,-6.5220684E-2,9.957451E-2,-9.2537016E-2,6.6796206E-2],"split_indices":[1486,1344,1879,1775,1999,647,1978,0,0,0,0,0,0,0,0],"split_type":[0,0,0,0,0,0,0,0,0,0,0,0,0,0,0],"sum_hessian":[7.4786E2,7.0354114E2,4.4318836E1,3.4842884E1,6.686983E2,3.3325836E1,1.0993003E1,3.3486767E1,1.3561174E0,5.798302E2,8.886809E1,1.7801762E0,3.1545658E1,4.2677417E0,6.725261E0],"tree_param":{"num_deleted":"0","num_feature":"2000","num_nodes":"15","size_leaf_vector":"1"}},{"base_weights":[-1.7027454E-2,-1.0320297E-1,2.9294583E-1,-1.7794362E-1,3.7424895E-1,-6.3519424E-1,3.8676572E-1,-6.23994E-2,-1.022065E-2,-9.786033E-2,4.4798072E-2,-9.842884E-2,4.670037E-2,4.74724E-2,-8.150523E-2],"categories":[],"categories_nodes":[],"categories_segments":[],"categories_sizes":[],"default_left":[0,0,0,0,0,0,0,0,0,0,0,0,0,0,0],"id":45,"left_children":[1,3,5,7,9,11,13,-1,-1,-1,-1,-1,-1,-1,-1],"loss_changes":[1.982709E1,2.0786793E1,1.4306898E1,1.6919643E1,8.309862E0,6.309265E0,1.595542E1,0E0,0E0,0E0,0E0,0E0,0E0,0E0,0E0],"parents":[2147483647,0,0,1,1,2,2,3,3,4,4,5,5,6,6],"right_children":[2,4,6,8,10,12,14,-1,-1,-1,-1,-1,-1,-1,-1],"split_conditions":[-8.174793E-2,9.420093E-1,-1.0455712E0,-1.7922164E-1,-4.0452775E-1,5.5966413E-1,-6.338521E-2,-6.23994E-2,-1.022065E-2,-9.786033E-2,4.4798072E-2,-9.842884E-2,4.670037E-2,4.74724E-2,-8.150523E-2],"split_indices":[1839,1999,1999,413,1934,1288,1844,0,0,0,0,0,0,0,0],"split_type":[0,0,0,0,0,0,0,0,0,0,0,0,0,0,0],"sum_hessian":[7.401192E2,5.796406E2,1.6047855E2,5.0172723E2,7.791341E1,1.4202809E1,1.4627573E2,7.177466E1,4.2995258E2,3.3925946E0,7.452081E1,1.0867706E1,3.3351023E0,1.3686397E2,9.41176E0],"tree_param":{"num_deleted":"0","num_feature":"2000","num_nodes":"15","size_leaf_vector":"1"}},{"base_weights":[-3.9167632E-3,-4.333883E-2,5.848501E-1,-4.7772846E-1,9.812091E-3,9.629563E-1,1.6141525E-1,-6.2461622E-2,3.5515748E-2,-3.3250604E-2,7.7409158E-3,1.23528756E-1,-1.4302455E-3,6.927595E-2,-4.9818765E-2],"categories":[],"categories_nodes":[],"categories_segments":[],"categories_sizes":[],"default_left":[0,0,0,0,0,0,0,0,0,0,0,0,0,0,0],"id":46,"left_children":[1,3,5,7,9,11,13,-1,-1,-1,-1,-1,-1,-1,-1],"loss_changes":[1.7238798E1,1.6074465E1,7.3069572E0,9.507351E0,1.4398218E1,6.517153E0,8.4720955E0,0E0,0E0,0E0,0E0,0E0,0E0,0E0,0E0],"parents":[2147483647,0,0,1,1,2,2,3,3,4,4,5,5,6,6],"right_children":[2,4,6,8,10,12,14,-1,-1,-1,-1,-1,-1,-1,-1],"split_conditions":[-1.6492833E-1,-1.7982756E-1,-1.6399263E-1,-1.7134337E-1,-1.2940764E-1,1.7546253E-2,-1.712292E-1,-6.2461622E-2,3.5515748E-2,-3.3250604E-2,7.7409158E-3,1.23528756E-1,-1.4302455E-3,6.927595E-2,-4.9818765E-2],"split_indices":[1337,1503,1594,1593,1305,1950,1632,0,0,0,0,0,0,0,0],"split_type":[0,0,0,0,0,0,0,0,0,0,0,0,0,0,0],"sum_hessian":[7.4062646E2,6.950166E2,4.5609848E1,7.489879E1,6.201178E2,2.3421476E1,2.218837E1,6.3882526E1,1.1016262E1,1.0161427E2,5.1850354E2,1.8110592E1,5.310884E0,1.2261128E1,9.927241E0],"tree_param":{"num_deleted":"0","num_feature":"2000","num_nodes":"15","size_leaf_vector":"1"}},{"base_weights":[-5.283899E-4,-1.1246336E0,2.2996025E-2,-1.3236392E0,8.301582E-2,-4.676569E-1,7.7154405E-2,-1.5537944E-1,8.962697E-3,8.7655656E-2,-5.8662064E-2,-2.0502259E-3,3.760094E-2],"categories":[],"categories_nodes":[],"categories_segments":[],"categories_sizes":[],"default_left":[0,0,0,0,0,0,0,0,0,0,0,0,0],"id":47,"left_children":[1,3,5,7,-1,9,11,-1,-1,-1,-1,-1,-1],"loss_changes":[1.9602732E1,7.010004E0,1.9331282E1,4.750519E0,0E0,1.2079662E1,1.91181E1,0E0,0E0,0E0,0E0,0E0,0E0],"parents":[2147483647,0,0,1,1,2,2,3,3,5,5,6,6],"right_children":[2,4,6,8,-1,10,12,-1,-1,-1,-1,-1,-1],"split_conditions":[-1.7334208E-1,-1.4807285E-1,-1.2278554E0,8.5098845E-1,8.301582E-2,-1.512955E-1,-1.6798635E-1,-1.5537944E-1,8.962697E-3,8.7655656E-2,-5.8662064E-2,-2.0502259E-3,3.760094E-2],"split_indices":[1462,568,1999,1887,0,1288,1471,0,0,0,0,0,0],"split_type":[0,0,0,0,0,0,0,0,0,0,0,0,0],"sum_hessian":[7.393166E2,1.4195245E1,7.2512134E2,1.317668E1,1.0185648E0,7.1323586E1,6.537977E2,1.1245825E1,1.9308555E0,5.281197E0,6.604239E1,4.9347623E2,1.6032153E2],"tree_param":{"num_deleted":"0","num_feature":"2000","num_nodes":"13","size_leaf_vector":"1"}},{"base_weights":[-1.2311816E-2,-9.8437953E-1,1.1369864E-2,-1.2427872E0,7.81947E-2,-3.6368754E-2,5.1584387E-1,-1.6341734E-1,-2.0449435E-2,-8.9424975E-2,-4.966156E-4,-1.05381064E-1,5.9892353E-2],"categories":[],"categories_nodes":[],"categories_segments":[],"categories_sizes":[],"default_left":[0,0,0,0,0,0,0,0,0,0,0,0,0],"id":48,"left_children":[1,3,5,7,-1,9,11,-1,-1,-1,-1,-1,-1],"loss_changes":[1.6779991E1,8.884369E0,1.7168255E1,5.968437E0,0E0,1.7546116E1,8.667694E0,0E0,0E0,0E0,0E0,0E0,0E0],"parents":[2147483647,0,0,1,1,2,2,3,3,5,5,6,6],"right_children":[2,4,6,8,-1,10,12,-1,-1,-1,-1,-1,-1],"split_conditions":[-1.7104256E-1,-1.0405111E-1,-1.6751848E-1,-6.4312086E-2,7.81947E-2,-1.7533301E-1,-2.3495951E-1,-1.6341734E-1,-2.0449435E-2,-8.9424975E-2,-4.966156E-4,-1.05381064E-1,5.9892353E-2],"split_indices":[1608,1366,389,1946,0,1364,1344,0,0,0,0,0,0],"split_type":[0,0,0,0,0,0,0,0,0,0,0,0,0],"sum_hessian":[7.274384E2,1.6335703E1,7.111027E2,1.4509423E1,1.8262804E0,6.5047577E2,6.0626934E1,1.0120559E1,4.3888645E0,2.1999489E1,6.284763E2,2.4602466E0,5.8166687E1],"tree_param":{"num_deleted":"0","num_feature":"2000","num_nodes":"13","size_leaf_vector":"1"}},{"base_weights":[1.5886966E-2,-1.3141946E0,3.4029916E-2,-1.588411E0,2.2656275E-2,-7.0706326E-1,6.5671265E-2,-1.7805691E-1,-3.0603928E-2,-9.360158E-2,8.372044E-2,2.7056308E-3,6.719809E-2],"categories":[],"categories_nodes":[],"categories_segments":[],"categories_sizes":[],"default_left":[0,0,0,0,0,0,0,0,0,0,0,0,0],"id":49,"left_children":[1,3,5,7,-1,9,11,-1,-1,-1,-1,-1,-1],"loss_changes":[1.7878307E1,4.5722485E0,1.7165363E1,1.5714569E0,0E0,1.1382867E1,1.6395596E1,0E0,0E0,0E0,0E0,0E0,0E0],"parents":[2147483647,0,0,1,1,2,2,3,3,5,5,6,6],"right_children":[2,4,6,8,-1,10,12,-1,-1,-1,-1,-1,-1],"split_conditions":[-1.7264195E-1,-1.6800721E-1,-1.78383E-1,-1.5897433E-1,2.2656275E-2,-8.587482E-2,-1.6831408E-1,-1.7805691E-1,-3.0603928E-2,-9.360158E-2,8.372044E-2,2.7056308E-3,6.719809E-2],"split_indices":[1776,479,1757,1347,0,1407,1539,0,0,0,0,0,0],"split_type":[0,0,0,0,0,0,0,0,0,0,0,0,0],"sum_hessian":[7.3801373E2,8.97009E0,7.2904364E2,7.588582E0,1.3815076E0,2.8978262E1,7.0006537E2,6.261783E0,1.3267989E0,2.5579704E1,3.3985589E0,6.591309E2,4.0934444E1],"tree_param":{"num_deleted":"0","num_feature":"2000","num_nodes":"13","size_leaf_vector":"1"}},{"base_weights":[-7.339756E-3,-6.3411884E-2,5.0697905E-1,-1.0598471E-1,5.46274E-1,-1.1860851E0,5.812539E-1,-2.3465341E-2,1.1851864E-2,7.8096874E-2,-5.3488124E-2,-1.6525157E-1,-7.03704E-3,-4.8978753E-2,6.9633126E-2],"categories":[],"categories_nodes":[],"categories_segments":[],"categories_sizes":[],"default_left":[0,0,0,0,0,0,0,0,0,0,0,0,0,0,0],"id":50,"left_children":[1,3,5,7,9,11,13,-1,-1,-1,-1,-1,-1,-1,-1],"loss_changes":[2.1151976E1,1.7220907E1,9.756561E0,1.7906055E1,1.1410084E1,1.6318135E0,8.937216E0,0E0,0E0,0E0,0E0,0E0,0E0,0E0,0E0],"parents":[2147483647,0,0,1,1,2,2,3,3,4,4,5,5,6,6],"right_children":[2,4,6,8,10,12,14,-1,-1,-1,-1,-1,-1,-1,-1],"split_conditions":[-1.5692873E-1,-1.02198474E-1,-1.7087607E-1,-1.7198716E-1,5.261078E-1,-1.6959925E-1,-1.7629638E-1,-2.3465341E-2,1.1851864E-2,7.8096874E-2,-5.3488124E-2,-1.6525157E-1,-7.03704E-3,-4.8978753E-2,6.9633126E-2],"split_indices":[277,1614,1607,1653,1928,1449,1338,0,0,0,0,0,0,0,0],"split_type":[0,0,0,0,0,0,0,0,0,0,0,0,0,0,0],"sum_hessian":[7.3133685E2,6.6023346E2,7.1103355E1,6.1791235E2,4.2321095E1,2.359128E0,6.8744225E1,3.9276395E2,2.2514842E2,3.5000843E1,7.32025E0,1.3243493E0,1.0347786E0,6.3536615E0,6.2390564E1],"tree_param":{"num_deleted":"0","num_feature":"2000","num_nodes":"15","size_leaf_vector":"1"}},{"base_weights":[4.6999976E-3,-1.2072536E0,2.4134517E-2,-1.4583671E0,5.9992384E-2,-2.452491E-2,5.0111294E-1,-1.5794615E-1,-1.675923E-2,-2.9758383E-2,8.582631E-3,1.06349505E-1,2.5281686E-2],"categories":[],"categories_nodes":[],"categories_segments":[],"categories_sizes":[],"default_left":[0,0,0,0,0,0,0,0,0,0,0,0,0],"id":51,"left_children":[1,3,5,7,-1,9,11,-1,-1,-1,-1,-1,-1],"loss_changes":[1.7254555E1,6.1217327E0,1.6740822E1,1.3675499E0,0E0,1.976205E1,9.054598E0,0E0,0E0,0E0,0E0,0E0,0E0],"parents":[2147483647,0,0,1,1,2,2,3,3,5,5,6,6],"right_children":[2,4,6,8,-1,10,12,-1,-1,-1,-1,-1,-1],"split_conditions":[-1.7148112E-1,-1.4408292E-1,-1.6864672E-1,1.1808186E0,5.9992384E-2,-1.7036502E-1,-1.6830169E-1,-1.5794615E-1,-1.675923E-2,-2.9758383E-2,8.582631E-3,1.06349505E-1,2.5281686E-2],"split_indices":[1628,1665,1337,1872,0,1547,1594,0,0,0,0,0,0],"split_type":[0,0,0,0,0,0,0,0,0,0,0,0,0],"sum_hessian":[7.303242E2,1.0561805E1,7.1976245E2,9.44272E0,1.1190846E0,6.539932E2,6.576919E1,8.428358E0,1.0143625E0,1.8774078E2,4.6625247E2,1.9138336E1,4.663085E1],"tree_param":{"num_deleted":"0","num_feature":"2000","num_nodes":"13","size_leaf_vector":"1"}},{"base_weights":[6.5756193E-3,-1.537067E0,2.3118727E-2,-1.8805063E0,2.030376E-2,-2.566982E-2,5.1035553E-1,-2.197748E-1,-6.9167125E-3,-1.6579663E-2,1.365421E-2,-1.1524136E-1,6.0445357E-2],"categories":[],"categories_nodes":[],"categories_segments":[],"categories_sizes":[],"default_left":[0,0,0,0,0,0,0,0,0,0,0,0,0],"id":52,"left_children":[1,3,5,7,-1,9,11,-1,-1,-1,-1,-1,-1],"loss_changes":[1.8693968E1,5.02063E0,1.722113E1,3.6291428E0,0E0,1.5000845E1,1.1013117E1,0E0,0E0,0E0,0E0,0E0,0E0],"parents":[2147483647,0,0,1,1,2,2,3,3,5,5,6,6],"right_children":[2,4,6,8,-1,10,12,-1,-1,-1,-1,-1,-1],"split_conditions":[-1.6970731E-1,-1.646722E-1,-1.656121E-1,4.8311016E-1,2.030376E-2,-1.73759E-1,-2.0428528E-1,-2.197748E-1,-6.9167125E-3,-1.6579663E-2,1.365421E-2,-1.1524136E-1,6.0445357E-2],"split_indices":[1603,1674,1591,1991,0,1653,1314,0,0,0,0,0,0],"split_type":[0,0,0,0,0,0,0,0,0,0,0,0,0],"sum_hessian":[7.2965314E2,6.762148E0,7.22891E2,5.5801287E0,1.1820191E0,6.579552E2,6.49358E1,4.5669384E0,1.0131906E0,3.5299677E2,3.0495844E2,2.8755827E0,6.206022E1],"tree_param":{"num_deleted":"0","num_feature":"2000","num_nodes":"13","size_leaf_vector":"1"}},{"base_weights":[1.1675174E-2,-3.368913E-1,8.088536E-2,-4.0089557E-1,1.1882203E0,-6.6639856E-2,2.7268764E-1,-5.510488E-2,3.635238E-2,1.5440595E-1,-3.7188902E-3,-7.029017E-2,-1.03907594E-4,-3.0086717E-2,3.6419522E-2],"categories":[],"categories_nodes":[],"categories_segments":[],"categories_sizes":[],"default_left":[0,0,0,0,0,0,0,0,0,0,0,0,0,0,0],"id":53,"left_children":[1,3,5,7,9,11,13,-1,-1,-1,-1,-1,-1,-1,-1],"loss_changes":[1.7645079E1,1.2304799E1,1.728182E1,1.3634554E1,2.2955923E0,1.4427164E1,1.4041565E1,0E0,0E0,0E0,0E0,0E0,0E0,0E0,0E0],"parents":[2147483647,0,0,1,1,2,2,3,3,4,4,5,5,6,6],"right_children":[2,4,6,8,10,12,14,-1,-1,-1,-1,-1,-1,-1,-1],"split_conditions":[-1.7213435E-1,-1.60951E-1,-1.6933304E-1,-2.2172588E-1,-1.6291831E-1,-1.7197311E-1,-1.739961E-1,-5.510488E-2,3.635238E-2,1.5440595E-1,-3.7188902E-3,-7.029017E-2,-1.03907594E-4,-3.0086717E-2,3.6419522E-2],"split_indices":[1479,1351,1537,1906,1638,1378,1450,0,0,0,0,0,0,0,0],"split_type":[0,0,0,0,0,0,0,0,0,0,0,0,0,0,0],"sum_hessian":[7.292924E2,1.2017613E2,6.091163E2,1.1604328E2,4.1328464E0,3.4466718E2,2.644491E2,9.722476E1,1.8818521E1,3.001285E0,1.1315613E0,3.130689E1,3.133603E2,3.6071404E1,2.2837769E2],"tree_param":{"num_deleted":"0","num_feature":"2000","num_nodes":"15","size_leaf_vector":"1"}},{"base_weights":[-9.044006E-3,-7.4639577E-1,2.4913527E-2,-8.7319994E-1,9.9126E-2,-2.2874616E-2,5.16453E-1,-2.8816646E-2,-1.2678431E-1,-4.6957894E-3,8.945268E-2,-2.5278984E-2,6.910124E-2],"categories":[],"categories_nodes":[],"categories_segments":[],"categories_sizes":[],"default_left":[0,0,0,0,0,0,0,0,0,0,0,0,0],"id":54,"left_children":[1,3,5,7,-1,9,11,-1,-1,-1,-1,-1,-1],"loss_changes":[1.8271927E1,7.944586E0,1.6404821E1,6.6704807E0,0E0,1.4115895E1,8.483744E0,0E0,0E0,0E0,0E0,0E0,0E0],"parents":[2147483647,0,0,1,1,2,2,3,3,5,5,6,6],"right_children":[2,4,6,8,-1,10,12,-1,-1,-1,-1,-1,-1],"split_conditions":[-1.7822021E-1,-6.568467E-2,-1.6864672E-1,-1.1085443E-1,9.9126E-2,-1.6308612E-1,-1.762178E-1,-2.8816646E-2,-1.2678431E-1,-4.6957894E-3,8.945268E-2,-2.5278984E-2,6.910124E-2],"split_indices":[1300,1819,1337,1909,0,1472,1606,0,0,0,0,0,0],"split_type":[0,0,0,0,0,0,0,0,0,0,0,0,0],"sum_hessian":[7.2800635E2,3.1127407E1,6.968789E2,2.9474045E1,1.653363E0,6.3599963E2,6.087929E1,1.25700035E1,1.6904041E1,6.206552E2,1.5344397E1,1.1176941E1,4.970235E1],"tree_param":{"num_deleted":"0","num_feature":"2000","num_nodes":"13","size_leaf_vector":"1"}},{"base_weights":[-8.5066963E-4,-5.4931283E-1,4.099515E-2,-6.828414E-1,7.546576E-1,1.00371234E-1,-3.4666285E-1,-8.1606776E-2,9.835138E-2,-1.8709349E-2,1.2313547E-1,-9.0584464E-2,1.2616785E-2,-5.7302844E-2,1.7022625E-2],"categories":[],"categories_nodes":[],"categories_segments":[],"categories_sizes":[],"default_left":[0,0,0,0,0,0,0,0,0,0,0,0,0,0,0],"id":55,"left_children":[1,3,5,7,9,11,13,-1,-1,-1,-1,-1,-1,-1,-1],"loss_changes":[1.665647E1,9.473059E0,1.5555976E1,1.127952E1,2.5889993E0,1.5312834E1,1.0603375E1,0E0,0E0,0E0,0E0,0E0,0E0,0E0,0E0],"parents":[2147483647,0,0,1,1,2,2,3,3,4,4,5,5,6,6],"right_children":[2,4,6,8,10,12,14,-1,-1,-1,-1,-1,-1,-1,-1],"split_conditions":[-1.886327E-1,-1.6155565E-1,6.883618E-1,-1.6325928E-1,-1.8483597E-1,-1.8037711E-1,-1.09619014E-1,-8.1606776E-2,9.835138E-2,-1.8709349E-2,1.2313547E-1,-9.0584464E-2,1.2616785E-2,-5.7302844E-2,1.7022625E-2],"split_indices":[1738,1000,1840,920,1653,1759,1381,0,0,0,0,0,0,0,0],"split_type":[0,0,0,0,0,0,0,0,0,0,0,0,0,0,0],"sum_hessian":[7.237641E2,5.044661E1,6.733175E2,4.6192738E1,4.253873E0,5.845286E2,8.878891E1,4.3245495E1,2.947242E0,1.633766E0,2.6201067E0,1.3758372E1,5.707702E2,6.1671837E1,2.7117075E1],"tree_param":{"num_deleted":"0","num_feature":"2000","num_nodes":"15","size_leaf_vector":"1"}},{"base_weights":[-5.866908E-3,-6.074849E-1,3.1786263E-2,-8.286835E-1,1.4112581E-1,6.1555877E-3,9.6650755E-1,-1.0986213E-1,9.303085E-3,-6.922896E-2,7.918617E-2,-1.4964826E-3,1.1079059E-1,-1.12908995E-2,1.12130545E-1],"categories":[],"categories_nodes":[],"categories_segments":[],"categories_sizes":[],"default_left":[0,0,0,0,0,0,0,0,0,0,0,0,0,0,0],"id":56,"left_children":[1,3,5,7,9,11,13,-1,-1,-1,-1,-1,-1,-1,-1],"loss_changes":[1.6630993E1,7.2774887E0,1.6550482E1,8.443357E0,6.360576E0,1.5691711E1,3.2073612E0,0E0,0E0,0E0,0E0,0E0,0E0,0E0,0E0],"parents":[2147483647,0,0,1,1,2,2,3,3,4,4,5,5,6,6],"right_children":[2,4,6,8,10,12,14,-1,-1,-1,-1,-1,-1,-1,-1],"split_conditions":[-1.7194766E-1,-1.6045505E-1,-1.6661553E-1,1.5536611E0,-1.9633885E-1,1.5344521E0,-1.690696E-1,-1.0986213E-1,9.303085E-3,-6.922896E-2,7.918617E-2,-1.4964826E-3,1.1079059E-1,-1.12908995E-2,1.12130545E-1],"split_indices":[1449,1377,1596,421,1630,1997,1505,0,0,0,0,0,0,0,0],"split_type":[0,0,0,0,0,0,0,0,0,0,0,0,0,0,0],"sum_hessian":[7.3231616E2,4.224216E1,6.90074E2,3.2524807E1,9.717354E0,6.726365E2,1.7437551E1,2.5008705E1,7.5161023E0,4.23264E0,5.4847145E0,6.609525E2,1.1683958E1,2.220995E0,1.5216556E1],"tree_param":{"num_deleted":"0","num_feature":"2000","num_nodes":"15","size_leaf_vector":"1"}},{"base_weights":[-1.4212175E-2,-4.4345673E-2,7.2179675E-1,-4.8302284E-1,7.834922E-3,-3.594895E-1,9.9873585E-1,-9.111543E-2,-1.7228745E-2,-3.6494575E-2,7.849028E-3,-9.5705226E-2,5.769775E-2,1.0949876E-1,-3.0000076E-2],"categories":[],"categories_nodes":[],"categories_segments":[],"categories_sizes":[],"default_left":[0,0,0,0,0,0,0,0,0,0,0,0,0,0,0],"id":57,"left_children":[1,3,5,7,9,11,13,-1,-1,-1,-1,-1,-1,-1,-1],"loss_changes":[1.5862297E1,1.5721162E1,8.782984E0,9.555769E0,1.6217264E1,4.173492E0,3.1611385E0,0E0,0E0,0E0,0E0,0E0,0E0,0E0,0E0],"parents":[2147483647,0,0,1,1,2,2,3,3,4,4,5,5,6,6],"right_children":[2,4,6,8,10,12,14,-1,-1,-1,-1,-1,-1,-1,-1],"split_conditions":[-9.586839E-2,-1.8061855E-1,-1.7242847E-1,-2.9756567E-1,-3.0351394E-1,-1.2424109E-1,-1.3469982E-1,-9.111543E-2,-1.7228745E-2,-3.6494575E-2,7.849028E-3,-9.5705226E-2,5.769775E-2,1.0949876E-1,-3.0000076E-2],"split_indices":[1560,1503,1378,1927,1995,405,1564,0,0,0,0,0,0,0,0],"split_type":[0,0,0,0,0,0,0,0,0,0,0,0,0,0,0],"sum_hessian":[7.1276654E2,6.856352E2,2.713136E1,7.200866E1,6.136265E2,5.471245E0,2.1660114E1,2.9471104E1,4.2537556E1,9.710919E1,5.1651733E2,3.3265686E0,2.1446764E0,2.0311663E1,1.3484514E0],"tree_param":{"num_deleted":"0","num_feature":"2000","num_nodes":"15","size_leaf_vector":"1"}},{"base_weights":[-1.1793441E-2,-4.877913E-2,5.87953E-1,-1.4828354E0,-3.1165395E-2,-4.515534E-1,7.2890615E-1,-1.8175328E-2,-1.9861396E-1,-3.4015674E-2,5.0921496E-3,-1.5371786E-1,1.2329425E-2,-3.8520817E-2,8.3747946E-2],"categories":[],"categories_nodes":[],"categories_segments":[],"categories_sizes":[],"default_left":[0,0,0,0,0,0,0,0,0,0,0,0,0,0,0],"id":58,"left_children":[1,3,5,7,9,11,13,-1,-1,-1,-1,-1,-1,-1,-1],"loss_changes":[1.6162777E1,1.7282122E1,6.530819E0,5.0757256E0,1.7232508E1,3.728887E0,4.8774147E0,0E0,0E0,0E0,0E0,0E0,0E0,0E0,0E0],"parents":[2147483647,0,0,1,1,2,2,3,3,4,4,5,5,6,6],"right_children":[2,4,6,8,10,12,14,-1,-1,-1,-1,-1,-1,-1,-1],"split_conditions":[-1.6759898E-1,-1.7048162E-1,-1.7020738E-1,-1.15927465E-1,-1.7745487E-1,-1.6870077E-1,-1.7134018E-1,-1.8175328E-2,-1.9861396E-1,-3.4015674E-2,5.0921496E-3,-1.5371786E-1,1.2329425E-2,-3.8520817E-2,8.3747946E-2],"split_indices":[1486,1293,1551,1612,1510,1397,1557,0,0,0,0,0,0,0,0],"split_type":[0,0,0,0,0,0,0,0,0,0,0,0,0,0,0],"sum_hessian":[7.2634985E2,6.8502386E2,4.1325985E1,7.302353E0,6.777215E2,4.6714263E0,3.6654556E1,2.4165344E0,4.885818E0,1.415931E2,5.361284E2,1.0376728E0,3.6337535E0,3.0286329E0,3.3625923E1],"tree_param":{"num_deleted":"0","num_feature":"2000","num_nodes":"15","size_leaf_vector":"1"}},{"base_weights":[-1.9502251E-3,-1.6084602E0,1.1381119E-2,-2.8360678E-2,-1.8278228E-1,-1.6850002E-2,7.617656E-1,-1.1861806E-2,2.0945372E-2,-3.2661065E-2,1.00708745E-1],"categories":[],"categories_nodes":[],"categories_segments":[],"categories_sizes":[],"default_left":[0,0,0,0,0,0,0,0,0,0,0],"id":59,"left_children":[1,3,5,-1,-1,7,9,-1,-1,-1,-1],"loss_changes":[1.5563333E1,1.2197218E0,1.5283421E1,0E0,0E0,1.6046923E1,7.313236E0,0E0,0E0,0E0,0E0],"parents":[2147483647,0,0,1,1,2,2,5,5,6,6],"right_children":[2,4,6,-1,-1,8,10,-1,-1,-1,-1],"split_conditions":[-1.7464425E-1,-3.3323455E-1,6.388883E-2,-2.8360678E-2,-1.8278228E-1,-1.8151297E-1,-1.3486697E-1,-1.1861806E-2,2.0945372E-2,-3.2661065E-2,1.00708745E-1],"split_indices":[1605,1976,830,0,0,1593,1651,0,0,0,0],"split_type":[0,0,0,0,0,0,0,0,0,0,0],"sum_hessian":[7.248287E2,4.980618E0,7.19848E2,1.0332301E0,3.947388E0,6.946898E2,2.515822E1,4.7952487E2,2.1516495E2,4.566681E0,2.059154E1],"tree_param":{"num_deleted":"0","num_feature":"2000","num_nodes":"11","size_leaf_vector":"1"}},{"base_weights":[7.4239806E-3,-1.5886128E0,2.0011032E-2,-1.7320026E-1,-4.7088455E-2,-5.3313524E-2,3.0063492E-1,-7.4976026E-3,1.0938128E-1,3.7383627E-2,-1.0610844E-1],"categories":[],"categories_nodes":[],"categories_segments":[],"categories_sizes":[],"default_left":[0,0,0,0,0,0,0,0,0,0,0],"id":60,"left_children":[1,3,5,-1,-1,7,9,-1,-1,-1,-1],"loss_changes":[1.4403045E1,8.3542824E-2,1.4640968E1,0E0,0E0,1.4106231E1,1.508865E1,0E0,0E0,0E0,0E0],"parents":[2147483647,0,0,1,1,2,2,5,5,6,6],"right_children":[2,4,6,-1,-1,8,10,-1,-1,-1,-1],"split_conditions":[-1.7523874E-1,-1.5675896E-1,7.7818775E-1,-1.7320026E-1,-4.7088455E-2,-1.6912007E-1,-1.3885203E-1,-7.4976026E-3,1.0938128E-1,3.7383627E-2,-1.0610844E-1],"split_indices":[1605,1614,1999,0,0,1530,1419,0,0,0,0],"split_type":[0,0,0,0,0,0,0,0,0,0,0],"sum_hessian":[7.143651E2,4.609981E0,7.097552E2,3.5987368E0,1.0112442E0,5.633633E2,1.4639186E2,5.538392E2,9.524142E0,1.3961226E2,6.7796097E0],"tree_param":{"num_deleted":"0","num_feature":"2000","num_nodes":"11","size_leaf_vector":"1"}},{"base_weights":[5.900576E-3,7.203524E-2,-3.1589633E-1,-1.4578568E0,8.904102E-2,-4.442796E-1,7.313591E-1,8.220726E-3,-1.9416085E-1,5.800851E-3,8.562564E-2,-5.6779664E-2,4.1596808E-2,1.5381981E-1,1.2001428E-2],"categories":[],"categories_nodes":[],"categories_segments":[],"categories_sizes":[],"default_left":[0,0,0,0,0,0,0,0,0,0,0,0,0,0,0],"id":61,"left_children":[1,3,5,7,9,11,13,-1,-1,-1,-1,-1,-1,-1,-1],"loss_changes":[1.5150015E1,1.5491276E1,1.6642262E1,5.038334E0,1.3875774E1,1.1789572E1,6.5390596E0,0E0,0E0,0E0,0E0,0E0,0E0,0E0,0E0],"parents":[2147483647,0,0,1,1,2,2,3,3,4,4,5,5,6,6],"right_children":[2,4,6,8,10,12,14,-1,-1,-1,-1,-1,-1,-1,-1],"split_conditions":[-6.9161974E-2,-1.7155823E-1,-1.573527E-1,-3.734841E-1,-1.6524042E-1,-4.6069488E-1,3.0050397E-1,8.220726E-3,-1.9416085E-1,5.800851E-3,8.562564E-2,-5.6779664E-2,4.1596808E-2,1.5381981E-1,1.2001428E-2],"split_indices":[1909,1584,1666,1951,1820,1884,1729,0,0,0,0,0,0,0,0],"split_type":[0,0,0,0,0,0,0,0,0,0,0,0,0,0,0],"sum_hessian":[7.098029E2,5.894394E2,1.2036353E2,5.548541E0,5.8389087E2,1.0773237E2,1.26311655E1,1.5246744E0,4.0238667E0,5.6222546E2,2.1665419E1,9.450326E1,1.3229113E1,4.7914414E0,7.839724E0],"tree_param":{"num_deleted":"0","num_feature":"2000","num_nodes":"15","size_leaf_vector":"1"}},{"base_weights":[-1.619103E-2,4.925485E-2,-3.3583853E-1,1.5007786E-2,7.8183955E-1,-4.6332335E-1,3.606252E-1,6.1383084E-3,-5.2194506E-2,9.479143E-2,-7.589074E-2,-5.1084053E-2,1.2474843E-1,-1.5296325E-2,9.406084E-2],"categories":[],"categories_nodes":[],"categories_segments":[],"categories_sizes":[],"default_left":[0,0,0,0,0,0,0,0,0,0,0,0,0,0,0],"id":62,"left_children":[1,3,5,7,9,11,13,-1,-1,-1,-1,-1,-1,-1,-1],"loss_changes":[1.4873305E1,1.4799766E1,1.0894716E1,1.4101675E1,7.460827E0,8.975119E0,5.8798494E0,0E0,0E0,0E0,0E0,0E0,0E0,0E0,0E0],"parents":[2147483647,0,0,1,1,2,2,3,3,4,4,5,5,6,6],"right_children":[2,4,6,8,10,12,14,-1,-1,-1,-1,-1,-1,-1,-1],"split_conditions":[-8.604675E-2,-1.66614E-1,-5.277542E-1,-5.2259874E-2,-1.0414252E-1,-1.6717322E-1,-1.7001094E-1,6.1383084E-3,-5.2194506E-2,9.479143E-2,-7.589074E-2,-5.1084053E-2,1.2474843E-1,-1.5296325E-2,9.406084E-2],"split_indices":[1844,1732,1884,1903,1511,1627,1724,0,0,0,0,0,0,0,0],"split_type":[0,0,0,0,0,0,0,0,0,0,0,0,0,0,0],"sum_hessian":[7.091835E2,5.8936127E2,1.1982222E2,5.64015E2,2.5346237E1,1.0156577E2,1.825645E1,5.199904E2,4.4024612E1,2.3227365E1,2.1188715E0,9.9503494E1,2.0622756E0,1.0072915E1,8.183536E0],"tree_param":{"num_deleted":"0","num_feature":"2000","num_nodes":"15","size_leaf_vector":"1"}},{"base_weights":[7.966873E-3,-7.850674E-1,3.7473567E-2,2.607887E-1,-1.0042119E0,-2.1359149E-1,4.8118193E-2,-5.7345994E-2,1.0691768E-1,-1.8535392E-1,-6.552055E-2,-4.8343163E-2,9.225374E-3],"categories":[],"categories_nodes":[],"categories_segments":[],"categories_sizes":[],"default_left":[0,0,0,0,0,0,0,0,0,0,0,0,0],"id":63,"left_children":[1,3,5,7,9,-1,11,-1,-1,-1,-1,-1,-1],"loss_changes":[1.6565025E1,6.082287E0,1.5886795E1,4.115414E0,5.070236E0,0E0,1.5995518E1,0E0,0E0,0E0,0E0,0E0,0E0],"parents":[2147483647,0,0,1,1,2,2,3,3,4,4,6,6],"right_children":[2,4,6,8,10,-1,12,-1,-1,-1,-1,-1,-1],"split_conditions":[-1.7646977E-1,-4.097566E-1,-1.6970731E-1,9.530093E-1,-1.6837819E-1,-2.1359149E-1,-1.7134018E-1,-5.7345994E-2,1.0691768E-1,-1.8535392E-1,-6.552055E-2,-4.8343163E-2,9.225374E-3],"split_indices":[1832,1966,1426,1729,1397,0,1557,0,0,0,0,0,0],"split_type":[0,0,0,0,0,0,0,0,0,0,0,0,0],"sum_hessian":[7.056552E2,2.4395128E1,6.812601E2,4.193211E0,2.0201918E1,2.3472571E0,6.7891284E2,2.2066169E0,1.986594E0,4.6281476E0,1.557377E1,5.128651E1,6.276263E2],"tree_param":{"num_deleted":"0","num_feature":"2000","num_nodes":"13","size_leaf_vector":"1"}},{"base_weights":[-9.256397E-3,-2.3993295E-2,1.471066E0,-7.040754E-2,4.5028052E-1,1.7643833E0,4.7311126E-3,-8.8899145E-3,1.1925159E-1,-4.173049E-2,6.674763E-2,2.1391328E-1,8.115723E-2],"categories":[],"categories_nodes":[],"categories_segments":[],"categories_sizes":[],"default_left":[0,0,0,0,0,0,0,0,0,0,0,0,0],"id":64,"left_children":[1,3,5,7,9,11,-1,-1,-1,-1,-1,-1,-1],"loss_changes":[1.5410635E1,1.5415112E1,2.824462E0,1.4991566E1,1.2042437E1,3.1571007E-1,0E0,0E0,0E0,0E0,0E0,0E0,0E0],"parents":[2147483647,0,0,1,1,2,2,3,3,4,4,5,5],"right_children":[2,4,6,8,10,12,-1,-1,-1,-1,-1,-1,-1],"split_conditions":[-1.6377948E-1,-1.656121E-1,-1.4181952E-1,-1.53956E-1,-3.7938267E-1,-2.5862116E-1,4.7311126E-3,-8.8899145E-3,1.1925159E-1,-4.173049E-2,6.674763E-2,2.1391328E-1,8.115723E-2],"split_indices":[1303,1591,1391,1775,1966,1912,0,0,0,0,0,0,0],"split_type":[0,0,0,0,0,0,0,0,0,0,0,0,0],"sum_hessian":[7.037942E2,6.9783093E2,5.963251E0,6.364018E2,6.1429157E1,4.7462063E0,1.2170445E0,6.2813434E2,8.267478E0,1.2114927E1,4.931423E1,2.5128167E0,2.2333899E0],"tree_param":{"num_deleted":"0","num_feature":"2000","num_nodes":"13","size_leaf_vector":"1"}},{"base_weights":[7.894085E-3,3.035464E-2,-9.560154E-1,-1.4404662E0,4.5683905E-2,-1.2496142E0,7.641282E-2,-1.898589E-1,-1.2509706E-2,-9.178125E-2,6.8444544E-3,2.6197637E-2,-1.409993E-1],"categories":[],"categories_nodes":[],"categories_segments":[],"categories_sizes":[],"default_left":[0,0,0,0,0,0,0,0,0,0,0,0,0],"id":65,"left_children":[1,3,5,7,9,11,-1,-1,-1,-1,-1,-1,-1],"loss_changes":[1.5359338E1,1.5689363E1,9.11359E0,4.0881357E0,1.5123469E1,3.8067513E0,0E0,0E0,0E0,0E0,0E0,0E0,0E0],"parents":[2147483647,0,0,1,1,2,2,3,3,4,4,5,5],"right_children":[2,4,6,8,10,12,-1,-1,-1,-1,-1,-1,-1],"split_conditions":[1.767582E-1,-1.6970731E-1,-1.5137695E-1,-1.6893598E-1,-2.0207302E-1,-5.4381824E-1,7.641282E-2,-1.898589E-1,-1.2509706E-2,-9.178125E-2,6.8444544E-3,2.6197637E-2,-1.409993E-1],"split_indices":[1910,1603,1554,1397,1344,1887,0,0,0,0,0,0,0],"split_type":[0,0,0,0,0,0,0,0,0,0,0,0,0],"sum_hessian":[7.070998E2,6.9194495E2,1.515486E1,6.1782947E0,6.8576666E2,1.3178976E1,1.975883E0,4.253483E0,1.9248118E0,1.4918461E1,6.708482E2,1.2033892E0,1.1975587E1],"tree_param":{"num_deleted":"0","num_feature":"2000","num_nodes":"13","size_leaf_vector":"1"}},{"base_weights":[9.636044E-3,-4.0818732E-2,4.5684677E-1,-5.509411E-2,1.3241732E0,-1.1343976E0,5.3886074E-1,-1.5192096E-1,-4.0803696E-3,1.9513609E-2,1.828911E-1,-1.5187626E-1,-7.7030435E-3,7.746128E-2,-7.834262E-3],"categories":[],"categories_nodes":[],"categories_segments":[],"categories_sizes":[],"default_left":[0,0,0,0,0,0,0,0,0,0,0,0,0,0,0],"id":66,"left_children":[1,3,5,7,9,11,13,-1,-1,-1,-1,-1,-1,-1,-1],"loss_changes":[1.6081686E1,1.2556221E1,1.0040935E1,1.3223257E1,3.4444132E0,1.453238E0,1.0157692E1,0E0,0E0,0E0,0E0,0E0,0E0,0E0,0E0],"parents":[2147483647,0,0,1,1,2,2,3,3,4,4,5,5,6,6],"right_children":[2,4,6,8,10,12,14,-1,-1,-1,-1,-1,-1,-1,-1],"split_conditions":[-6.760664E-2,-1.64929E-1,-5.6254655E-1,-1.8697031E-1,-1.722934E-1,-1.1453065E-1,-1.398734E-1,-1.5192096E-1,-4.0803696E-3,1.9513609E-2,1.828911E-1,-1.5187626E-1,-7.7030435E-3,7.746128E-2,-7.834262E-3],"split_indices":[1791,1801,1876,1782,1515,1404,922,0,0,0,0,0,0,0,0],"split_type":[0,0,0,0,0,0,0,0,0,0,0,0,0,0,0],"sum_hessian":[7.108904E2,6.396348E2,7.125553E1,6.3396436E2,5.6704965E0,2.8636127E0,6.839192E1,5.1100283E0,6.288543E2,2.180219E0,3.4902773E0,1.7801471E0,1.0834656E0,4.9304234E1,1.9087688E1],"tree_param":{"num_deleted":"0","num_feature":"2000","num_nodes":"15","size_leaf_vector":"1"}},{"base_weights":[5.6950343E-3,-7.874092E-2,2.7267334E-1,-5.4469E-1,-2.6865944E-2,4.1115174E-1,-3.2376704E-1,-8.452081E-2,-2.5098147E-3,6.678997E-3,-3.401718E-2,-2.2069097E-2,5.4601002E-2,-6.1376672E-2,4.420887E-2],"categories":[],"categories_nodes":[],"categories_segments":[],"categories_sizes":[],"default_left":[0,0,0,0,0,0,0,0,0,0,0,0,0,0,0],"id":67,"left_children":[1,3,5,7,9,11,13,-1,-1,-1,-1,-1,-1,-1,-1],"loss_changes":[1.594763E1,1.2977726E1,1.4172162E1,8.378834E0,1.4245848E1,1.1912508E1,7.5089664E0,0E0,0E0,0E0,0E0,0E0,0E0,0E0,0E0],"parents":[2147483647,0,0,1,1,2,2,3,3,4,4,5,5,6,6],"right_children":[2,4,6,8,10,12,14,-1,-1,-1,-1,-1,-1,-1,-1],"split_conditions":[-1.6798635E-1,-1.7898624E-1,-3.6411473E-1,-1.6792198E-1,-3.4019822E-1,-2.645137E-1,-1.312752E-1,-8.452081E-2,-2.5098147E-3,6.678997E-3,-3.401718E-2,-2.2069097E-2,5.4601002E-2,-6.1376672E-2,4.420887E-2],"split_indices":[1471,1572,1879,1433,1915,1547,1471,0,0,0,0,0,0,0,0],"split_type":[0,0,0,0,0,0,0,0,0,0,0,0,0,0,0],"sum_hessian":[7.0549274E2,5.3651636E2,1.689764E2,5.2795837E1,4.8372052E2,1.3738884E2,3.1587555E1,3.3052483E1,1.9743355E1,3.7300552E2,1.10715004E2,2.4053959E1,1.1333488E2,2.3055807E1,8.531748E0],"tree_param":{"num_deleted":"0","num_feature":"2000","num_nodes":"15","size_leaf_vector":"1"}},{"base_weights":[-1.6543798E-2,-5.7791855E-2,5.630643E-1,-9.018804E-2,6.293995E-1,-3.2367042E-1,7.66162E-1,-9.233784E-2,-6.383061E-3,8.483353E-2,-2.3981249E-2,-7.022642E-2,1.0088246E-1,-1.93154E-2,9.891208E-2],"categories":[],"categories_nodes":[],"categories_segments":[],"categories_sizes":[],"default_left":[0,0,0,0,0,0,0,0,0,0,0,0,0,0,0],"id":68,"left_children":[1,3,5,7,9,11,13,-1,-1,-1,-1,-1,-1,-1,-1],"loss_changes":[1.6790592E1,1.4644978E1,8.65156E0,1.3702967E1,5.8414345E0,5.4499316E0,8.37513E0,0E0,0E0,0E0,0E0,0E0,0E0,0E0,0E0],"parents":[2147483647,0,0,1,1,2,2,3,3,4,4,5,5,6,6],"right_children":[2,4,6,8,10,12,14,-1,-1,-1,-1,-1,-1,-1,-1],"split_conditions":[-1.6915078E-1,-1.5376635E-1,-3.8411176E-1,-1.6999729E-1,-4.1824782E-1,5.337238E-2,-2.0087658E-1,-9.233784E-2,-6.383061E-3,8.483353E-2,-2.3981249E-2,-7.022642E-2,1.0088246E-1,-1.93154E-2,9.891208E-2],"split_indices":[1657,1486,1981,1559,1879,1476,188,0,0,0,0,0,0,0,0],"split_type":[0,0,0,0,0,0,0,0,0,0,0,0,0,0,0],"sum_hessian":[6.999477E2,6.5428546E2,4.5662216E1,6.256589E2,2.8626608E1,8.398831E0,3.7263382E1,1.8141796E1,6.07517E2,2.2886106E1,5.7405014E0,6.908836E0,1.4899957E0,7.0525107E0,3.0210873E1],"tree_param":{"num_deleted":"0","num_feature":"2000","num_nodes":"15","size_leaf_vector":"1"}},{"base_weights":[6.0653645E-3,-7.536007E-2,2.3569848E-1,-3.7001806E-1,1.9900056E-2,3.04285E-1,-7.3002845E-1,-4.8938956E-2,3.0027388E-2,-1.9437646E-3,7.990229E-2,5.0659426E-2,3.9738263E-3,-1.459074E-1,3.7678625E-2],"categories":[],"categories_nodes":[],"categories_segments":[],"categories_sizes":[],"default_left":[0,0,0,0,0,0,0,0,0,0,0,0,0,0,0],"id":69,"left_children":[1,3,5,7,9,11,13,-1,-1,-1,-1,-1,-1,-1,-1],"loss_changes":[1.3215924E1,1.465514E1,1.2476731E1,1.0352079E1,1.2131158E1,9.263052E0,1.0686848E1,0E0,0E0,0E0,0E0,0E0,0E0,0E0,0E0],"parents":[2147483647,0,0,1,1,2,2,3,3,4,4,5,5,6,6],"right_children":[2,4,6,8,10,12,14,-1,-1,-1,-1,-1,-1,-1,-1],"split_conditions":[-3.157972E-1,-1.7143345E-1,1.4230645E1,-1.6772248E-1,-1.2886225E-1,-1.6973336E-1,-1.1141347E-1,-4.8938956E-2,3.0027388E-2,-1.9437646E-3,7.990229E-2,5.0659426E-2,3.9738263E-3,-1.459074E-1,3.7678625E-2],"split_indices":[1906,1723,1629,1337,1488,1846,1866,0,0,0,0,0,0,0,0],"split_type":[0,0,0,0,0,0,0,0,0,0,0,0,0,0,0],"sum_hessian":[7.048605E2,5.2084595E2,1.8401454E2,1.2654218E2,3.9430377E2,1.7245183E2,1.156272E1,1.076422E2,1.8899984E1,3.7628052E2,1.802325E1,9.72024E1,7.524942E1,6.7791266E0,4.7835937E0],"tree_param":{"num_deleted":"0","num_feature":"2000","num_nodes":"15","size_leaf_vector":"1"}},{"base_weights":[-2.2347318E-3,-3.2538664E-2,6.581777E-1,-1.4690442E0,-1.9403944E-2,1.2414496E0,2.7410972E-1,-1.839971E-1,1.608571E-2,-1.4456223E-2,1.3448201E-2,-1.768634E-2,1.3993911E-1,-3.228822E-2,7.630854E-2],"categories":[],"categories_nodes":[],"categories_segments":[],"categories_sizes":[],"default_left":[0,0,0,0,0,0,0,0,0,0,0,0,0,0,0],"id":70,"left_children":[1,3,5,7,9,11,13,-1,-1,-1,-1,-1,-1,-1,-1],"loss_changes":[1.3967773E1,1.2561065E1,6.519225E0,3.9429235E0,1.2773649E1,2.9074268E0,6.0106907E0,0E0,0E0,0E0,0E0,0E0,0E0,0E0,0E0],"parents":[2147483647,0,0,1,1,2,2,3,3,4,4,5,5,6,6],"right_children":[2,4,6,8,10,12,14,-1,-1,-1,-1,-1,-1,-1,-1],"split_conditions":[-1.512614E-1,-1.7018278E-1,1.3499139E-2,-1.6340485E-1,-1.700798E-1,-8.1980103E-1,-1.8568993E-1,-1.839971E-1,1.608571E-2,-1.4456223E-2,1.3448201E-2,-1.768634E-2,1.3993911E-1,-3.228822E-2,7.630854E-2],"split_indices":[1770,618,1833,1413,1354,1999,1630,0,0,0,0,0,0,0,0],"split_type":[0,0,0,0,0,0,0,0,0,0,0,0,0,0,0],"sum_hessian":[6.9586163E2,6.6624097E2,2.9620657E1,5.032269E0,6.6120874E2,1.0874112E1,1.8746546E1,3.9943626E0,1.0379065E0,3.6467355E2,2.9653516E2,1.0775869E0,9.796525E0,8.593902E0,1.0152644E1],"tree_param":{"num_deleted":"0","num_feature":"2000","num_nodes":"15","size_leaf_vector":"1"}},{"base_weights":[-4.800579E-3,-1.6502935E0,7.655055E-3,-2.0232506E-1,-6.355077E-2,-1.5659591E-2,8.6338663E-1,-3.258877E-2,4.758504E-3,-6.884842E-2,9.939646E-2],"categories":[],"categories_nodes":[],"categories_segments":[],"categories_sizes":[],"default_left":[0,0,0,0,0,0,0,0,0,0,0],"id":71,"left_children":[1,3,5,-1,-1,7,9,-1,-1,-1,-1],"loss_changes":[1.4340637E1,7.036619E-1,1.3875901E1,0E0,0E0,1.330573E1,4.4222803E0,0E0,0E0,0E0,0E0],"parents":[2147483647,0,0,1,1,2,2,5,5,6,6],"right_children":[2,4,6,-1,-1,8,10,-1,-1,-1,-1],"split_conditions":[-1.6970731E-1,-5.4676676E-1,-1.1528658E-1,-2.0232506E-1,-6.355077E-2,-1.7076805E-1,-1.7069624E-1,-3.258877E-2,4.758504E-3,-6.884842E-2,9.939646E-2],"split_indices":[770,1901,1438,0,0,1479,1856,0,0,0,0],"split_type":[0,0,0,0,0,0,0,0,0,0,0],"sum_hessian":[6.9807513E2,4.2565436E0,6.938186E2,2.3858998E0,1.8706439E0,6.763724E2,1.7446253E1,1.1383502E2,5.6253735E2,1.0224316E0,1.642382E1],"tree_param":{"num_deleted":"0","num_feature":"2000","num_nodes":"11","size_leaf_vector":"1"}},{"base_weights":[7.973448E-3,-2.8484622E-2,5.881236E-1,-3.2199517E-1,3.5596266E-2,1.2755239E0,3.6511874E-1,7.3125236E-2,-4.7236618E-2,-2.8557627E-2,1.261396E-2,1.4191216E-1,7.3846034E-3,-4.580637E-2,6.0225606E-2],"categories":[],"categories_nodes":[],"categories_segments":[],"categories_sizes":[],"default_left":[0,0,0,0,0,0,0,0,0,0,0,0,0,0,0],"id":72,"left_children":[1,3,5,7,9,11,13,-1,-1,-1,-1,-1,-1,-1,-1],"loss_changes":[1.4659683E1,1.2280562E1,5.8161974E0,1.8875023E1,1.5632325E1,1.5581408E0,6.589396E0,0E0,0E0,0E0,0E0,0E0,0E0,0E0,0E0],"parents":[2147483647,0,0,1,1,2,2,3,3,4,4,5,5,6,6],"right_children":[2,4,6,8,10,12,14,-1,-1,-1,-1,-1,-1,-1,-1],"split_conditions":[-7.639068E-2,-1.7004989E-1,-4.478756E-1,-4.0346813E-1,-4.555065E-1,-1.6060083E-1,2.3744932E-1,7.3125236E-2,-4.7236618E-2,-2.8557627E-2,1.261396E-2,1.4191216E-1,7.3846034E-3,-4.580637E-2,6.0225606E-2],"split_indices":[1280,1735,1852,1981,1940,1537,1729,0,0,0,0,0,0,0,0],"split_type":[0,0,0,0,0,0,0,0,0,0,0,0,0,0,0],"sum_hessian":[6.912993E2,6.513197E2,3.9979637E1,1.15996155E2,5.3532355E2,8.636963E0,3.1342674E1,1.4009071E1,1.0198708E2,1.1725305E2,4.1807047E2,7.553399E0,1.083564E0,6.8013363E0,2.4541338E1],"tree_param":{"num_deleted":"0","num_feature":"2000","num_nodes":"15","size_leaf_vector":"1"}},{"base_weights":[-1.4506765E-2,-3.278737E-2,9.7232527E-1,-9.497187E-1,-1.3419476E-2,-9.524277E-3,1.3027142E0,-1.171353E-1,6.560477E-2,-3.743361E-3,8.3139054E-2,-9.790196E-2,7.66191E-2,1.5301442E-1,2.8671635E-2],"categories":[],"categories_nodes":[],"categories_segments":[],"categories_sizes":[],"default_left":[0,0,0,0,0,0,0,0,0,0,0,0,0,0,0],"id":73,"left_children":[1,3,5,7,9,11,13,-1,-1,-1,-1,-1,-1,-1,-1],"loss_changes":[1.2624036E1,1.2175093E1,4.14124E0,5.8157234E0,1.3686712E1,3.9067123E0,1.7634983E0,0E0,0E0,0E0,0E0,0E0,0E0,0E0,0E0],"parents":[2147483647,0,0,1,1,2,2,3,3,4,4,5,5,6,6],"right_children":[2,4,6,8,10,12,14,-1,-1,-1,-1,-1,-1,-1,-1],"split_conditions":[-1.6454746E-1,-1.732686E-1,-1.6738889E-1,-1.444963E-1,-1.6163269E-1,-3.381811E-1,-1.5684196E-1,-1.171353E-1,6.560477E-2,-3.743361E-3,8.3139054E-2,-9.790196E-2,7.66191E-2,1.5301442E-1,2.8671635E-2],"split_indices":[1623,1462,1629,568,1512,1960,17,0,0,0,0,0,0,0,0],"split_type":[0,0,0,0,0,0,0,0,0,0,0,0,0,0,0],"sum_hessian":[6.970174E2,6.852895E2,1.1727897E1,1.3181967E1,6.7210754E2,3.1973093E0,8.530587E0,1.1820929E1,1.3610384E0,6.544599E2,1.764765E1,1.3046548E0,1.8926545E0,6.556804E0,1.9737833E0],"tree_param":{"num_deleted":"0","num_feature":"2000","num_nodes":"15","size_leaf_vector":"1"}},{"base_weights":[-2.2752117E-3,-1.3898833E0,1.1948673E-2,3.1031135E-3,-1.6502702E0,-3.3244744E-1,7.046135E-2,-3.3978656E-2,-1.8492699E-1,-5.2346468E-2,1.7565118E-2,-1.4006701E-1,8.425493E-3],"categories":[],"categories_nodes":[],"categories_segments":[],"categories_sizes":[],"default_left":[0,0,0,0,0,0,0,0,0,0,0,0,0],"id":74,"left_children":[1,3,5,-1,7,9,11,-1,-1,-1,-1,-1,-1],"loss_changes":[1.3804914E1,2.676982E0,1.3978341E1,0E0,9.4059944E-1,9.869661E0,1.2146305E1,0E0,0E0,0E0,0E0,0E0,0E0],"parents":[2147483647,0,0,1,1,2,2,4,4,5,5,6,6],"right_children":[2,4,6,-1,8,10,12,-1,-1,-1,-1,-1,-1],"split_conditions":[-1.749869E-1,-4.2247862E-1,-1.840205E-1,3.1031135E-3,-1.7961544E-1,-7.322754E-2,-1.6970731E-1,-3.3978656E-2,-1.8492699E-1,-5.2346468E-2,1.7565118E-2,-1.4006701E-1,8.425493E-3],"split_indices":[1437,1966,1510,0,1728,1839,618,0,0,0,0,0,0],"split_type":[0,0,0,0,0,0,0,0,0,0,0,0,0],"sum_hessian":[6.975957E2,6.0969224E0,6.914988E2,1.0806596E0,5.016263E0,9.974344E1,5.917553E2,1.0182431E0,3.99802E0,7.246887E1,2.727457E1,4.5628886E0,5.8719244E2],"tree_param":{"num_deleted":"0","num_feature":"2000","num_nodes":"13","size_leaf_vector":"1"}},{"base_weights":[1.1291938E-2,-7.0225475E-3,1.1077107E0,-4.74025E-1,3.4693994E-2,-5.480482E-3,1.2326725E-1,-1.05210796E-1,-8.6606306E-4,-5.454586E-3,2.8247515E-2],"categories":[],"categories_nodes":[],"categories_segments":[],"categories_sizes":[],"default_left":[0,0,0,0,0,0,0,0,0,0,0],"id":75,"left_children":[1,3,5,7,9,-1,-1,-1,-1,-1,-1],"loss_changes":[1.3910633E1,1.3302593E1,1.7209368E0,1.5053993E1,1.3879318E1,0E0,0E0,0E0,0E0,0E0,0E0],"parents":[2147483647,0,0,1,1,2,2,3,3,4,4],"right_children":[2,4,6,8,10,-1,-1,-1,-1,-1,-1],"split_conditions":[-1.4421076E-1,-1.7134018E-1,-1.7045969E-1,-1.67139E-1,-9.189163E-2,-5.480482E-3,1.2326725E-1,-1.05210796E-1,-8.6606306E-4,-5.454586E-3,2.8247515E-2],"split_indices":[1742,1557,1449,500,1839,0,0,0,0,0,0],"split_type":[0,0,0,0,0,0,0,0,0,0,0],"sum_hessian":[6.913613E2,6.8097986E2,1.0381434E1,5.4992672E1,6.259872E2,1.062107E0,9.319327E0,2.3963728E1,3.1028944E1,4.608053E2,1.651819E2],"tree_param":{"num_deleted":"0","num_feature":"2000","num_nodes":"11","size_leaf_vector":"1"}},{"base_weights":[-4.816423E-3,-1.6258454E-2,1.636135E-1,-5.273729E-1,2.118357E-2,-1.22718476E-1,-2.1476021E-2,5.805279E-3,-5.3607672E-2],"categories":[],"categories_nodes":[],"categories_segments":[],"categories_sizes":[],"default_left":[0,0,0,0,0,0,0,0,0],"id":76,"left_children":[1,3,-1,5,7,-1,-1,-1,-1],"loss_changes":[1.32055645E1,1.33696995E1,0E0,1.0168239E1,1.3413751E1,0E0,0E0,0E0,0E0],"parents":[2147483647,0,0,1,1,3,3,4,4],"right_children":[2,4,-1,6,8,-1,-1,-1,-1],"split_conditions":[-1.54589E-1,-1.7207713E-1,1.636135E-1,-3.825034E-1,-8.722562E-2,-1.22718476E-1,-2.1476021E-2,5.805279E-3,-5.3607672E-2],"split_indices":[1769,1557,0,1982,1895,0,0,0,0],"split_type":[0,0,0,0,0,0,0,0,0],"sum_hessian":[7.009115E2,6.9704126E2,3.8702395E0,4.6683807E1,6.503575E2,1.3511505E1,3.3172302E1,6.108392E2,3.9518257E1],"tree_param":{"num_deleted":"0","num_feature":"2000","num_nodes":"9","size_leaf_vector":"1"}},{"base_weights":[2.3076028E-2,-5.297939E-1,5.8787514E-2,-6.777386E-1,9.458887E-1,-1.2542529E0,7.354592E-2,-4.315199E-2,-1.6818683E-1,1.1743807E-1,1.1063556E-2,2.362916E-3,-1.4819802E-1,5.7218964E-3,1.2543155E-1],"categories":[],"categories_nodes":[],"categories_segments":[],"categories_sizes":[],"default_left":[0,0,0,0,0,0,0,0,0,0,0,0,0,0,0],"id":77,"left_children":[1,3,5,7,9,11,13,-1,-1,-1,-1,-1,-1,-1,-1],"loss_changes":[1.3572032E1,9.747559E0,1.2593584E1,8.79122E0,6.7510843E-1,2.1377983E0,1.2245026E1,0E0,0E0,0E0,0E0,0E0,0E0,0E0,0E0],"parents":[2147483647,0,0,1,1,2,2,3,3,4,4,5,5,6,6],"right_children":[2,4,6,8,10,12,14,-1,-1,-1,-1,-1,-1,-1,-1],"split_conditions":[-1.1527998E0,4.82613E-1,-1.7321561E-1,-1.5914118E-1,1.8429682E-1,-8.183966E-2,-1.688062E-1,-4.315199E-2,-1.6818683E-1,1.1743807E-1,1.1063556E-2,2.362916E-3,-1.4819802E-1,5.7218964E-3,1.2543155E-1],"split_indices":[1911,1988,1437,516,1935,1755,1573,0,0,0,0,0,0,0,0],"split_type":[0,0,0,0,0,0,0,0,0,0,0,0,0,0,0],"sum_hessian":[6.848295E2,4.071178E1,6.4411774E2,3.7493587E1,3.2181947E0,6.2258353E0,6.378919E2,3.1258549E1,6.2350397E0,2.2081227E0,1.0100718E0,1.0772321E0,5.148603E0,6.30226E2,7.6659174E0],"tree_param":{"num_deleted":"0","num_feature":"2000","num_nodes":"15","size_leaf_vector":"1"}},{"base_weights":[-1.3064832E-2,-5.461683E-2,4.5390007E-1,-1.7177418E0,-4.036278E-2,8.0969673E-1,3.079273E-3,-3.930514E-3,-2.136482E-1,-6.039448E-3,1.14763975E-1,1.05008654E-1,-5.4695345E-2,-6.1911892E-2,5.685857E-2],"categories":[],"categories_nodes":[],"categories_segments":[],"categories_sizes":[],"default_left":[0,0,0,0,0,0,0,0,0,0,0,0,0,0,0],"id":78,"left_children":[1,3,5,7,9,11,13,-1,-1,-1,-1,-1,-1,-1,-1],"loss_changes":[1.3404788E1,1.4963255E1,9.052731E0,3.6863918E0,1.5056018E1,1.0863062E1,9.467035E0,0E0,0E0,0E0,0E0,0E0,0E0,0E0,0E0],"parents":[2147483647,0,0,1,1,2,2,3,3,4,4,5,5,6,6],"right_children":[2,4,6,8,10,12,14,-1,-1,-1,-1,-1,-1,-1,-1],"split_conditions":[-1.692599E-1,-1.6970731E-1,-1.9714665E-1,-3.5513878E-1,1.5344521E0,-9.9104784E-2,-2.0699249E-1,-3.930514E-3,-2.136482E-1,-6.039448E-3,1.14763975E-1,1.05008654E-1,-5.4695345E-2,-6.1911892E-2,5.685857E-2],"split_indices":[1317,410,1905,1991,1997,1710,1999,0,0,0,0,0,0,0,0],"split_type":[0,0,0,0,0,0,0,0,0,0,0,0,0,0,0],"sum_hessian":[6.885724E2,6.331186E2,5.545383E1,4.3645573E0,6.28754E2,3.054839E1,2.4905441E1,1.0898751E0,3.2746823E0,6.192614E2,9.492617E0,2.614214E1,4.4062495E0,1.1813185E1,1.3092257E1],"tree_param":{"num_deleted":"0","num_feature":"2000","num_nodes":"15","size_leaf_vector":"1"}},{"base_weights":[-1.971248E-2,-6.930687E-2,3.7578666E-1,-1.20409995E-1,3.9187944E-1,-6.6518396E-1,6.0623795E-1,-1.4214884E-2,9.775635E-2,-3.4092437E-2,5.442343E-2,-9.172884E-2,5.060422E-2,8.6944036E-2,5.638835E-3],"categories":[],"categories_nodes":[],"categories_segments":[],"categories_sizes":[],"default_left":[0,0,0,0,0,0,0,0,0,0,0,0,0,0,0],"id":79,